svm_type c_svc
kernel_type rbf
gamma 0.005050505050505051
nr_class 2
total_sv 1400
rho 1.4187102642135676
label 1 -1
nr_sv 556 844
SV
1.0 5:1.0 38:1.0 41:1.0 72:1.0 85:1.0 116:1.0 131:1.0 144:1.0 170:1.0 181:5.1877 182:2.57545 183:1.53605 184:3.7189 185:5.18791 186:2.43601 187:5.33219 188:4.98385 189:3.92252 190:2.8 191:4.2 192:1.8 193:-3.5 194:2.8 195:-0.8 196:1.9 197:-3.5 198:3.8 
1.0 20:1.0 31:1.0 43:1.0 63:1.0 98:1.0 118:1.0 130:1.0 146:1.0 178:1.0 181:6.554 182:5.33201 183:3.68164 184:3.62928 185:2.57579 186:2.57374 187:3.93724 188:0.0 189:2.57092 190:-1.3 191:1.9 192:-3.5 193:-3.5 194:4.2 195:4.2 196:3.8 197:-0.4 198:4.2 
1.0 10:1.0 30:1.0 56:1.0 72:1.0 97:1.0 110:1.0 121:1.0 144:1.0 170:1.0 181:3.93803 182:3.9346 183:2.43473 184:3.68501 185:2.61077 186:3.93502 187:1.53623 188:4.98281 189:3.92333 190:3.8 191:3.8 192:-0.8 193:-3.5 194:-0.7 195:3.8 196:1.8 197:-3.5 198:3.8 
1.0 15:1.0 30:1.0 58:1.0 63:1.0 81:1.0 111:1.0 138:1.0 160:1.0 177:1.0 181:7.27884 182:3.93493 183:2.57257 184:3.64783 185:1.53703 186:5.33269 187:2.57608 188:6.52179 189:2.60589 190:-4.5 191:3.8 192:4.2 193:-3.5 194:1.8 195:1.9 196:4.2 197:-1.3 198:-0.7 
1.0 4:1.0 31:1.0 41:1.0 63:1.0 100:1.0 108:1.0 125:1.0 145:1.0 178:1.0 181:4.98144 182:5.33138 183:1.53629 184:3.64049 185:6.53263 186:3.92438 187:5.18599 188:5.19017 189:2.57227 190:-3.5 191:1.9 192:1.8 193:-3.5 194:-1.3 195:4.5 196:2.8 197:2.8 198:4.2 
1.0 5:1.0 30:1.0 45:1.0 64:1.0 91:1.0 110:1.0 129:1.0 146:1.0 178:1.0 181:5.18968 182:3.93197 183:5.19871 184:4.983 185:5.33357 186:3.93422 187:6.3868 188:0.0 189:2.57109 190:2.8 191:3.8 192:2.8 193:-3.5 194:1.9 195:3.8 196:-3.9 197:-0.4 198:4.2 
1.0 9:1.0 28:1.0 50:1.0 76:1.0 98:1.0 105:1.0 125:1.0 150:1.0 161:1.0 181:6.39256 182:3.92128 183:3.93414 184:2.43371 185:2.57868 186:5.19131 187:5.19159 188:3.93019 189:1.53634 190:-3.9 191:4.5 192:3.8 193:-0.8 194:4.2 195:2.8 196:2.8 197:3.8 198:1.8 
1.0 5:1.0 26:1.0 41:1.0 74:1.0 91:1.0 106:1.0 139:1.0 153:1.0 178:1.0 181:5.17047 182:0.0 183:1.53781 184:5.01605 185:5.33208 186:0.0 187:6.02738 188:2.41284 189:2.56969 190:2.8 191:-0.4 192:1.8 193:-3.5 194:1.9 195:-0.4 196:-0.9 197:-1.6 198:4.2 
1.0 10:1.0 30:1.0 47:1.0 63:1.0 88:1.0 106:1.0 129:1.0 153:1.0 178:1.0 181:3.93815 182:3.93631 183:4.5084 184:3.63915 185:3.92413 186:0.0 187:6.37627 188:2.41061 189:2.57068 190:3.8 191:3.8 192:-3.2 193:-3.5 194:4.5 195:-0.4 196:-3.9 197:-1.6 198:4.2 
1.0 5:1.0 30:1.0 57:1.0 74:1.0 92:1.0 105:1.0 126:1.0 153:1.0 178:1.0 181:5.2249 182:3.93709 183:2.60073 184:5.01226 185:3.71932 186:5.18002 187:0.0 188:2.41222 189:2.5684 190:2.8 191:3.8 192:-0.7 193:-3.5 194:-3.5 195:2.8 196:-0.4 197:-1.6 198:4.2 
1.0 9:1.0 34:1.0 50:1.0 64:1.0 96:1.0 118:1.0 131:1.0 160:1.0 170:1.0 181:6.39222 182:5.01827 183:3.93206 184:4.98463 185:2.43583 186:2.57623 187:5.32317 188:6.51341 189:3.92288 190:-3.9 191:-3.5 192:3.8 193:-3.5 194:-0.8 195:4.2 196:1.9 197:-1.3 198:3.8 
1.0 8:1.0 30:1.0 60:1.0 74:1.0 98:1.0 113:1.0 125:1.0 156:1.0 178:1.0 181:3.92448 182:3.93199 183:6.57433 184:5.01963 185:2.62023 186:2.41817 187:5.18262 188:2.43753 189:2.57331 190:4.5 191:3.8 192:-1.3 193:-3.5 194:4.2 195:-1.6 196:2.8 197:-0.8 198:4.2 
1.0 8:1.0 31:1.0 50:1.0 78:1.0 96:1.0 110:1.0 123:1.0 157:1.0 178:1.0 181:3.92351 182:5.32602 183:3.93204 184:2.57242 185:2.43684 186:3.93303 187:3.65183 188:2.61011 189:2.57095 190:4.5 191:1.9 192:3.8 193:4.2 194:-0.8 195:3.8 196:-3.5 197:-0.7 198:4.2 
1.0 20:1.0 30:1.0 58:1.0 61:1.0 100:1.0 114:1.0 121:1.0 157:1.0 178:1.0 181:6.57468 182:3.93406 183:2.57434 184:1.53668 185:6.5586 186:5.01761 187:1.53478 188:2.60936 189:2.56978 190:-1.3 191:3.8 192:4.2 193:1.8 194:-1.3 195:-3.5 196:1.8 197:-0.7 198:4.2 
1.0 10:1.0 30:1.0 43:1.0 73:1.0 90:1.0 120:1.0 125:1.0 144:1.0 178:1.0 181:3.93778 182:3.93059 183:3.69221 184:2.41775 185:3.9324 186:6.54994 187:5.19414 188:4.98211 189:2.57272 190:3.8 191:3.8 192:-3.5 193:-1.6 194:3.8 195:-1.3 196:2.8 197:-3.5 198:4.2 
1.0 18:1.0 30:1.0 45:1.0 76:1.0 86:1.0 113:1.0 136:1.0 153:1.0 170:1.0 181:2.58826 182:3.9329 183:5.15398 184:2.43569 185:0.0 186:2.41273 187:2.4352 188:2.41445 189:3.92346 190:4.2 191:3.8 192:2.8 193:-0.8 194:-0.4 195:-1.6 196:-0.8 197:-1.6 198:3.8 
1.0 6:1.0 30:1.0 45:1.0 78:1.0 96:1.0 110:1.0 133:1.0 158:1.0 178:1.0 181:0.0 182:3.93578 183:5.17054 184:2.57588 185:2.4345 186:3.92561 187:2.40924 188:2.57441 189:2.57038 190:-0.4 191:3.8 192:2.8 193:4.2 194:-0.8 195:3.8 196:-1.6 197:4.2 198:4.2 
1.0 5:1.0 38:1.0 46:1.0 69:1.0 97:1.0 118:1.0 139:1.0 145:1.0 178:1.0 181:5.17563 182:2.57376 183:0.0 184:6.39054 185:2.60524 186:2.57813 187:6.01214 188:5.1853 189:2.57333 190:2.8 191:4.2 192:-0.4 193:-3.9 194:-0.7 195:4.2 196:-0.9 197:2.8 198:4.2 
1.0 10:1.0 31:1.0 58:1.0 63:1.0 96:1.0 105:1.0 123:1.0 153:1.0 178:1.0 181:3.94087 182:5.33148 183:2.57309 184:3.6552 185:2.43359 186:5.21111 187:3.674 188:2.40426 189:2.56906 190:3.8 191:1.9 192:4.2 193:-3.5 194:-0.8 195:2.8 196:-3.5 197:-1.6 198:4.2 
1.0 14:1.0 30:1.0 50:1.0 74:1.0 81:1.0 112:1.0 133:1.0 148:1.0 170:1.0 181:5.01477 182:3.93518 183:3.93096 184:5.01667 185:1.53618 186:3.71936 187:2.40904 188:3.91476 189:3.92472 190:-3.5 191:3.8 192:3.8 193:-3.5 194:1.8 195:-3.5 196:-1.6 197:4.5 198:3.8 
1.0 10:1.0 30:1.0 45:1.0 66:1.0 100:1.0 101:1.0 138:1.0 160:1.0 178:1.0 181:3.9375 182:3.93129 183:5.16793 184:0.0 185:6.55446 186:1.53615 187:2.5749 188:6.51612 189:2.5723 190:3.8 191:3.8 192:2.8 193:-0.4 194:-1.3 195:1.8 196:4.2 197:-1.3 198:4.2 
1.0 8:1.0 30:1.0 45:1.0 62:1.0 85:1.0 110:1.0 121:1.0 141:1.0 178:1.0 181:3.92352 182:3.93224 183:5.17654 184:2.77062 185:5.17931 186:3.93312 187:1.53533 188:1.53647 189:2.56919 190:4.5 191:3.8 192:2.8 193:2.5 194:2.8 195:3.8 196:1.8 197:1.8 198:4.2 
1.0 1:1.0 30:1.0 41:1.0 73:1.0 96:1.0 117:1.0 131:1.0 149:1.0 168:1.0 181:1.53975 182:3.9324 183:1.53754 184:2.4144 185:2.43136 186:2.61716 187:5.31995 188:6.3758 189:3.91704 190:1.8 191:3.8 192:1.8 193:-1.6 194:-0.8 195:-0.7 196:1.9 197:-3.9 198:4.5 
1.0 5:1.0 30:1.0 53:1.0 63:1.0 97:1.0 115:1.0 125:1.0 146:1.0 178:1.0 181:5.18845 182:3.93037 183:2.41216 184:3.68845 185:2.61481 186:7.29011 187:5.17004 188:0.0 189:2.57104 190:2.8 191:3.8 192:-1.6 193:-3.5 194:-0.7 195:-4.5 196:2.8 197:-0.4 198:4.2 
1.0 8:1.0 30:1.0 52:1.0 73:1.0 100:1.0 111:1.0 133:1.0 156:1.0 178:1.0 181:3.92638 182:3.93151 183:3.72813 184:2.42293 185:6.50292 186:5.31438 187:2.41554 188:2.42968 189:2.57433 190:4.5 191:3.8 192:-3.5 193:-1.6 194:-1.3 195:1.9 196:-1.6 197:-0.8 198:4.2 
1.0 10:1.0 28:1.0 51:1.0 65:1.0 84:1.0 114:1.0 140:1.0 145:1.0 168:1.0 181:3.94112 182:3.92202 183:5.32504 184:5.19314 185:4.98457 186:5.01544 187:6.53985 188:5.19226 189:3.91489 190:3.8 191:4.5 192:1.9 193:2.8 194:-3.5 195:-3.5 196:-1.3 197:2.8 198:4.5 
1.0 5:1.0 38:1.0 45:1.0 68:1.0 90:1.0 117:1.0 121:1.0 148:1.0 170:1.0 181:5.19174 182:2.57518 183:5.20364 184:3.92344 185:3.92882 186:2.60657 187:1.5359 188:3.91752 189:3.92313 190:2.8 191:4.2 192:2.8 193:4.5 194:3.8 195:-0.7 196:1.8 197:4.5 198:3.8 
1.0 10:1.0 30:1.0 60:1.0 61:1.0 87:1.0 108:1.0 132:1.0 141:1.0 170:1.0 181:3.93812 182:3.93219 183:6.54178 184:1.53624 185:4.52199 186:3.91993 187:3.71328 188:1.53733 189:3.92386 190:3.8 191:3.8 192:-1.3 193:1.8 194:-3.2 195:4.5 196:-3.5 197:1.8 198:3.8 
1.0 15:1.0 30:1.0 60:1.0 63:1.0 90:1.0 117:1.0 135:1.0 160:1.0 161:1.0 181:7.27724 182:3.9303 183:6.54476 184:3.66523 185:3.93452 186:2.60492 187:7.28046 188:6.50872 189:1.53798 190:-4.5 191:3.8 192:-1.3 193:-3.5 194:3.8 195:-0.7 196:-4.5 197:-1.3 198:1.8 
1.0 13:1.0 30:1.0 45:1.0 73:1.0 86:1.0 108:1.0 137:1.0 155:1.0 178:1.0 181:2.36805 182:3.93335 183:5.19732 184:2.41266 185:0.0 186:3.92346 187:2.61038 188:7.31093 189:2.56696 190:-1.6 191:3.8 192:2.8 193:-1.6 194:-0.4 195:4.5 196:-0.7 197:-4.5 198:4.2 
1.0 6:1.0 30:1.0 50:1.0 65:1.0 86:1.0 101:1.0 121:1.0 146:1.0 178:1.0 181:0.0 182:3.93558 183:3.93019 184:5.16803 185:0.0 186:1.5369 187:1.53822 188:0.0 189:2.5717 190:-0.4 191:3.8 192:3.8 193:2.8 194:-0.4 195:1.8 196:1.8 197:-0.4 198:4.2 
1.0 5:1.0 30:1.0 60:1.0 78:1.0 98:1.0 102:1.0 136:1.0 150:1.0 161:1.0 181:5.1919 182:3.93227 183:6.55345 184:2.57276 185:2.57256 186:2.77429 187:2.4357 188:3.93058 189:1.53759 190:2.8 191:3.8 192:-1.3 193:4.2 194:4.2 195:2.5 196:-0.8 197:3.8 198:1.8 
1.0 7:1.0 34:1.0 45:1.0 77:1.0 96:1.0 112:1.0 133:1.0 144:1.0 178:1.0 181:4.54871 182:5.01645 183:5.16158 184:2.61566 185:2.43143 186:3.7146 187:2.40919 188:4.98047 189:2.57082 190:-3.2 191:-3.5 192:2.8 193:-0.7 194:-0.8 195:-3.5 196:-1.6 197:-3.5 198:4.2 
1.0 20:1.0 30:1.0 41:1.0 64:1.0 92:1.0 117:1.0 125:1.0 158:1.0 178:1.0 181:6.55683 182:3.9354 183:1.53458 184:4.98521 185:3.68337 186:2.6136 187:5.20146 188:2.57408 189:2.57193 190:-1.3 191:3.8 192:1.8 193:-3.5 194:-3.5 195:-0.7 196:2.8 197:4.2 198:4.2 
1.0 8:1.0 38:1.0 50:1.0 76:1.0 87:1.0 108:1.0 130:1.0 153:1.0 170:1.0 181:3.92427 182:2.57422 183:3.93378 184:2.4342 185:4.49142 186:3.92085 187:3.92662 188:2.41393 189:3.92363 190:4.5 191:4.2 192:3.8 193:-0.8 194:-3.2 195:4.5 196:3.8 197:-1.6 198:3.8 
1.0 1:1.0 31:1.0 41:1.0 66:1.0 96:1.0 108:1.0 123:1.0 150:1.0 170:1.0 181:1.54043 182:5.32905 183:1.53692 184:0.0 185:2.43954 186:3.91844 187:3.64389 188:3.93065 189:3.92381 190:1.8 191:1.9 192:1.8 193:-0.4 194:-0.8 195:4.5 196:-3.5 197:3.8 198:3.8 
1.0 12:1.0 31:1.0 58:1.0 73:1.0 85:1.0 105:1.0 133:1.0 153:1.0 178:1.0 181:3.74691 182:5.33408 183:2.62265 184:2.41853 185:5.1913 186:5.15615 187:2.41378 188:2.41419 189:2.57125 190:-3.5 191:1.9 192:4.2 193:-1.6 194:2.8 195:2.8 196:-1.6 197:-1.6 198:4.2 
1.0 5:1.0 37:1.0 51:1.0 75:1.0 90:1.0 110:1.0 136:1.0 153:1.0 178:1.0 181:5.2012 182:2.60847 183:5.33129 184:7.28657 185:3.93146 186:3.93422 187:2.43033 188:2.41186 189:2.56992 190:2.8 191:-0.7 192:1.9 193:-4.5 194:3.8 195:3.8 196:-0.8 197:-1.6 198:4.2 
1.0 6:1.0 31:1.0 56:1.0 70:1.0 90:1.0 104:1.0 140:1.0 146:1.0 178:1.0 181:0.0 182:5.33187 183:2.43207 184:3.93332 185:3.9333 186:4.97429 187:6.51738 188:0.0 189:2.57043 190:-0.4 191:1.9 192:-0.8 193:3.8 194:3.8 195:-3.5 196:-1.3 197:-0.4 198:4.2 
1.0 15:1.0 31:1.0 48:1.0 61:1.0 88:1.0 116:1.0 121:1.0 149:1.0 178:1.0 181:7.27258 182:5.32781 183:3.92099 184:1.53655 185:3.9198 186:2.43505 187:1.53777 188:6.37969 189:2.56852 190:-4.5 191:1.9 192:4.5 193:1.8 194:4.5 195:-0.8 196:1.8 197:-3.9 198:4.2 
1.0 20:1.0 30:1.0 55:1.0 66:1.0 87:1.0 117:1.0 124:1.0 156:1.0 168:1.0 181:6.55763 182:3.93552 183:7.24477 184:0.0 185:4.50215 186:2.60906 187:4.98447 188:2.43805 189:3.91645 190:-1.3 191:3.8 192:-4.5 193:-0.4 194:-3.2 195:-0.7 196:-3.5 197:-0.8 198:4.5 
1.0 18:1.0 30:1.0 57:1.0 67:1.0 86:1.0 110:1.0 121:1.0 156:1.0 178:1.0 181:2.5874 182:3.93082 183:2.60666 184:4.49603 185:0.0 186:3.93618 187:1.53569 188:2.43844 189:2.57214 190:4.2 191:3.8 192:-0.7 193:-3.2 194:-0.4 195:3.8 196:1.8 197:-0.8 198:4.2 
1.0 20:1.0 38:1.0 50:1.0 63:1.0 87:1.0 110:1.0 128:1.0 158:1.0 178:1.0 181:6.55232 182:2.57288 183:3.93291 184:3.66283 185:4.48758 186:3.93477 187:3.92002 188:2.57161 189:2.56932 190:-1.3 191:4.2 192:3.8 193:-3.5 194:-3.2 195:3.8 196:4.5 197:4.2 198:4.2 
1.0 5:1.0 30:1.0 47:1.0 80:1.0 82:1.0 112:1.0 136:1.0 160:1.0 161:1.0 181:5.19943 182:3.93451 183:4.50877 184:6.56064 185:2.77613 186:3.70491 187:2.43288 188:6.51414 189:1.53771 190:2.8 191:3.8 192:-3.2 193:-1.3 194:2.5 195:-3.5 196:-0.8 197:-1.3 198:1.8 
1.0 12:1.0 30:1.0 59:1.0 72:1.0 86:1.0 108:1.0 138:1.0 153:1.0 177:1.0 181:3.74588 182:3.93259 183:6.03392 184:3.72935 185:0.0 186:3.92622 187:2.62361 188:2.40938 189:2.60266 190:-3.5 191:3.8 192:-0.9 193:-3.5 194:-0.4 195:4.5 196:4.2 197:-1.6 198:-0.7 
1.0 6:1.0 21:1.0 50:1.0 63:1.0 98:1.0 116:1.0 121:1.0 156:1.0 178:1.0 181:0.0 182:1.53703 183:3.93264 184:3.63294 185:2.57552 186:2.43835 187:1.53729 188:2.4381 189:2.57278 190:-0.4 191:1.8 192:3.8 193:-3.5 194:4.2 195:-0.8 196:1.8 197:-0.8 198:4.2 
1.0 15:1.0 30:1.0 58:1.0 63:1.0 83:1.0 105:1.0 130:1.0 150:1.0 178:1.0 181:7.28329 182:3.93494 183:2.57319 184:3.63505 185:3.64666 186:5.20081 187:3.93471 188:3.92989 189:2.56927 190:-4.5 191:3.8 192:4.2 193:-3.5 194:-3.5 195:2.8 196:3.8 197:3.8 198:4.2 
1.0 11:1.0 28:1.0 48:1.0 71:1.0 90:1.0 108:1.0 133:1.0 157:1.0 178:1.0 181:5.33584 182:3.91953 183:3.92236 184:5.32259 185:3.92889 186:3.90494 187:2.41228 188:2.61392 189:2.57155 190:1.9 191:4.5 192:4.5 193:1.9 194:3.8 195:4.5 196:-1.6 197:-0.7 198:4.2 
1.0 20:1.0 30:1.0 45:1.0 77:1.0 85:1.0 117:1.0 128:1.0 160:1.0 177:1.0 181:6.54787 182:3.93463 183:5.17056 184:2.61322 185:5.1922 186:2.61229 187:3.92437 188:6.52033 189:2.60458 190:-1.3 191:3.8 192:2.8 193:-0.7 194:2.8 195:-0.7 196:4.5 197:-1.3 198:-0.7 
1.0 9:1.0 30:1.0 57:1.0 73:1.0 90:1.0 102:1.0 138:1.0 157:1.0 170:1.0 181:6.39494 182:3.93075 183:2.53434 184:2.41267 185:3.92984 186:2.7706 187:2.57743 188:2.61057 189:3.92403 190:-3.9 191:3.8 192:-0.7 193:-1.6 194:3.8 195:2.5 196:4.2 197:-0.7 198:3.8 
1.0 15:1.0 30:1.0 55:1.0 76:1.0 96:1.0 118:1.0 133:1.0 146:1.0 178:1.0 181:7.27902 182:3.93673 183:7.27595 184:2.43605 185:2.43444 186:2.62255 187:2.41049 188:0.0 189:2.57358 190:-4.5 191:3.8 192:-4.5 193:-0.8 194:-0.8 195:4.2 196:-1.6 197:-0.4 198:4.2 
1.0 5:1.0 31:1.0 41:1.0 80:1.0 97:1.0 117:1.0 136:1.0 147:1.0 168:1.0 181:5.17908 182:5.32917 183:1.53465 184:6.56743 185:2.6103 186:2.60487 187:2.43433 188:4.49053 189:3.91328 190:2.8 191:1.9 192:1.8 193:-1.3 194:-0.7 195:-0.7 196:-0.8 197:-3.2 198:4.5 
1.0 20:1.0 30:1.0 48:1.0 69:1.0 90:1.0 108:1.0 124:1.0 153:1.0 178:1.0 181:6.55852 182:3.93626 183:3.92581 184:6.38471 185:3.93286 186:3.91971 187:4.97058 188:2.411 189:2.57001 190:-1.3 191:3.8 192:4.5 193:-3.9 194:3.8 195:4.5 196:-3.5 197:-1.6 198:4.2 
1.0 20:1.0 30:1.0 59:1.0 73:1.0 86:1.0 113:1.0 138:1.0 157:1.0 161:1.0 181:6.55957 182:3.93411 183:6.03447 184:2.41767 185:0.0 186:2.41472 187:2.57698 188:2.61006 189:1.53756 190:-1.3 191:3.8 192:-0.9 193:-1.6 194:-0.4 195:-1.6 196:4.2 197:-0.7 198:1.8 
1.0 16:1.0 30:1.0 42:1.0 76:1.0 82:1.0 108:1.0 122:1.0 157:1.0 178:1.0 181:2.43445 182:3.93547 183:2.77474 184:2.43593 185:2.77544 186:3.92296 187:2.76483 188:2.60959 189:2.57027 190:-0.8 191:3.8 192:2.5 193:-0.8 194:2.5 195:4.5 196:2.5 197:-0.7 198:4.2 
1.0 5:1.0 38:1.0 43:1.0 77:1.0 91:1.0 116:1.0 128:1.0 160:1.0 168:1.0 181:5.19985 182:2.57448 183:3.62626 184:2.61107 185:5.33164 186:2.43205 187:3.92094 188:6.5204 189:3.91684 190:2.8 191:4.2 192:-3.5 193:-0.7 194:1.9 195:-0.8 196:4.5 197:-1.3 198:4.5 
1.0 10:1.0 30:1.0 58:1.0 74:1.0 95:1.0 118:1.0 137:1.0 156:1.0 178:1.0 181:3.93984 182:3.93505 183:2.57195 184:5.01581 185:7.25014 186:2.57351 187:2.61009 188:2.43772 189:2.57223 190:3.8 191:3.8 192:4.2 193:-3.5 194:-4.5 195:4.2 196:-0.7 197:-0.8 198:4.2 
1.0 5:1.0 30:1.0 49:1.0 63:1.0 98:1.0 111:1.0 138:1.0 144:1.0 168:1.0 181:5.20072 182:3.93515 183:6.38543 184:3.67279 185:2.57665 186:5.32813 187:2.57274 188:4.98239 189:3.91557 190:2.8 191:3.8 192:-3.9 193:-3.5 194:4.2 195:1.9 196:4.2 197:-3.5 198:4.5 
1.0 1:1.0 30:1.0 48:1.0 63:1.0 85:1.0 110:1.0 121:1.0 141:1.0 178:1.0 181:1.54018 182:3.937 183:3.91817 184:3.64182 185:5.17657 186:3.93351 187:1.53542 188:1.5373 189:2.56994 190:1.8 191:3.8 192:4.5 193:-3.5 194:2.8 195:3.8 196:1.8 197:1.8 198:4.2 
1.0 8:1.0 28:1.0 56:1.0 63:1.0 90:1.0 116:1.0 128:1.0 145:1.0 168:1.0 181:3.92133 182:3.92027 183:2.43567 184:3.63263 185:3.93288 186:2.4354 187:3.92158 188:5.18935 189:3.9164 190:4.5 191:4.5 192:-0.8 193:-3.5 194:3.8 195:-0.8 196:4.5 197:2.8 198:4.5 
1.0 6:1.0 30:1.0 57:1.0 72:1.0 86:1.0 116:1.0 127:1.0 160:1.0 178:1.0 181:0.0 182:3.93309 183:2.60318 184:3.75144 185:0.0 186:2.43922 187:4.48304 188:6.5154 189:2.57254 190:-0.4 191:3.8 192:-0.7 193:-3.5 194:-0.4 195:-0.8 196:-3.2 197:-1.3 198:4.2 
1.0 17:1.0 31:1.0 50:1.0 70:1.0 86:1.0 118:1.0 125:1.0 157:1.0 178:1.0 181:2.53546 182:5.33083 183:3.92774 184:3.93465 185:0.0 186:2.57576 187:5.18103 188:2.6088 189:2.57117 190:-0.7 191:1.9 192:3.8 193:3.8 194:-0.4 195:4.2 196:2.8 197:-0.7 198:4.2 
1.0 5:1.0 37:1.0 41:1.0 76:1.0 98:1.0 116:1.0 137:1.0 158:1.0 178:1.0 181:5.19386 182:2.61029 183:1.53616 184:2.43683 185:2.57652 186:2.43346 187:2.61081 188:2.57361 189:2.56965 190:2.8 191:-0.7 192:1.8 193:-0.8 194:4.2 195:-0.8 196:-0.7 197:4.2 198:4.2 
1.0 7:1.0 30:1.0 57:1.0 75:1.0 98:1.0 106:1.0 133:1.0 160:1.0 170:1.0 181:4.61 182:3.93447 183:2.60404 184:7.29789 185:2.57485 186:0.0 187:2.41269 188:6.51043 189:3.92368 190:-3.2 191:3.8 192:-0.7 193:-4.5 194:4.2 195:-0.4 196:-1.6 197:-1.3 198:3.8 
1.0 5:1.0 31:1.0 48:1.0 63:1.0 99:1.0 108:1.0 130:1.0 143:1.0 161:1.0 181:5.20292 182:5.32684 183:3.91896 184:3.63538 185:6.0442 186:3.9201 187:3.93091 188:3.67944 189:1.5386 190:2.8 191:1.9 192:4.5 193:-3.5 194:-0.9 195:4.5 196:3.8 197:-3.5 198:1.8 
1.0 15:1.0 31:1.0 51:1.0 64:1.0 97:1.0 119:1.0 127:1.0 153:1.0 170:1.0 181:7.29065 182:5.32634 183:5.33283 184:4.97523 185:2.61319 186:5.98306 187:4.70188 188:2.39669 189:3.92375 190:-4.5 191:1.9 192:1.9 193:-3.5 194:-0.7 195:-0.9 196:-3.2 197:-1.6 198:3.8 
1.0 18:1.0 30:1.0 48:1.0 61:1.0 86:1.0 108:1.0 128:1.0 150:1.0 170:1.0 181:2.5872 182:3.93489 183:3.91774 184:1.53687 185:0.0 186:3.92178 187:3.91845 188:3.93106 189:3.92348 190:4.2 191:3.8 192:4.5 193:1.8 194:-0.4 195:4.5 196:4.5 197:3.8 198:3.8 
1.0 6:1.0 30:1.0 47:1.0 61:1.0 81:1.0 101:1.0 133:1.0 147:1.0 170:1.0 181:0.0 182:3.93589 183:4.50291 184:1.53658 185:1.53709 186:1.53818 187:2.40944 188:4.48817 189:3.92401 190:-0.4 191:3.8 192:-3.2 193:1.8 194:1.8 195:1.8 196:-1.6 197:-3.2 198:3.8 
1.0 10:1.0 30:1.0 41:1.0 73:1.0 88:1.0 117:1.0 121:1.0 160:1.0 161:1.0 181:3.93792 182:3.93275 183:1.53857 184:2.41597 185:3.91927 186:2.61418 187:1.53682 188:6.51143 189:1.53833 190:3.8 191:3.8 192:1.8 193:-1.6 194:4.5 195:-0.7 196:1.8 197:-1.3 198:1.8 
1.0 10:1.0 31:1.0 46:1.0 67:1.0 85:1.0 116:1.0 139:1.0 159:1.0 177:1.0 181:3.93671 182:5.33363 183:0.0 184:4.49646 185:5.17717 186:2.43416 187:6.03386 188:6.05633 189:2.51393 190:3.8 191:1.9 192:-0.4 193:-3.2 194:2.8 195:-0.8 196:-0.9 197:-0.9 198:-0.7 
1.0 1:1.0 31:1.0 60:1.0 78:1.0 81:1.0 108:1.0 134:1.0 141:1.0 178:1.0 181:1.54054 182:5.32983 183:6.53563 184:2.57295 185:1.53552 186:3.91965 187:5.01031 188:1.53628 189:2.56951 190:1.8 191:1.9 192:-1.3 193:4.2 194:1.8 195:4.5 196:-3.5 197:1.8 198:4.2 
1.0 5:1.0 30:1.0 50:1.0 61:1.0 90:1.0 110:1.0 136:1.0 142:1.0 170:1.0 181:5.20585 182:3.9336 183:3.93388 184:1.53573 185:3.93449 186:3.93431 187:2.43455 188:2.77348 189:3.92404 190:2.8 191:3.8 192:3.8 193:1.8 194:3.8 195:3.8 196:-0.8 197:2.5 198:3.8 
1.0 9:1.0 31:1.0 52:1.0 72:1.0 83:1.0 118:1.0 125:1.0 145:1.0 171:1.0 181:6.3931 182:5.32851 183:3.71949 184:3.71984 185:3.64219 186:2.57891 187:5.19083 188:5.18403 189:5.32193 190:-3.9 191:1.9 192:-3.5 193:-3.5 194:-3.5 195:4.2 196:2.8 197:2.8 198:1.9 
1.0 1:1.0 30:1.0 59:1.0 63:1.0 98:1.0 113:1.0 136:1.0 153:1.0 161:1.0 181:1.54094 182:3.93152 183:6.06231 184:3.70159 185:2.62529 186:2.411 187:2.4333 188:2.40831 189:1.5375 190:1.8 191:3.8 192:-0.9 193:-3.5 194:4.2 195:-1.6 196:-0.8 197:-1.6 198:1.8 
1.0 17:1.0 30:1.0 46:1.0 78:1.0 100:1.0 103:1.0 140:1.0 150:1.0 178:1.0 181:2.53265 182:3.93641 183:0.0 184:2.57581 185:6.55113 186:3.62779 187:6.56476 188:3.93135 189:2.56888 190:-0.7 191:3.8 192:-0.4 193:4.2 194:-1.3 195:-3.5 196:-1.3 197:3.8 198:4.2 
1.0 1:1.0 30:1.0 59:1.0 66:1.0 85:1.0 105:1.0 133:1.0 158:1.0 170:1.0 181:1.53926 182:3.93237 183:6.03404 184:0.0 185:5.20033 186:5.21534 187:2.41203 188:2.57695 189:3.92622 190:1.8 191:3.8 192:-0.9 193:-0.4 194:2.8 195:2.8 196:-1.6 197:4.2 198:3.8 
1.0 8:1.0 30:1.0 59:1.0 64:1.0 92:1.0 112:1.0 128:1.0 149:1.0 170:1.0 181:3.92539 182:3.93298 183:6.02671 184:4.98145 185:3.7073 186:3.72645 187:3.92154 188:6.38248 189:3.92314 190:4.5 191:3.8 192:-0.9 193:-3.5 194:-3.5 195:-3.5 196:4.5 197:-3.9 198:3.8 
1.0 9:1.0 30:1.0 50:1.0 73:1.0 83:1.0 117:1.0 121:1.0 141:1.0 178:1.0 181:6.39275 182:3.93266 183:3.92647 184:2.41244 185:3.68014 186:2.61485 187:1.53715 188:1.53627 189:2.57145 190:-3.9 191:3.8 192:3.8 193:-1.6 194:-3.5 195:-0.7 196:1.8 197:1.8 198:4.2 
1.0 5:1.0 37:1.0 56:1.0 61:1.0 98:1.0 110:1.0 130:1.0 150:1.0 170:1.0 181:5.1956 182:2.61056 183:2.43743 184:1.53712 185:2.57456 186:3.93362 187:3.9306 188:3.93046 189:3.92231 190:2.8 191:-0.7 192:-0.8 193:1.8 194:4.2 195:3.8 196:3.8 197:3.8 198:3.8 
1.0 5:1.0 30:1.0 56:1.0 63:1.0 96:1.0 104:1.0 121:1.0 144:1.0 161:1.0 181:5.19627 182:3.93484 183:2.43779 184:3.69755 185:2.43887 186:4.98236 187:1.53612 188:4.98316 189:1.53785 190:2.8 191:3.8 192:-0.8 193:-3.5 194:-0.8 195:-3.5 196:1.8 197:-3.5 198:1.8 
1.0 10:1.0 30:1.0 50:1.0 63:1.0 83:1.0 105:1.0 138:1.0 144:1.0 168:1.0 181:3.9389 182:3.93391 183:3.93212 184:3.63105 185:3.63731 186:5.18847 187:2.57254 188:4.98329 189:3.91619 190:3.8 191:3.8 192:3.8 193:-3.5 194:-3.5 195:2.8 196:4.2 197:-3.5 198:4.5 
1.0 1:1.0 30:1.0 50:1.0 66:1.0 81:1.0 119:1.0 133:1.0 141:1.0 178:1.0 181:1.53961 182:3.93219 183:3.93468 184:0.0 185:1.53739 186:6.0073 187:2.4137 188:1.53562 189:2.57252 190:1.8 191:3.8 192:3.8 193:-0.4 194:1.8 195:-0.9 196:-1.6 197:1.8 198:4.2 
1.0 5:1.0 30:1.0 55:1.0 80:1.0 90:1.0 110:1.0 125:1.0 146:1.0 168:1.0 181:5.20419 182:3.93527 183:7.2248 184:6.55317 185:3.93444 186:3.93325 187:5.17272 188:0.0 189:3.91899 190:2.8 191:3.8 192:-4.5 193:-1.3 194:3.8 195:3.8 196:2.8 197:-0.4 198:4.5 
1.0 1:1.0 31:1.0 45:1.0 77:1.0 81:1.0 101:1.0 130:1.0 152:1.0 168:1.0 181:1.5402 182:5.3377 183:5.17936 184:2.61376 185:1.5363 186:1.53694 187:3.93451 188:3.72444 189:3.91561 190:1.8 191:1.9 192:2.8 193:-0.7 194:1.8 195:1.8 196:3.8 197:-3.5 198:4.5 
1.0 18:1.0 30:1.0 41:1.0 63:1.0 83:1.0 118:1.0 140:1.0 153:1.0 170:1.0 181:2.58778 182:3.93493 183:1.53588 184:3.67121 185:3.64096 186:2.5789 187:6.53243 188:2.4116 189:3.92162 190:4.2 191:3.8 192:1.8 193:-3.5 194:-3.5 195:4.2 196:-1.3 197:-1.6 198:3.8 
1.0 1:1.0 30:1.0 51:1.0 63:1.0 90:1.0 110:1.0 131:1.0 145:1.0 176:1.0 181:1.54039 182:3.93684 183:5.32227 184:3.64104 185:3.9306 186:3.93354 187:5.32773 188:5.18978 189:2.41504 190:1.8 191:3.8 192:1.9 193:-3.5 194:3.8 195:3.8 196:1.9 197:2.8 198:-0.8 
1.0 20:1.0 28:1.0 50:1.0 80:1.0 88:1.0 118:1.0 125:1.0 142:1.0 168:1.0 181:6.56069 182:3.92343 183:3.93232 184:6.56033 185:3.92001 186:2.57551 187:5.19907 188:2.76948 189:3.91528 190:-1.3 191:4.5 192:3.8 193:-1.3 194:4.5 195:4.2 196:2.8 197:2.5 198:4.5 
1.0 9:1.0 30:1.0 50:1.0 77:1.0 89:1.0 113:1.0 139:1.0 143:1.0 178:1.0 181:6.39198 182:3.93264 183:3.92891 184:2.6098 185:6.37559 186:2.41514 187:5.99226 188:3.69378 189:2.57602 190:-3.9 191:3.8 192:3.8 193:-0.7 194:-3.9 195:-1.6 196:-0.9 197:-3.5 198:4.2 
1.0 10:1.0 30:1.0 51:1.0 66:1.0 82:1.0 103:1.0 128:1.0 158:1.0 170:1.0 181:3.93907 182:3.93253 183:5.33323 184:0.0 185:2.77846 186:3.66438 187:3.92101 188:2.57277 189:3.92331 190:3.8 191:3.8 192:1.9 193:-0.4 194:2.5 195:-3.5 196:4.5 197:4.2 198:3.8 
1.0 5:1.0 31:1.0 54:1.0 64:1.0 88:1.0 113:1.0 137:1.0 145:1.0 170:1.0 181:5.20391 182:5.33156 183:5.01532 184:4.97886 185:3.90854 186:2.41808 187:2.61566 188:5.18842 189:3.92282 190:2.8 191:1.9 192:-3.5 193:-3.5 194:4.5 195:-1.6 196:-0.7 197:2.8 198:3.8 
1.0 20:1.0 30:1.0 50:1.0 64:1.0 91:1.0 110:1.0 139:1.0 155:1.0 170:1.0 181:6.5562 182:3.93677 183:3.93185 184:4.98224 185:5.32846 186:3.93353 187:6.03576 188:7.2588 189:3.92131 190:-1.3 191:3.8 192:3.8 193:-3.5 194:1.9 195:3.8 196:-0.9 197:-4.5 198:3.8 
1.0 5:1.0 30:1.0 60:1.0 66:1.0 81:1.0 110:1.0 140:1.0 150:1.0 161:1.0 181:5.19909 182:3.93021 183:6.5018 184:0.0 185:1.53712 186:3.93288 187:6.55073 188:3.93131 189:1.53684 190:2.8 191:3.8 192:-1.3 193:-0.4 194:1.8 195:3.8 196:-1.3 197:3.8 198:1.8 
1.0 5:1.0 30:1.0 50:1.0 71:1.0 83:1.0 101:1.0 130:1.0 149:1.0 170:1.0 181:5.20632 182:3.93345 183:3.93394 184:5.32631 185:3.63836 186:1.53626 187:3.93612 188:6.37915 189:3.9241 190:2.8 191:3.8 192:3.8 193:1.9 194:-3.5 195:1.8 196:3.8 197:-3.9 198:3.8 
1.0 18:1.0 30:1.0 60:1.0 63:1.0 84:1.0 105:1.0 138:1.0 157:1.0 168:1.0 181:2.58753 182:3.93349 183:6.54742 184:3.61122 185:4.97977 186:5.22847 187:2.57453 188:2.60087 189:3.9127 190:4.2 191:3.8 192:-1.3 193:-3.5 194:-3.5 195:2.8 196:4.2 197:-0.7 198:4.5 
1.0 6:1.0 30:1.0 45:1.0 73:1.0 98:1.0 116:1.0 128:1.0 153:1.0 168:1.0 181:0.0 182:3.93488 183:5.1898 184:2.41444 185:2.57765 186:2.43704 187:3.90381 188:2.41098 189:3.90928 190:-0.4 191:3.8 192:2.8 193:-1.6 194:4.2 195:-0.8 196:4.5 197:-1.6 198:4.5 
1.0 8:1.0 31:1.0 45:1.0 77:1.0 82:1.0 111:1.0 123:1.0 153:1.0 170:1.0 181:3.92484 182:5.3315 183:5.18657 184:2.61104 185:2.77031 186:5.34929 187:3.6906 188:2.41283 189:3.92476 190:4.5 191:1.9 192:2.8 193:-0.7 194:2.5 195:1.9 196:-3.5 197:-1.6 198:3.8 
1.0 8:1.0 38:1.0 59:1.0 64:1.0 89:1.0 109:1.0 136:1.0 150:1.0 178:1.0 181:3.92368 182:2.57485 183:6.02571 184:4.97889 185:6.38893 186:6.38793 187:2.43269 188:3.93117 189:2.56971 190:4.5 191:4.2 192:-0.9 193:-3.5 194:-3.9 195:-3.9 196:-0.8 197:3.8 198:4.2 
1.0 18:1.0 31:1.0 58:1.0 69:1.0 88:1.0 112:1.0 133:1.0 157:1.0 170:1.0 181:2.58742 182:5.32946 183:2.57272 184:6.38234 185:3.92181 186:3.72094 187:2.41513 188:2.61538 189:3.92501 190:4.2 191:1.9 192:4.2 193:-3.9 194:4.5 195:-3.5 196:-1.6 197:-0.7 198:3.8 
1.0 11:1.0 30:1.0 59:1.0 71:1.0 81:1.0 104:1.0 128:1.0 153:1.0 170:1.0 181:5.33753 182:3.93497 183:6.02618 184:5.33183 185:1.53528 186:4.98297 187:3.90428 188:2.41735 189:3.9259 190:1.9 191:3.8 192:-0.9 193:1.9 194:1.8 195:-3.5 196:4.5 197:-1.6 198:3.8 
1.0 9:1.0 30:1.0 45:1.0 77:1.0 83:1.0 112:1.0 132:1.0 145:1.0 170:1.0 181:6.39232 182:3.93333 183:5.18281 184:2.60944 185:3.62502 186:3.708 187:3.70979 188:5.18862 189:3.92394 190:-3.9 191:3.8 192:2.8 193:-0.7 194:-3.5 195:-3.5 196:-3.5 197:2.8 198:3.8 
1.0 16:1.0 31:1.0 48:1.0 66:1.0 90:1.0 102:1.0 121:1.0 142:1.0 178:1.0 181:2.43488 182:5.32559 183:3.91971 184:0.0 185:3.93671 186:2.7714 187:1.53673 188:2.77322 189:2.57059 190:-0.8 191:1.9 192:4.5 193:-0.4 194:3.8 195:2.5 196:1.8 197:2.5 198:4.2 
1.0 5:1.0 30:1.0 41:1.0 61:1.0 83:1.0 101:1.0 130:1.0 158:1.0 170:1.0 181:5.18536 182:3.93289 183:1.53567 184:1.53664 185:3.64222 186:1.53692 187:3.93517 188:2.57255 189:3.92372 190:2.8 191:3.8 192:1.8 193:1.8 194:-3.5 195:1.8 196:3.8 197:4.2 198:3.8 
1.0 5:1.0 30:1.0 55:1.0 63:1.0 92:1.0 110:1.0 140:1.0 147:1.0 178:1.0 181:5.2033 182:3.93534 183:7.27528 184:3.66948 185:3.70451 186:3.93246 187:6.55018 188:4.49142 189:2.57263 190:2.8 191:3.8 192:-4.5 193:-3.5 194:-3.5 195:3.8 196:-1.3 197:-3.2 198:4.2 
1.0 16:1.0 30:1.0 41:1.0 75:1.0 86:1.0 105:1.0 133:1.0 145:1.0 178:1.0 181:2.43385 182:3.9352 183:1.53658 184:7.25399 185:0.0 186:5.20928 187:2.41215 188:5.18568 189:2.57382 190:-0.8 191:3.8 192:1.8 193:-4.5 194:-0.4 195:2.8 196:-1.6 197:2.8 198:4.2 
1.0 17:1.0 30:1.0 50:1.0 63:1.0 100:1.0 101:1.0 121:1.0 146:1.0 178:1.0 181:2.53296 182:3.93596 183:3.92882 184:3.644 185:6.54068 186:1.53609 187:1.53671 188:0.0 189:2.57038 190:-0.7 191:3.8 192:3.8 193:-3.5 194:-1.3 195:1.8 196:1.8 197:-0.4 198:4.2 
1.0 6:1.0 30:1.0 60:1.0 64:1.0 85:1.0 117:1.0 128:1.0 150:1.0 178:1.0 181:0.0 182:3.93328 183:6.547 184:4.98297 185:5.1958 186:2.60978 187:3.91934 188:3.93007 189:2.56881 190:-0.4 191:3.8 192:-1.3 193:-3.5 194:2.8 195:-0.7 196:4.5 197:3.8 198:4.2 
1.0 10:1.0 30:1.0 53:1.0 63:1.0 96:1.0 103:1.0 138:1.0 145:1.0 178:1.0 181:3.93801 182:3.92667 183:2.40997 184:3.64863 185:2.43695 186:3.63972 187:2.57964 188:5.19162 189:2.57269 190:3.8 191:3.8 192:-1.6 193:-3.5 194:-0.8 195:-3.5 196:4.2 197:2.8 198:4.2 
1.0 9:1.0 30:1.0 46:1.0 66:1.0 100:1.0 118:1.0 136:1.0 145:1.0 178:1.0 181:6.38924 182:3.93514 183:0.0 184:0.0 185:6.55777 186:2.57373 187:2.43714 188:5.19029 189:2.57179 190:-3.9 191:3.8 192:-0.4 193:-0.4 194:-1.3 195:4.2 196:-0.8 197:2.8 198:4.2 
1.0 6:1.0 31:1.0 56:1.0 75:1.0 88:1.0 106:1.0 131:1.0 144:1.0 178:1.0 181:0.0 182:5.33079 183:2.43385 184:7.30673 185:3.91983 186:0.0 187:5.33222 188:4.97755 189:2.57162 190:-0.4 191:1.9 192:-0.8 193:-4.5 194:4.5 195:-0.4 196:1.9 197:-3.5 198:4.2 
1.0 6:1.0 30:1.0 60:1.0 70:1.0 100:1.0 115:1.0 125:1.0 147:1.0 178:1.0 181:0.0 182:3.93306 183:6.54597 184:3.9325 185:6.55091 186:7.24672 187:5.20031 188:4.4865 189:2.5746 190:-0.4 191:3.8 192:-1.3 193:3.8 194:-1.3 195:-4.5 196:2.8 197:-3.2 198:4.2 
1.0 1:1.0 30:1.0 48:1.0 66:1.0 86:1.0 105:1.0 129:1.0 153:1.0 178:1.0 181:1.5403 182:3.93217 183:3.92041 184:0.0 185:0.0 186:5.19166 187:6.3743 188:2.41348 189:2.56928 190:1.8 191:3.8 192:4.5 193:-0.4 194:-0.4 195:2.8 196:-3.9 197:-1.6 198:4.2 
1.0 5:1.0 30:1.0 50:1.0 63:1.0 86:1.0 106:1.0 121:1.0 153:1.0 165:1.0 181:5.20651 182:3.93484 183:3.92907 184:3.69408 185:0.0 186:0.0 187:1.53949 188:2.41153 189:5.2028 190:2.8 191:3.8 192:3.8 193:-3.5 194:-0.4 195:-0.4 196:1.8 197:-1.6 198:2.8 
1.0 20:1.0 30:1.0 56:1.0 63:1.0 96:1.0 101:1.0 128:1.0 152:1.0 168:1.0 181:6.54666 182:3.93624 183:2.43902 184:3.67422 185:2.43759 186:1.53704 187:3.91986 188:3.7243 189:3.91492 190:-1.3 191:3.8 192:-0.8 193:-3.5 194:-0.8 195:1.8 196:4.5 197:-3.5 198:4.5 
1.0 9:1.0 30:1.0 48:1.0 68:1.0 87:1.0 112:1.0 133:1.0 144:1.0 170:1.0 181:6.39056 182:3.93586 183:3.92085 184:3.92265 185:4.62179 186:3.70378 187:2.4089 188:4.97543 189:3.92495 190:-3.9 191:3.8 192:4.5 193:4.5 194:-3.2 195:-3.5 196:-1.6 197:-3.5 198:3.8 
1.0 10:1.0 30:1.0 51:1.0 63:1.0 82:1.0 116:1.0 126:1.0 156:1.0 168:1.0 181:3.93843 182:3.93438 183:5.32644 184:3.66654 185:2.76769 186:2.44188 187:0.0 188:2.44081 189:3.91374 190:3.8 191:3.8 192:1.9 193:-3.5 194:2.5 195:-0.8 196:-0.4 197:-0.8 198:4.5 
1.0 18:1.0 31:1.0 59:1.0 61:1.0 86:1.0 113:1.0 139:1.0 156:1.0 176:1.0 181:2.58776 182:5.33131 183:6.0239 184:1.53749 185:0.0 186:2.40931 187:6.01574 188:2.43655 189:2.41294 190:4.2 191:1.9 192:-0.9 193:1.8 194:-0.4 195:-1.6 196:-0.9 197:-0.8 198:-0.8 
1.0 1:1.0 31:1.0 50:1.0 72:1.0 86:1.0 110:1.0 128:1.0 160:1.0 178:1.0 181:1.5402 182:5.33031 183:3.93108 184:3.73944 185:0.0 186:3.93812 187:3.91914 188:6.51733 189:2.57228 190:1.8 191:1.9 192:3.8 193:-3.5 194:-0.4 195:3.8 196:4.5 197:-1.3 198:4.2 
1.0 16:1.0 30:1.0 56:1.0 61:1.0 100:1.0 108:1.0 128:1.0 155:1.0 178:1.0 181:2.43383 182:3.93617 183:2.43643 184:1.53604 185:6.56695 186:3.91985 187:3.92577 188:7.30874 189:2.56777 190:-0.8 191:3.8 192:-0.8 193:1.8 194:-1.3 195:4.5 196:4.5 197:-4.5 198:4.2 
1.0 17:1.0 38:1.0 50:1.0 76:1.0 85:1.0 102:1.0 121:1.0 145:1.0 161:1.0 181:2.5344 182:2.57464 183:3.93393 184:2.43396 185:5.17428 186:2.7711 187:1.53629 188:5.19256 189:1.53937 190:-0.7 191:4.2 192:3.8 193:-0.8 194:2.8 195:2.5 196:1.8 197:2.8 198:1.8 
1.0 20:1.0 30:1.0 53:1.0 75:1.0 85:1.0 110:1.0 125:1.0 146:1.0 178:1.0 181:6.54358 182:3.92826 183:2.42335 184:7.24881 185:5.17765 186:3.92924 187:5.17252 188:0.0 189:2.56886 190:-1.3 191:3.8 192:-1.6 193:-4.5 194:2.8 195:3.8 196:2.8 197:-0.4 198:4.2 
1.0 7:1.0 30:1.0 48:1.0 69:1.0 88:1.0 113:1.0 130:1.0 150:1.0 168:1.0 181:4.54758 182:3.93218 183:3.92201 184:6.3873 185:3.90756 186:2.41353 187:3.92969 188:3.93097 189:3.91581 190:-3.2 191:3.8 192:4.5 193:-3.9 194:4.5 195:-1.6 196:3.8 197:3.8 198:4.5 
1.0 16:1.0 31:1.0 58:1.0 72:1.0 86:1.0 118:1.0 138:1.0 155:1.0 170:1.0 181:2.43378 182:5.32877 183:2.57205 184:3.74616 185:0.0 186:2.57467 187:2.57505 188:7.29557 189:3.92231 190:-0.8 191:1.9 192:4.2 193:-3.5 194:-0.4 195:4.2 196:4.2 197:-4.5 198:3.8 
1.0 20:1.0 28:1.0 43:1.0 61:1.0 100:1.0 118:1.0 136:1.0 155:1.0 170:1.0 181:6.57072 182:3.92404 183:3.62901 184:1.53658 185:6.55509 186:2.57253 187:2.43494 188:7.29144 189:3.92333 190:-1.3 191:4.5 192:-3.5 193:1.8 194:-1.3 195:4.2 196:-0.8 197:-4.5 198:3.8 
1.0 6:1.0 30:1.0 60:1.0 66:1.0 92:1.0 106:1.0 128:1.0 150:1.0 178:1.0 181:0.0 182:3.93223 183:6.53137 184:0.0 185:3.73743 186:0.0 187:3.92081 188:3.92869 189:2.56962 190:-0.4 191:3.8 192:-1.3 193:-0.4 194:-3.5 195:-0.4 196:4.5 197:3.8 198:4.2 
1.0 15:1.0 31:1.0 48:1.0 70:1.0 100:1.0 110:1.0 124:1.0 156:1.0 178:1.0 181:7.26955 182:5.3294 183:3.91835 184:3.93219 185:6.55434 186:3.93146 187:4.9882 188:2.43945 189:2.57207 190:-4.5 191:1.9 192:4.5 193:3.8 194:-1.3 195:3.8 196:-3.5 197:-0.8 198:4.2 
1.0 5:1.0 31:1.0 58:1.0 61:1.0 99:1.0 106:1.0 129:1.0 144:1.0 161:1.0 181:5.203 182:5.32972 183:2.5762 184:1.53643 185:6.02774 186:0.0 187:6.38937 188:4.98105 189:1.53882 190:2.8 191:1.9 192:4.2 193:1.8 194:-0.9 195:-0.4 196:-3.9 197:-3.5 198:1.8 
1.0 8:1.0 30:1.0 56:1.0 62:1.0 88:1.0 105:1.0 121:1.0 145:1.0 168:1.0 181:3.9219 182:3.93431 183:2.43483 184:2.77195 185:3.92014 186:5.18118 187:1.53622 188:5.19031 189:3.9155 190:4.5 191:3.8 192:-0.8 193:2.5 194:4.5 195:2.8 196:1.8 197:2.8 198:4.5 
1.0 1:1.0 30:1.0 51:1.0 75:1.0 95:1.0 108:1.0 121:1.0 158:1.0 178:1.0 181:1.53956 182:3.9353 183:5.32767 184:7.27241 185:7.29074 186:3.92092 187:1.53645 188:2.57406 189:2.56954 190:1.8 191:3.8 192:1.9 193:-4.5 194:-4.5 195:4.5 196:1.8 197:4.2 198:4.2 
1.0 9:1.0 30:1.0 52:1.0 63:1.0 99:1.0 103:1.0 125:1.0 158:1.0 178:1.0 181:6.39112 182:3.93604 183:3.7059 184:3.63798 185:6.04122 186:3.68093 187:5.19225 188:2.57179 189:2.57046 190:-3.9 191:3.8 192:-3.5 193:-3.5 194:-0.9 195:-3.5 196:2.8 197:4.2 198:4.2 
1.0 16:1.0 30:1.0 57:1.0 63:1.0 95:1.0 104:1.0 130:1.0 150:1.0 170:1.0 181:2.43351 182:3.93103 183:2.60363 184:3.68695 185:7.28469 186:4.98146 187:3.93159 188:3.93156 189:3.92328 190:-0.8 191:3.8 192:-0.7 193:-3.5 194:-4.5 195:-3.5 196:3.8 197:3.8 198:3.8 
1.0 16:1.0 38:1.0 51:1.0 72:1.0 85:1.0 108:1.0 133:1.0 148:1.0 168:1.0 181:2.43415 182:2.57623 183:5.3299 184:3.71407 185:5.18096 186:3.91732 187:2.41344 188:3.91097 189:3.91219 190:-0.8 191:4.2 192:1.9 193:-3.5 194:2.8 195:4.5 196:-1.6 197:4.5 198:4.5 
1.0 5:1.0 30:1.0 41:1.0 76:1.0 90:1.0 118:1.0 138:1.0 150:1.0 161:1.0 181:5.19197 182:3.93462 183:1.5362 184:2.43867 185:3.93355 186:2.57219 187:2.5744 188:3.93091 189:1.5379 190:2.8 191:3.8 192:1.8 193:-0.8 194:3.8 195:4.2 196:4.2 197:3.8 198:1.8 
1.0 8:1.0 30:1.0 59:1.0 74:1.0 98:1.0 113:1.0 125:1.0 156:1.0 178:1.0 181:3.92478 182:3.93297 183:6.04689 184:5.01284 185:2.62243 186:2.413 187:5.17975 188:2.43513 189:2.57319 190:4.5 191:3.8 192:-0.9 193:-3.5 194:4.2 195:-1.6 196:2.8 197:-0.8 198:4.2 
1.0 18:1.0 30:1.0 50:1.0 73:1.0 98:1.0 110:1.0 125:1.0 146:1.0 178:1.0 181:2.58696 182:3.93437 183:3.92684 184:2.41556 185:2.57983 186:3.93385 187:5.16791 188:0.0 189:2.57069 190:4.2 191:3.8 192:3.8 193:-1.6 194:4.2 195:3.8 196:2.8 197:-0.4 198:4.2 
1.0 10:1.0 30:1.0 58:1.0 64:1.0 98:1.0 110:1.0 135:1.0 144:1.0 168:1.0 181:3.93962 182:3.93481 183:2.57196 184:4.9843 185:2.57462 186:3.93586 187:7.291 188:4.98004 189:3.9157 190:3.8 191:3.8 192:4.2 193:-3.5 194:4.2 195:3.8 196:-4.5 197:-3.5 198:4.5 
1.0 10:1.0 30:1.0 51:1.0 73:1.0 88:1.0 110:1.0 137:1.0 150:1.0 177:1.0 181:3.93766 182:3.93393 183:5.31895 184:2.41709 185:3.91673 186:3.92962 187:2.6077 188:3.93059 189:2.59821 190:3.8 191:3.8 192:1.9 193:-1.6 194:4.5 195:3.8 196:-0.7 197:3.8 198:-0.7 
1.0 18:1.0 30:1.0 52:1.0 73:1.0 100:1.0 111:1.0 133:1.0 157:1.0 178:1.0 181:2.58898 182:3.93366 183:3.72939 184:2.42138 185:6.53341 186:5.32633 187:2.40062 188:2.61072 189:2.57295 190:4.2 191:3.8 192:-3.5 193:-1.6 194:-1.3 195:1.9 196:-1.6 197:-0.7 198:4.2 
1.0 5:1.0 30:1.0 53:1.0 63:1.0 97:1.0 115:1.0 125:1.0 160:1.0 178:1.0 181:5.18781 182:3.93074 183:2.41203 184:3.68886 185:2.61462 186:7.27422 187:5.18043 188:6.51477 189:2.57434 190:2.8 191:3.8 192:-1.6 193:-3.5 194:-0.7 195:-4.5 196:2.8 197:-1.3 198:4.2 
1.0 9:1.0 30:1.0 56:1.0 80:1.0 86:1.0 108:1.0 121:1.0 157:1.0 178:1.0 181:6.39158 182:3.93567 183:2.43256 184:6.53697 185:0.0 186:3.92648 187:1.53606 188:2.60993 189:2.57088 190:-3.9 191:3.8 192:-0.8 193:-1.3 194:-0.4 195:4.5 196:1.8 197:-0.7 198:4.2 
1.0 5:1.0 37:1.0 56:1.0 63:1.0 100:1.0 113:1.0 125:1.0 160:1.0 178:1.0 181:5.19445 182:2.6095 183:2.43642 184:3.67537 185:6.51247 186:2.4151 187:5.16568 188:6.52206 189:2.57319 190:2.8 191:-0.7 192:-0.8 193:-3.5 194:-1.3 195:-1.6 196:2.8 197:-1.3 198:4.2 
1.0 6:1.0 30:1.0 48:1.0 76:1.0 85:1.0 120:1.0 132:1.0 145:1.0 170:1.0 181:0.0 182:3.9347 183:3.92315 184:2.4325 185:5.18686 186:6.56519 187:3.69431 188:5.19685 189:3.92187 190:-0.4 191:3.8 192:4.5 193:-0.8 194:2.8 195:-1.3 196:-3.5 197:2.8 198:3.8 
1.0 16:1.0 30:1.0 45:1.0 70:1.0 87:1.0 110:1.0 138:1.0 146:1.0 168:1.0 181:2.43486 182:3.93344 183:5.19209 184:3.93199 185:4.50215 186:3.93127 187:2.57134 188:0.0 189:3.91485 190:-0.8 191:3.8 192:2.8 193:3.8 194:-3.2 195:3.8 196:4.2 197:-0.4 198:4.5 
1.0 14:1.0 30:1.0 59:1.0 77:1.0 81:1.0 110:1.0 128:1.0 156:1.0 170:1.0 181:5.0183 182:3.93338 183:6.04387 184:2.61171 185:1.53609 186:3.93593 187:3.91891 188:2.43787 189:3.92356 190:-3.5 191:3.8 192:-0.9 193:-0.7 194:1.8 195:3.8 196:4.5 197:-0.8 198:3.8 
1.0 18:1.0 30:1.0 59:1.0 76:1.0 90:1.0 110:1.0 139:1.0 150:1.0 166:1.0 181:2.58831 182:3.93306 183:6.03679 184:2.43312 185:3.93059 186:3.93261 187:6.02051 188:3.92526 189:0.0 190:4.2 191:3.8 192:-0.9 193:-0.8 194:3.8 195:3.8 196:-0.9 197:3.8 198:-0.4 
1.0 20:1.0 30:1.0 52:1.0 61:1.0 99:1.0 108:1.0 133:1.0 153:1.0 178:1.0 181:6.55993 182:3.93473 183:3.69928 184:1.53663 185:6.02591 186:3.92117 187:2.41501 188:2.4071 189:2.5719 190:-1.3 191:3.8 192:-3.5 193:1.8 194:-0.9 195:4.5 196:-1.6 197:-1.6 198:4.2 
1.0 11:1.0 30:1.0 52:1.0 73:1.0 85:1.0 108:1.0 140:1.0 156:1.0 170:1.0 181:5.3374 182:3.93199 183:3.72144 184:2.4184 185:5.16625 186:3.92309 187:6.52441 188:2.43915 189:3.92426 190:1.9 191:3.8 192:-3.5 193:-1.6 194:2.8 195:4.5 196:-1.3 197:-0.8 198:3.8 
1.0 11:1.0 30:1.0 50:1.0 67:1.0 98:1.0 106:1.0 128:1.0 153:1.0 170:1.0 181:5.33661 182:3.9333 183:3.93493 184:4.50185 185:2.57369 186:0.0 187:3.91062 188:2.41017 189:3.9235 190:1.9 191:3.8 192:3.8 193:-3.2 194:4.2 195:-0.4 196:4.5 197:-1.6 198:3.8 
1.0 9:1.0 30:1.0 57:1.0 63:1.0 99:1.0 103:1.0 125:1.0 158:1.0 178:1.0 181:6.39244 182:3.93084 183:2.60398 184:3.63838 185:6.02759 186:3.67446 187:5.19194 188:2.57202 189:2.56986 190:-3.9 191:3.8 192:-0.7 193:-3.5 194:-0.9 195:-3.5 196:2.8 197:4.2 198:4.2 
1.0 10:1.0 38:1.0 48:1.0 66:1.0 85:1.0 110:1.0 125:1.0 150:1.0 161:1.0 181:3.94076 182:2.57214 183:3.92112 184:0.0 185:5.20082 186:3.93067 187:5.18885 188:3.92918 189:1.53741 190:3.8 191:4.2 192:4.5 193:-0.4 194:2.8 195:3.8 196:2.8 197:3.8 198:1.8 
1.0 10:1.0 31:1.0 60:1.0 63:1.0 88:1.0 108:1.0 132:1.0 156:1.0 178:1.0 181:3.93688 182:5.32575 183:6.55239 184:3.65332 185:3.92665 186:3.92138 187:3.73679 188:2.43712 189:2.57278 190:3.8 191:1.9 192:-1.3 193:-3.5 194:4.5 195:4.5 196:-3.5 197:-0.8 198:4.2 
1.0 6:1.0 30:1.0 48:1.0 67:1.0 81:1.0 102:1.0 131:1.0 150:1.0 178:1.0 181:0.0 182:3.93715 183:3.91954 184:4.49134 185:1.5366 186:2.77465 187:5.3231 188:3.92894 189:2.56978 190:-0.4 191:3.8 192:4.5 193:-3.2 194:1.8 195:2.5 196:1.9 197:3.8 198:4.2 
1.0 5:1.0 30:1.0 60:1.0 72:1.0 98:1.0 120:1.0 133:1.0 146:1.0 161:1.0 181:5.19013 182:3.93294 183:6.54506 184:3.70468 185:2.57777 186:6.51651 187:2.40839 188:0.0 189:1.53806 190:2.8 191:3.8 192:-1.3 193:-3.5 194:4.2 195:-1.3 196:-1.6 197:-0.4 198:1.8 
1.0 5:1.0 31:1.0 60:1.0 68:1.0 84:1.0 116:1.0 128:1.0 149:1.0 178:1.0 181:5.18819 182:5.32745 183:6.55058 184:3.91734 185:4.98824 186:2.43836 187:3.92128 188:6.3798 189:2.56777 190:2.8 191:1.9 192:-1.3 193:4.5 194:-3.5 195:-0.8 196:4.5 197:-3.9 198:4.2 
1.0 5:1.0 30:1.0 53:1.0 63:1.0 97:1.0 115:1.0 125:1.0 145:1.0 178:1.0 181:5.18653 182:3.93045 183:2.41005 184:3.69016 185:2.61355 186:7.27308 187:5.17909 188:5.18662 189:2.5731 190:2.8 191:3.8 192:-1.6 193:-3.5 194:-0.7 195:-4.5 196:2.8 197:2.8 198:4.2 
1.0 9:1.0 30:1.0 50:1.0 69:1.0 91:1.0 118:1.0 137:1.0 156:1.0 178:1.0 181:6.39187 182:3.93373 183:3.93304 184:6.38534 185:5.32824 186:2.57482 187:2.60888 188:2.43739 189:2.57275 190:-3.9 191:3.8 192:3.8 193:-3.9 194:1.9 195:4.2 196:-0.7 197:-0.8 198:4.2 
1.0 5:1.0 30:1.0 48:1.0 78:1.0 96:1.0 110:1.0 122:1.0 153:1.0 177:1.0 181:5.21234 182:3.93421 183:3.91968 184:2.57469 185:2.43533 186:3.93317 187:2.75488 188:2.41174 189:2.60142 190:2.8 191:3.8 192:4.5 193:4.2 194:-0.8 195:3.8 196:2.5 197:-1.6 198:-0.7 
1.0 9:1.0 30:1.0 54:1.0 61:1.0 81:1.0 113:1.0 140:1.0 148:1.0 178:1.0 181:6.39405 182:3.929 183:5.02617 184:1.53651 185:1.54012 186:2.41117 187:6.55452 188:3.9181 189:2.57034 190:-3.9 191:3.8 192:-3.5 193:1.8 194:1.8 195:-1.6 196:-1.3 197:4.5 198:4.2 
1.0 10:1.0 38:1.0 50:1.0 76:1.0 98:1.0 112:1.0 133:1.0 160:1.0 178:1.0 181:3.93897 182:2.57317 183:3.9325 184:2.43499 185:2.57748 186:3.72438 187:2.41528 188:6.51286 189:2.5736 190:3.8 191:4.2 192:3.8 193:-0.8 194:4.2 195:-3.5 196:-1.6 197:-1.3 198:4.2 
1.0 6:1.0 30:1.0 50:1.0 64:1.0 99:1.0 108:1.0 125:1.0 155:1.0 161:1.0 181:0.0 182:3.93487 183:3.93089 184:4.98261 185:6.04666 186:3.91938 187:5.19128 188:7.30207 189:1.53657 190:-0.4 191:3.8 192:3.8 193:-3.5 194:-0.9 195:4.5 196:2.8 197:-4.5 198:1.8 
1.0 9:1.0 30:1.0 45:1.0 77:1.0 87:1.0 103:1.0 128:1.0 151:1.0 170:1.0 181:6.39251 182:3.93389 183:5.17579 184:2.6129 185:4.49447 186:3.67558 187:3.92109 188:5.3312 189:3.92325 190:-3.9 191:3.8 192:2.8 193:-0.7 194:-3.2 195:-3.5 196:4.5 197:1.9 198:3.8 
1.0 10:1.0 37:1.0 41:1.0 61:1.0 98:1.0 110:1.0 131:1.0 150:1.0 178:1.0 181:3.93674 182:2.60257 183:1.53634 184:1.53646 185:2.57569 186:3.93372 187:5.32192 188:3.92913 189:2.57041 190:3.8 191:-0.7 192:1.8 193:1.8 194:4.2 195:3.8 196:1.9 197:3.8 198:4.2 
1.0 17:1.0 30:1.0 50:1.0 62:1.0 90:1.0 108:1.0 133:1.0 157:1.0 178:1.0 181:2.5331 182:3.93577 183:3.9328 184:2.77188 185:3.93297 186:3.90682 187:2.41097 188:2.61108 189:2.57068 190:-0.7 191:3.8 192:3.8 193:2.5 194:3.8 195:4.5 196:-1.6 197:-0.7 198:4.2 
1.0 5:1.0 30:1.0 52:1.0 61:1.0 99:1.0 108:1.0 133:1.0 153:1.0 178:1.0 181:5.20038 182:3.93418 183:3.69901 184:1.53679 185:6.02957 186:3.91949 187:2.4161 188:2.40604 189:2.57105 190:2.8 191:3.8 192:-3.5 193:1.8 194:-0.9 195:4.5 196:-1.6 197:-1.6 198:4.2 
1.0 5:1.0 30:1.0 57:1.0 76:1.0 90:1.0 110:1.0 128:1.0 150:1.0 178:1.0 181:5.22421 182:3.93678 183:2.59849 184:2.43439 185:3.93384 186:3.93411 187:3.91806 188:3.93139 189:2.56944 190:2.8 191:3.8 192:-0.7 193:-0.8 194:3.8 195:3.8 196:4.5 197:3.8 198:4.2 
1.0 5:1.0 30:1.0 60:1.0 66:1.0 86:1.0 110:1.0 130:1.0 150:1.0 161:1.0 181:5.19642 182:3.93097 183:6.49154 184:0.0 185:0.0 186:3.9368 187:3.92971 188:3.93041 189:1.53787 190:2.8 191:3.8 192:-1.3 193:-0.4 194:-0.4 195:3.8 196:3.8 197:3.8 198:1.8 
1.0 10:1.0 37:1.0 50:1.0 63:1.0 84:1.0 114:1.0 128:1.0 145:1.0 178:1.0 181:3.93741 182:2.60251 183:3.93254 184:3.66299 185:4.98142 186:5.0118 187:3.92012 188:5.18912 189:2.57185 190:3.8 191:-0.7 192:3.8 193:-3.5 194:-3.5 195:-3.5 196:4.5 197:2.8 198:4.2 
1.0 16:1.0 38:1.0 58:1.0 68:1.0 100:1.0 103:1.0 125:1.0 150:1.0 178:1.0 181:2.43381 182:2.57543 183:2.57549 184:3.92148 185:6.5462 186:3.62257 187:5.19927 188:3.93034 189:2.57011 190:-0.8 191:4.2 192:4.2 193:4.5 194:-1.3 195:-3.5 196:2.8 197:3.8 198:4.2 
1.0 10:1.0 30:1.0 56:1.0 74:1.0 100:1.0 110:1.0 136:1.0 155:1.0 178:1.0 181:3.93837 182:3.93485 183:2.43519 184:5.01311 185:6.52749 186:3.9346 187:2.43665 188:7.31013 189:2.5664 190:3.8 191:3.8 192:-0.8 193:-3.5 194:-1.3 195:3.8 196:-0.8 197:-4.5 198:4.2 
1.0 16:1.0 31:1.0 43:1.0 77:1.0 90:1.0 110:1.0 125:1.0 145:1.0 170:1.0 181:2.43489 182:5.33332 183:3.64664 184:2.61091 185:3.93363 186:3.9317 187:5.1809 188:5.19056 189:3.92326 190:-0.8 191:1.9 192:-3.5 193:-0.7 194:3.8 195:3.8 196:2.8 197:2.8 198:3.8 
1.0 5:1.0 38:1.0 45:1.0 63:1.0 95:1.0 113:1.0 130:1.0 153:1.0 178:1.0 181:5.19249 182:2.57597 183:5.20148 184:3.69787 185:7.13683 186:2.41748 187:3.92653 188:2.41231 189:2.5708 190:2.8 191:4.2 192:2.8 193:-3.5 194:-4.5 195:-1.6 196:3.8 197:-1.6 198:4.2 
1.0 16:1.0 30:1.0 54:1.0 64:1.0 84:1.0 108:1.0 121:1.0 145:1.0 170:1.0 181:2.43245 182:3.93525 183:5.01787 184:4.9824 185:4.98292 186:3.92367 187:1.53636 188:5.19219 189:3.92273 190:-0.8 191:3.8 192:-3.5 193:-3.5 194:-3.5 195:4.5 196:1.8 197:2.8 198:3.8 
1.0 20:1.0 30:1.0 52:1.0 77:1.0 90:1.0 117:1.0 130:1.0 141:1.0 178:1.0 181:6.56297 182:3.93582 183:3.67131 184:2.60987 185:3.93131 186:2.60627 187:3.93525 188:1.53611 189:2.57021 190:-1.3 191:3.8 192:-3.5 193:-0.7 194:3.8 195:-0.7 196:3.8 197:1.8 198:4.2 
1.0 7:1.0 30:1.0 51:1.0 65:1.0 100:1.0 117:1.0 130:1.0 153:1.0 168:1.0 181:4.55148 182:3.93291 183:5.32697 184:5.20914 185:6.56846 186:2.61024 187:3.9259 188:2.41171 189:3.90955 190:-3.2 191:3.8 192:1.9 193:2.8 194:-1.3 195:-0.7 196:3.8 197:-1.6 198:4.5 
1.0 5:1.0 31:1.0 60:1.0 64:1.0 86:1.0 103:1.0 137:1.0 153:1.0 170:1.0 181:5.18243 182:5.3275 183:6.47898 184:4.98521 185:0.0 186:3.71924 187:2.53654 188:2.41323 189:3.92796 190:2.8 191:1.9 192:-1.3 193:-3.5 194:-0.4 195:-3.5 196:-0.7 197:-1.6 198:3.8 
1.0 8:1.0 30:1.0 41:1.0 76:1.0 88:1.0 108:1.0 123:1.0 160:1.0 178:1.0 181:3.92272 182:3.93458 183:1.53561 184:2.43741 185:3.92001 186:3.91827 187:3.65375 188:6.51418 189:2.57254 190:4.5 191:3.8 192:1.8 193:-0.8 194:4.5 195:4.5 196:-3.5 197:-1.3 198:4.2 
1.0 5:1.0 30:1.0 45:1.0 73:1.0 83:1.0 117:1.0 135:1.0 146:1.0 178:1.0 181:5.19155 182:3.93163 183:5.1924 184:2.41024 185:3.67605 186:2.6115 187:7.30398 188:0.0 189:2.57084 190:2.8 191:3.8 192:2.8 193:-1.6 194:-3.5 195:-0.7 196:-4.5 197:-0.4 198:4.2 
1.0 5:1.0 30:1.0 41:1.0 63:1.0 100:1.0 106:1.0 139:1.0 155:1.0 170:1.0 181:5.1835 182:3.93422 183:1.53497 184:3.6345 185:6.50597 186:0.0 187:6.06951 188:7.25136 189:3.92245 190:2.8 191:3.8 192:1.8 193:-3.5 194:-1.3 195:-0.4 196:-0.9 197:-4.5 198:3.8 
1.0 8:1.0 30:1.0 48:1.0 64:1.0 86:1.0 108:1.0 125:1.0 145:1.0 161:1.0 181:3.92349 182:3.93542 183:3.91748 184:4.98607 185:0.0 186:3.92341 187:5.16634 188:5.18666 189:1.53772 190:4.5 191:3.8 192:4.5 193:-3.5 194:-0.4 195:4.5 196:2.8 197:2.8 198:1.8 
1.0 20:1.0 30:1.0 43:1.0 80:1.0 83:1.0 117:1.0 128:1.0 160:1.0 178:1.0 181:6.56009 182:3.93314 183:3.61743 184:6.5938 185:3.6112 186:2.60428 187:3.92113 188:6.51386 189:2.57223 190:-1.3 191:3.8 192:-3.5 193:-1.3 194:-3.5 195:-0.7 196:4.5 197:-1.3 198:4.2 
1.0 6:1.0 31:1.0 51:1.0 75:1.0 99:1.0 102:1.0 131:1.0 153:1.0 178:1.0 181:0.0 182:5.33093 183:5.32649 184:7.25102 185:6.03598 186:2.76793 187:5.31442 188:2.40925 189:2.5685 190:-0.4 191:1.9 192:1.9 193:-4.5 194:-0.9 195:2.5 196:1.9 197:-1.6 198:4.2 
1.0 6:1.0 31:1.0 48:1.0 73:1.0 85:1.0 105:1.0 123:1.0 145:1.0 161:1.0 181:0.0 182:5.33461 183:3.9057 184:2.41822 185:5.15775 186:5.20349 187:3.62546 188:5.19402 189:1.5378 190:-0.4 191:1.9 192:4.5 193:-1.6 194:2.8 195:2.8 196:-3.5 197:2.8 198:1.8 
1.0 8:1.0 30:1.0 54:1.0 80:1.0 83:1.0 110:1.0 139:1.0 152:1.0 178:1.0 181:3.92455 182:3.93367 183:5.0128 184:6.55308 185:3.64113 186:3.93285 187:6.0384 188:3.70022 189:2.57085 190:4.5 191:3.8 192:-3.5 193:-1.3 194:-3.5 195:3.8 196:-0.9 197:-3.5 198:4.2 
1.0 5:1.0 30:1.0 56:1.0 75:1.0 98:1.0 105:1.0 125:1.0 142:1.0 178:1.0 181:5.19696 182:3.93505 183:2.43372 184:7.28515 185:2.57498 186:5.19043 187:5.20669 188:2.77056 189:2.57203 190:2.8 191:3.8 192:-0.8 193:-4.5 194:4.2 195:2.8 196:2.8 197:2.5 198:4.2 
1.0 6:1.0 30:1.0 50:1.0 74:1.0 85:1.0 108:1.0 138:1.0 145:1.0 170:1.0 181:0.0 182:3.93546 183:3.93248 184:5.01488 185:5.19628 186:3.92132 187:2.5771 188:5.19124 189:3.92334 190:-0.4 191:3.8 192:3.8 193:-3.5 194:2.8 195:4.5 196:4.2 197:2.8 198:3.8 
1.0 17:1.0 34:1.0 59:1.0 76:1.0 90:1.0 105:1.0 125:1.0 145:1.0 178:1.0 181:2.53349 182:5.01748 183:6.04031 184:2.43307 185:3.93075 186:5.17815 187:5.19317 188:5.19017 189:2.57342 190:-0.7 191:-3.5 192:-0.9 193:-0.8 194:3.8 195:2.8 196:2.8 197:2.8 198:4.2 
1.0 11:1.0 30:1.0 45:1.0 77:1.0 89:1.0 105:1.0 125:1.0 160:1.0 170:1.0 181:5.33775 182:3.93356 183:5.17614 184:2.61349 185:6.38558 186:5.16843 187:5.1897 188:6.52019 189:3.9219 190:1.9 191:3.8 192:2.8 193:-0.7 194:-3.9 195:2.8 196:2.8 197:-1.3 198:3.8 
1.0 6:1.0 30:1.0 50:1.0 63:1.0 95:1.0 110:1.0 140:1.0 143:1.0 170:1.0 181:0.0 182:3.93498 183:3.93231 184:3.67915 185:7.27367 186:3.93121 187:6.54044 188:3.68074 189:3.92584 190:-0.4 191:3.8 192:3.8 193:-3.5 194:-4.5 195:3.8 196:-1.3 197:-3.5 198:3.8 
1.0 10:1.0 31:1.0 56:1.0 65:1.0 97:1.0 108:1.0 130:1.0 142:1.0 170:1.0 181:3.93932 182:5.33315 183:2.43357 184:5.19874 185:2.60882 186:3.91967 187:3.93335 188:2.77035 189:3.92342 190:3.8 191:1.9 192:-0.8 193:2.8 194:-0.7 195:4.5 196:3.8 197:2.5 198:3.8 
1.0 5:1.0 30:1.0 50:1.0 73:1.0 90:1.0 117:1.0 136:1.0 150:1.0 178:1.0 181:5.2018 182:3.93444 183:3.92696 184:2.41787 185:3.92871 186:2.60961 187:2.43459 188:3.93135 189:2.56885 190:2.8 191:3.8 192:3.8 193:-1.6 194:3.8 195:-0.7 196:-0.8 197:3.8 198:4.2 
1.0 20:1.0 28:1.0 48:1.0 69:1.0 92:1.0 117:1.0 125:1.0 152:1.0 178:1.0 181:6.56366 182:3.92347 183:3.92837 184:6.38484 185:3.69829 186:2.61345 187:5.20342 188:3.7035 189:2.57481 190:-1.3 191:4.5 192:4.5 193:-3.9 194:-3.5 195:-0.7 196:2.8 197:-3.5 198:4.2 
1.0 20:1.0 28:1.0 50:1.0 66:1.0 85:1.0 101:1.0 128:1.0 153:1.0 168:1.0 181:6.56013 182:3.92179 183:3.93674 184:0.0 185:5.20298 186:1.53606 187:3.91005 188:2.40997 189:3.91032 190:-1.3 191:4.5 192:3.8 193:-0.4 194:2.8 195:1.8 196:4.5 197:-1.6 198:4.5 
1.0 9:1.0 30:1.0 43:1.0 76:1.0 86:1.0 101:1.0 125:1.0 157:1.0 178:1.0 181:6.39198 182:3.93316 183:3.64287 184:2.43918 185:0.0 186:1.53672 187:5.19003 188:2.60858 189:2.57065 190:-3.9 191:3.8 192:-3.5 193:-0.8 194:-0.4 195:1.8 196:2.8 197:-0.7 198:4.2 
1.0 6:1.0 30:1.0 41:1.0 64:1.0 90:1.0 110:1.0 121:1.0 141:1.0 170:1.0 181:0.0 182:3.93566 183:1.53604 184:4.98363 185:3.93109 186:3.93334 187:1.53583 188:1.53637 189:3.92419 190:-0.4 191:3.8 192:1.8 193:-3.5 194:3.8 195:3.8 196:1.8 197:1.8 198:3.8 
1.0 20:1.0 30:1.0 50:1.0 61:1.0 83:1.0 117:1.0 125:1.0 157:1.0 178:1.0 181:6.55919 182:3.93585 183:3.93474 184:1.53506 185:3.64792 186:2.612 187:5.19848 188:2.60923 189:2.57087 190:-1.3 191:3.8 192:3.8 193:1.8 194:-3.5 195:-0.7 196:2.8 197:-0.7 198:4.2 
1.0 20:1.0 30:1.0 60:1.0 61:1.0 90:1.0 120:1.0 136:1.0 153:1.0 170:1.0 181:6.55951 182:3.93177 183:6.55059 184:1.53659 185:3.93294 186:6.51919 187:2.43464 188:2.41788 189:3.92187 190:-1.3 191:3.8 192:-1.3 193:1.8 194:3.8 195:-1.3 196:-0.8 197:-1.6 198:3.8 
1.0 5:1.0 28:1.0 50:1.0 67:1.0 95:1.0 110:1.0 127:1.0 144:1.0 168:1.0 181:5.20742 182:3.92146 183:3.93389 184:4.49566 185:7.27996 186:3.9337 187:4.49751 188:4.97868 189:3.91467 190:2.8 191:4.5 192:3.8 193:-3.2 194:-4.5 195:3.8 196:-3.2 197:-3.5 198:4.5 
1.0 11:1.0 34:1.0 43:1.0 78:1.0 85:1.0 117:1.0 125:1.0 160:1.0 178:1.0 181:5.33568 182:5.01028 183:3.63593 184:2.57919 185:5.17409 186:2.61423 187:5.18899 188:6.51963 189:2.57267 190:1.9 191:-3.5 192:-3.5 193:4.2 194:2.8 195:-0.7 196:2.8 197:-1.3 198:4.2 
1.0 20:1.0 30:1.0 56:1.0 76:1.0 99:1.0 117:1.0 133:1.0 158:1.0 178:1.0 181:6.53375 182:3.93426 183:2.43573 184:2.43634 185:6.00904 186:2.52997 187:2.41558 188:2.57663 189:2.57183 190:-1.3 191:3.8 192:-0.8 193:-0.8 194:-0.9 195:-0.7 196:-1.6 197:4.2 198:4.2 
1.0 15:1.0 30:1.0 50:1.0 63:1.0 83:1.0 110:1.0 138:1.0 148:1.0 178:1.0 181:7.2701 182:3.93374 183:3.9328 184:3.66713 185:3.63152 186:3.93334 187:2.56994 188:3.91729 189:2.56981 190:-4.5 191:3.8 192:3.8 193:-3.5 194:-3.5 195:3.8 196:4.2 197:4.5 198:4.2 
1.0 20:1.0 30:1.0 56:1.0 61:1.0 89:1.0 118:1.0 140:1.0 151:1.0 170:1.0 181:6.54255 182:3.93569 183:2.43961 184:1.53643 185:6.38671 186:2.57623 187:6.54874 188:5.32974 189:3.92373 190:-1.3 191:3.8 192:-0.8 193:1.8 194:-3.9 195:4.2 196:-1.3 197:1.9 198:3.8 
1.0 5:1.0 30:1.0 41:1.0 66:1.0 86:1.0 113:1.0 127:1.0 141:1.0 178:1.0 181:5.20432 182:3.9317 183:1.53518 184:0.0 185:0.0 186:2.40839 187:4.4781 188:1.53662 189:2.56989 190:2.8 191:3.8 192:1.8 193:-0.4 194:-0.4 195:-1.6 196:-3.2 197:1.8 198:4.2 
1.0 20:1.0 30:1.0 53:1.0 63:1.0 93:1.0 117:1.0 138:1.0 146:1.0 178:1.0 181:6.5416 182:3.92896 183:2.42016 184:3.69535 185:2.41712 186:2.61308 187:2.57624 188:0.0 189:2.57045 190:-1.3 191:3.8 192:-1.6 193:-3.5 194:-1.6 195:-0.7 196:4.2 197:-0.4 198:4.2 
1.0 20:1.0 30:1.0 52:1.0 79:1.0 85:1.0 108:1.0 133:1.0 153:1.0 178:1.0 181:6.56324 182:3.93585 183:3.69434 184:6.04523 185:5.18493 186:3.91829 187:2.416 188:2.4079 189:2.57319 190:-1.3 191:3.8 192:-3.5 193:-0.9 194:2.8 195:4.5 196:-1.6 197:-1.6 198:4.2 
1.0 20:1.0 31:1.0 51:1.0 66:1.0 88:1.0 104:1.0 140:1.0 146:1.0 170:1.0 181:6.56005 182:5.33153 183:5.33131 184:0.0 185:3.92291 186:4.97761 187:6.50583 188:0.0 189:3.92479 190:-1.3 191:1.9 192:1.9 193:-0.4 194:4.5 195:-3.5 196:-1.3 197:-0.4 198:3.8 
1.0 20:1.0 30:1.0 51:1.0 73:1.0 100:1.0 116:1.0 138:1.0 160:1.0 168:1.0 181:6.56372 182:3.93429 183:5.32392 184:2.42164 185:6.54001 186:2.43789 187:2.57681 188:6.52337 189:3.91853 190:-1.3 191:3.8 192:1.9 193:-1.6 194:-1.3 195:-0.8 196:4.2 197:-1.3 198:4.5 
1.0 9:1.0 30:1.0 59:1.0 64:1.0 99:1.0 110:1.0 126:1.0 160:1.0 170:1.0 181:6.39087 182:3.93447 183:6.04192 184:4.97935 185:6.02805 186:3.93336 187:0.0 188:6.53042 189:3.92218 190:-3.9 191:3.8 192:-0.9 193:-3.5 194:-0.9 195:3.8 196:-0.4 197:-1.3 198:3.8 
1.0 20:1.0 30:1.0 50:1.0 62:1.0 82:1.0 112:1.0 140:1.0 149:1.0 170:1.0 181:6.55721 182:3.93612 183:3.93372 184:2.77215 185:2.77225 186:3.71355 187:6.55001 188:6.38533 189:3.92417 190:-1.3 191:3.8 192:3.8 193:2.5 194:2.5 195:-3.5 196:-1.3 197:-3.9 198:3.8 
1.0 5:1.0 30:1.0 41:1.0 75:1.0 81:1.0 108:1.0 138:1.0 145:1.0 178:1.0 181:5.18949 182:3.93631 183:1.53496 184:7.28633 185:1.53602 186:3.91992 187:2.57632 188:5.18645 189:2.57241 190:2.8 191:3.8 192:1.8 193:-4.5 194:1.8 195:4.5 196:4.2 197:2.8 198:4.2 
1.0 5:1.0 30:1.0 41:1.0 78:1.0 90:1.0 116:1.0 133:1.0 157:1.0 168:1.0 181:5.1842 182:3.93468 183:1.53506 184:2.57562 185:3.93392 186:2.42823 187:2.41018 188:2.60948 189:3.91133 190:2.8 191:3.8 192:1.8 193:4.2 194:3.8 195:-0.8 196:-1.6 197:-0.7 198:4.5 
1.0 16:1.0 30:1.0 54:1.0 64:1.0 82:1.0 118:1.0 129:1.0 151:1.0 161:1.0 181:2.434 182:3.93454 183:5.0088 184:4.98334 185:2.77279 186:2.5749 187:6.38349 188:5.32667 189:1.53857 190:-0.8 191:3.8 192:-3.5 193:-3.5 194:2.5 195:4.2 196:-3.9 197:1.9 198:1.8 
1.0 11:1.0 30:1.0 52:1.0 66:1.0 88:1.0 111:1.0 140:1.0 155:1.0 170:1.0 181:5.33621 182:3.93239 183:3.74128 184:0.0 185:3.92342 186:5.31997 187:6.54628 188:7.28734 189:3.923 190:1.9 191:3.8 192:-3.5 193:-0.4 194:4.5 195:1.9 196:-1.3 197:-4.5 198:3.8 
1.0 20:1.0 30:1.0 45:1.0 80:1.0 83:1.0 105:1.0 130:1.0 150:1.0 178:1.0 181:6.55394 182:3.93332 183:5.18386 184:6.56002 185:3.59197 186:5.20423 187:3.9339 188:3.93028 189:2.56869 190:-1.3 191:3.8 192:2.8 193:-1.3 194:-3.5 195:2.8 196:3.8 197:3.8 198:4.2 
1.0 20:1.0 30:1.0 45:1.0 65:1.0 83:1.0 105:1.0 130:1.0 150:1.0 178:1.0 181:6.55511 182:3.93358 183:5.18606 184:5.19218 185:3.59878 186:5.20045 187:3.93324 188:3.92896 189:2.56874 190:-1.3 191:3.8 192:2.8 193:2.8 194:-3.5 195:2.8 196:3.8 197:3.8 198:4.2 
1.0 5:1.0 30:1.0 45:1.0 65:1.0 81:1.0 117:1.0 136:1.0 143:1.0 178:1.0 181:5.18579 182:3.9343 183:5.16258 184:5.2266 185:1.53702 186:2.60328 187:2.43484 188:3.64227 189:2.57583 190:2.8 191:3.8 192:2.8 193:2.8 194:1.8 195:-0.7 196:-0.8 197:-3.5 198:4.2 
1.0 20:1.0 30:1.0 43:1.0 73:1.0 81:1.0 117:1.0 131:1.0 151:1.0 161:1.0 181:6.57495 182:3.93344 183:3.68289 184:2.4152 185:1.53515 186:2.61775 187:5.31715 188:5.32094 189:1.5379 190:-1.3 191:3.8 192:-3.5 193:-1.6 194:1.8 195:-0.7 196:1.9 197:1.9 198:1.8 
1.0 20:1.0 30:1.0 43:1.0 61:1.0 100:1.0 112:1.0 131:1.0 151:1.0 168:1.0 181:6.56007 182:3.93239 183:3.59154 184:1.5358 185:6.55606 186:3.72183 187:5.32732 188:5.32313 189:3.91612 190:-1.3 191:3.8 192:-3.5 193:1.8 194:-1.3 195:-3.5 196:1.9 197:1.9 198:4.5 
1.0 2:1.0 30:1.0 43:1.0 61:1.0 86:1.0 108:1.0 132:1.0 160:1.0 178:1.0 181:2.78583 182:3.93278 183:3.63417 184:1.53771 185:0.0 186:3.9229 187:3.71654 188:6.51723 189:2.57327 190:2.5 191:3.8 192:-3.5 193:1.8 194:-0.4 195:4.5 196:-3.5 197:-1.3 198:4.2 
1.0 20:1.0 30:1.0 41:1.0 66:1.0 99:1.0 106:1.0 125:1.0 158:1.0 178:1.0 181:6.56258 182:3.9334 183:1.53687 184:0.0 185:6.04599 186:0.0 187:5.20721 188:2.57294 189:2.57013 190:-1.3 191:3.8 192:1.8 193:-0.4 194:-0.9 195:-0.4 196:2.8 197:4.2 198:4.2 
1.0 15:1.0 28:1.0 50:1.0 73:1.0 100:1.0 117:1.0 125:1.0 149:1.0 168:1.0 181:7.2763 182:3.92655 183:3.92976 184:2.42245 185:6.51302 186:2.6169 187:5.19741 188:6.38116 189:3.91869 190:-4.5 191:4.5 192:3.8 193:-1.6 194:-1.3 195:-0.7 196:2.8 197:-3.9 198:4.5 
1.0 15:1.0 30:1.0 41:1.0 78:1.0 100:1.0 108:1.0 123:1.0 149:1.0 178:1.0 181:7.28088 182:3.93513 183:1.5363 184:2.57553 185:6.55612 186:3.91952 187:3.68821 188:6.3781 189:2.5684 190:-4.5 191:3.8 192:1.8 193:4.2 194:-1.3 195:4.5 196:-3.5 197:-3.9 198:4.2 
1.0 18:1.0 30:1.0 41:1.0 61:1.0 90:1.0 118:1.0 122:1.0 160:1.0 168:1.0 181:2.58784 182:3.93482 183:1.5358 184:1.53692 185:3.93376 186:2.57419 187:2.76801 188:6.51849 189:3.91855 190:4.2 191:3.8 192:1.8 193:1.8 194:3.8 195:4.2 196:2.5 197:-1.3 198:4.5 
1.0 20:1.0 28:1.0 48:1.0 77:1.0 82:1.0 102:1.0 130:1.0 145:1.0 161:1.0 181:6.56625 182:3.92616 183:3.92298 184:2.60737 185:2.77278 186:2.76709 187:3.92979 188:5.18478 189:1.53848 190:-1.3 191:4.5 192:4.5 193:-0.7 194:2.5 195:2.5 196:3.8 197:2.8 198:1.8 
1.0 20:1.0 28:1.0 48:1.0 63:1.0 99:1.0 111:1.0 138:1.0 143:1.0 168:1.0 181:6.55986 182:3.92373 183:3.92393 184:3.63518 185:6.02448 186:5.32846 187:2.57043 188:3.69105 189:3.91698 190:-1.3 191:4.5 192:4.5 193:-3.5 194:-0.9 195:1.9 196:4.2 197:-3.5 198:4.5 
1.0 1:1.0 34:1.0 45:1.0 70:1.0 100:1.0 110:1.0 140:1.0 141:1.0 170:1.0 181:1.54063 182:5.02008 183:5.17926 184:3.93016 185:6.5395 186:3.93025 187:6.53475 188:1.53708 189:3.92392 190:1.8 191:-3.5 192:2.8 193:3.8 194:-1.3 195:3.8 196:-1.3 197:1.8 198:3.8 
1.0 15:1.0 30:1.0 58:1.0 63:1.0 85:1.0 105:1.0 133:1.0 143:1.0 168:1.0 181:7.28437 182:3.93419 183:2.57452 184:3.66184 185:5.18103 186:5.22056 187:2.40739 188:3.63432 189:3.91837 190:-4.5 191:3.8 192:4.2 193:-3.5 194:2.8 195:2.8 196:-1.6 197:-3.5 198:4.5 
1.0 5:1.0 30:1.0 52:1.0 61:1.0 85:1.0 108:1.0 133:1.0 153:1.0 178:1.0 181:5.2026 182:3.93406 183:3.70167 184:1.53651 185:5.20352 186:3.92407 187:2.41673 188:2.40864 189:2.57215 190:2.8 191:3.8 192:-3.5 193:1.8 194:2.8 195:4.5 196:-1.6 197:-1.6 198:4.2 
1.0 5:1.0 30:1.0 52:1.0 79:1.0 99:1.0 108:1.0 133:1.0 144:1.0 178:1.0 181:5.20168 182:3.93323 183:3.69199 184:6.05409 185:5.99291 186:3.90783 187:2.41774 188:4.97329 189:2.57301 190:2.8 191:3.8 192:-3.5 193:-0.9 194:-0.9 195:4.5 196:-1.6 197:-3.5 198:4.2 
1.0 5:1.0 30:1.0 53:1.0 63:1.0 89:1.0 101:1.0 128:1.0 143:1.0 170:1.0 181:5.19329 182:3.92956 183:2.41107 184:3.66171 185:6.38087 186:1.53546 187:3.91823 188:3.69845 189:3.92364 190:2.8 191:3.8 192:-1.6 193:-3.5 194:-3.9 195:1.8 196:4.5 197:-3.5 198:3.8 
1.0 15:1.0 28:1.0 45:1.0 73:1.0 81:1.0 117:1.0 127:1.0 160:1.0 178:1.0 181:7.27907 182:3.92576 183:5.19245 184:2.41556 185:1.53598 186:2.6161 187:4.48172 188:6.51081 189:2.57402 190:-4.5 191:4.5 192:2.8 193:-1.6 194:1.8 195:-0.7 196:-3.2 197:-1.3 198:4.2 
1.0 12:1.0 38:1.0 45:1.0 69:1.0 100:1.0 110:1.0 137:1.0 156:1.0 178:1.0 181:3.74813 182:2.57657 183:5.19174 184:6.37969 185:6.58418 186:3.93571 187:2.59548 188:2.43612 189:2.57196 190:-3.5 191:4.2 192:2.8 193:-3.9 194:-1.3 195:3.8 196:-0.7 197:-0.8 198:4.2 
1.0 5:1.0 30:1.0 56:1.0 67:1.0 92:1.0 105:1.0 137:1.0 150:1.0 178:1.0 181:5.19839 182:3.93394 183:2.43677 184:4.49131 185:3.70274 186:5.18321 187:2.6095 188:3.93092 189:2.56938 190:2.8 191:3.8 192:-0.8 193:-3.2 194:-3.5 195:2.8 196:-0.7 197:3.8 198:4.2 
1.0 17:1.0 30:1.0 48:1.0 66:1.0 83:1.0 102:1.0 121:1.0 157:1.0 178:1.0 181:2.5342 182:3.93515 183:3.92091 184:0.0 185:3.67635 186:2.76813 187:1.53638 188:2.60796 189:2.57038 190:-0.7 191:3.8 192:4.5 193:-0.4 194:-3.5 195:2.5 196:1.8 197:-0.7 198:4.2 
1.0 1:1.0 31:1.0 45:1.0 68:1.0 86:1.0 107:1.0 121:1.0 157:1.0 161:1.0 181:1.54092 182:5.33224 183:5.1519 184:3.92047 185:0.0 186:4.5262 187:1.53701 188:2.6025 189:1.53743 190:1.8 191:1.9 192:2.8 193:4.5 194:-0.4 195:-3.2 196:1.8 197:-0.7 198:1.8 
1.0 5:1.0 30:1.0 59:1.0 63:1.0 84:1.0 101:1.0 139:1.0 160:1.0 161:1.0 181:5.19133 182:3.93345 183:6.04997 184:3.66565 185:4.99043 186:1.53732 187:6.03705 188:6.54515 189:1.53804 190:2.8 191:3.8 192:-0.9 193:-3.5 194:-3.5 195:1.8 196:-0.9 197:-1.3 198:1.8 
1.0 18:1.0 30:1.0 41:1.0 79:1.0 90:1.0 120:1.0 121:1.0 141:1.0 178:1.0 181:2.58768 182:3.93418 183:1.53588 184:6.04281 185:3.9285 186:6.53691 187:1.53732 188:1.5356 189:2.56944 190:4.2 191:3.8 192:1.8 193:-0.9 194:3.8 195:-1.3 196:1.8 197:1.8 198:4.2 
1.0 16:1.0 30:1.0 48:1.0 63:1.0 90:1.0 110:1.0 127:1.0 149:1.0 168:1.0 181:2.43385 182:3.93676 183:3.91915 184:3.64096 185:3.93153 186:3.93454 187:4.48954 188:6.37878 189:3.91636 190:-0.8 191:3.8 192:4.5 193:-3.5 194:3.8 195:3.8 196:-3.2 197:-3.9 198:4.5 
1.0 5:1.0 31:1.0 43:1.0 66:1.0 89:1.0 114:1.0 121:1.0 142:1.0 178:1.0 181:5.20438 182:5.32935 183:3.69893 184:0.0 185:6.38752 186:5.01309 187:1.53565 188:2.77163 189:2.57188 190:2.8 191:1.9 192:-3.5 193:-0.4 194:-3.9 195:-3.5 196:1.8 197:2.5 198:4.2 
1.0 1:1.0 30:1.0 59:1.0 68:1.0 93:1.0 103:1.0 130:1.0 145:1.0 171:1.0 181:1.54031 182:3.93351 183:5.99509 184:3.91314 185:2.41596 186:3.66706 187:3.93176 188:5.1835 189:5.31292 190:1.8 191:3.8 192:-0.9 193:4.5 194:-1.6 195:-3.5 196:3.8 197:2.8 198:1.9 
1.0 11:1.0 21:1.0 51:1.0 77:1.0 86:1.0 110:1.0 133:1.0 154:1.0 161:1.0 181:5.33717 182:1.53629 183:5.32592 184:2.61316 185:0.0 186:3.92704 187:2.41104 188:4.98877 189:1.53774 190:1.9 191:1.8 192:1.9 193:-0.7 194:-0.4 195:3.8 196:-1.6 197:-3.5 198:1.8 
1.0 16:1.0 30:1.0 60:1.0 76:1.0 86:1.0 105:1.0 133:1.0 156:1.0 170:1.0 181:2.43365 182:3.93318 183:6.47476 184:2.43948 185:0.0 186:5.20225 187:2.40949 188:2.43643 189:3.92532 190:-0.8 191:3.8 192:-1.3 193:-0.8 194:-0.4 195:2.8 196:-1.6 197:-0.8 198:3.8 
1.0 5:1.0 37:1.0 48:1.0 61:1.0 91:1.0 119:1.0 130:1.0 150:1.0 170:1.0 181:5.20504 182:2.60836 183:3.92152 184:1.53546 185:5.32566 186:6.02799 187:3.93031 188:3.93058 189:3.92382 190:2.8 191:-0.7 192:4.5 193:1.8 194:1.9 195:-0.9 196:3.8 197:3.8 198:3.8 
1.0 5:1.0 37:1.0 50:1.0 68:1.0 83:1.0 108:1.0 139:1.0 145:1.0 170:1.0 181:5.20208 182:2.6075 183:3.93389 184:3.91989 185:3.64415 186:3.92421 187:6.03652 188:5.18668 189:3.92092 190:2.8 191:-0.7 192:3.8 193:4.5 194:-3.5 195:4.5 196:-0.9 197:2.8 198:3.8 
1.0 19:1.0 31:1.0 48:1.0 67:1.0 97:1.0 110:1.0 124:1.0 141:1.0 170:1.0 181:6.05761 182:5.32402 183:3.92535 184:4.52088 185:2.61079 186:3.93215 187:4.98 188:1.53672 189:3.92501 190:-0.9 191:1.9 192:4.5 193:-3.2 194:-0.7 195:3.8 196:-3.5 197:1.8 198:3.8 
1.0 19:1.0 30:1.0 56:1.0 74:1.0 97:1.0 117:1.0 130:1.0 156:1.0 178:1.0 181:6.05081 182:3.93115 183:2.43428 184:5.02597 185:2.60627 186:2.61851 187:3.93584 188:2.43317 189:2.57106 190:-0.9 191:3.8 192:-0.8 193:-3.5 194:-0.7 195:-0.7 196:3.8 197:-0.8 198:4.2 
1.0 16:1.0 30:1.0 45:1.0 76:1.0 90:1.0 110:1.0 133:1.0 146:1.0 178:1.0 181:2.43445 182:3.93306 183:5.18559 184:2.43707 185:3.93364 186:3.92343 187:2.41204 188:0.0 189:2.57256 190:-0.8 191:3.8 192:2.8 193:-0.8 194:3.8 195:3.8 196:-1.6 197:-0.4 198:4.2 
1.0 19:1.0 30:1.0 46:1.0 67:1.0 93:1.0 105:1.0 137:1.0 153:1.0 178:1.0 181:6.05367 182:3.93263 183:0.0 184:4.73412 185:2.41414 186:5.16697 187:2.53788 188:2.41456 189:2.57004 190:-0.9 191:3.8 192:-0.4 193:-3.2 194:-1.6 195:2.8 196:-0.7 197:-1.6 198:4.2 
1.0 6:1.0 21:1.0 59:1.0 62:1.0 100:1.0 103:1.0 140:1.0 157:1.0 178:1.0 181:0.0 182:1.53665 183:6.05463 184:2.76903 185:6.54371 186:3.62543 187:6.5342 188:2.60655 189:2.57003 190:-0.4 191:1.8 192:-0.9 193:2.5 194:-1.3 195:-3.5 196:-1.3 197:-0.7 198:4.2 
1.0 16:1.0 30:1.0 45:1.0 66:1.0 86:1.0 111:1.0 136:1.0 159:1.0 168:1.0 181:2.43362 182:3.93153 183:5.17267 184:0.0 185:0.0 186:5.33885 187:2.43211 188:6.02224 189:3.9184 190:-0.8 191:3.8 192:2.8 193:-0.4 194:-0.4 195:1.9 196:-0.8 197:-0.9 198:4.5 
1.0 16:1.0 38:1.0 45:1.0 76:1.0 95:1.0 113:1.0 130:1.0 153:1.0 170:1.0 181:2.43335 182:2.57688 183:5.19677 184:2.43197 185:7.13884 186:2.41777 187:3.92814 188:2.4154 189:3.9224 190:-0.8 191:4.2 192:2.8 193:-0.8 194:-4.5 195:-1.6 196:3.8 197:-1.6 198:3.8 
1.0 6:1.0 30:1.0 41:1.0 63:1.0 94:1.0 110:1.0 128:1.0 147:1.0 170:1.0 181:0.0 182:3.9361 183:1.53536 184:3.68067 185:5.00413 186:3.93499 187:3.91875 188:4.49165 189:3.92303 190:-0.4 191:3.8 192:1.8 193:-3.5 194:-3.5 195:3.8 196:4.5 197:-3.2 198:3.8 
1.0 10:1.0 31:1.0 59:1.0 63:1.0 92:1.0 118:1.0 126:1.0 150:1.0 178:1.0 181:3.93927 182:5.32861 183:6.03557 184:3.69413 185:3.69977 186:2.57249 187:0.0 188:3.93389 189:2.56873 190:3.8 191:1.9 192:-0.9 193:-3.5 194:-3.5 195:4.2 196:-0.4 197:3.8 198:4.2 
1.0 20:1.0 37:1.0 51:1.0 61:1.0 83:1.0 110:1.0 138:1.0 160:1.0 161:1.0 181:6.54824 182:2.60701 183:5.32862 184:1.53584 185:3.66521 186:3.93201 187:2.57478 188:6.51472 189:1.53771 190:-1.3 191:-0.7 192:1.9 193:1.8 194:-3.5 195:3.8 196:4.2 197:-1.3 198:1.8 
1.0 1:1.0 30:1.0 51:1.0 63:1.0 100:1.0 106:1.0 125:1.0 155:1.0 178:1.0 181:1.53977 182:3.93704 183:5.32454 184:3.6559 185:6.50791 186:0.0 187:5.21499 188:7.28857 189:2.56736 190:1.8 191:3.8 192:1.9 193:-3.5 194:-1.3 195:-0.4 196:2.8 197:-4.5 198:4.2 
1.0 10:1.0 30:1.0 50:1.0 64:1.0 99:1.0 110:1.0 121:1.0 144:1.0 178:1.0 181:3.93867 182:3.93377 183:3.93027 184:4.98323 185:6.03383 186:3.93227 187:1.53476 188:4.9856 189:2.56951 190:3.8 191:3.8 192:3.8 193:-3.5 194:-0.9 195:3.8 196:1.8 197:-3.5 198:4.2 
1.0 1:1.0 30:1.0 50:1.0 76:1.0 95:1.0 105:1.0 125:1.0 152:1.0 171:1.0 181:1.54065 182:3.93441 183:3.9327 184:2.43329 185:7.26487 186:5.18812 187:5.19663 188:3.71341 189:5.32325 190:1.8 191:3.8 192:3.8 193:-0.8 194:-4.5 195:2.8 196:2.8 197:-3.5 198:1.9 
1.0 12:1.0 30:1.0 50:1.0 70:1.0 99:1.0 113:1.0 130:1.0 160:1.0 178:1.0 181:3.74952 182:3.93399 183:3.93051 184:3.9316 185:6.01519 186:2.42207 187:3.92907 188:6.52055 189:2.57134 190:-3.5 191:3.8 192:3.8 193:3.8 194:-0.9 195:-1.6 196:3.8 197:-1.3 198:4.2 
1.0 10:1.0 30:1.0 41:1.0 71:1.0 97:1.0 105:1.0 139:1.0 153:1.0 161:1.0 181:3.93737 182:3.93411 183:1.53589 184:5.33173 185:2.60841 186:5.1845 187:6.00693 188:2.41034 189:1.53795 190:3.8 191:3.8 192:1.8 193:1.9 194:-0.7 195:2.8 196:-0.9 197:-1.6 198:1.8 
1.0 6:1.0 30:1.0 60:1.0 76:1.0 90:1.0 113:1.0 127:1.0 143:1.0 170:1.0 181:0.0 182:3.93067 183:6.54464 184:2.43823 185:3.92655 186:2.41219 187:4.47271 188:3.69759 189:3.92433 190:-0.4 191:3.8 192:-1.3 193:-0.8 194:3.8 195:-1.6 196:-3.2 197:-3.5 198:3.8 
1.0 16:1.0 31:1.0 50:1.0 66:1.0 88:1.0 119:1.0 125:1.0 145:1.0 177:1.0 181:2.43401 182:5.32594 183:3.93708 184:0.0 185:3.92171 186:6.05386 187:5.22824 188:5.2266 189:2.60127 190:-0.8 191:1.9 192:3.8 193:-0.4 194:4.5 195:-0.9 196:2.8 197:2.8 198:-0.7 
1.0 10:1.0 28:1.0 43:1.0 65:1.0 100:1.0 110:1.0 122:1.0 145:1.0 170:1.0 181:3.94061 182:3.91962 183:3.64556 184:5.17868 185:6.55689 186:3.93568 187:2.77283 188:5.18915 189:3.92373 190:3.8 191:4.5 192:-3.5 193:2.8 194:-1.3 195:3.8 196:2.5 197:2.8 198:3.8 
1.0 7:1.0 30:1.0 50:1.0 62:1.0 94:1.0 101:1.0 125:1.0 156:1.0 178:1.0 181:4.5427 182:3.93307 183:3.93231 184:2.77144 185:5.01889 186:1.53566 187:5.20708 188:2.43622 189:2.57373 190:-3.2 191:3.8 192:3.8 193:2.5 194:-3.5 195:1.8 196:2.8 197:-0.8 198:4.2 
1.0 16:1.0 28:1.0 51:1.0 61:1.0 85:1.0 108:1.0 130:1.0 146:1.0 168:1.0 181:2.43411 182:3.92109 183:5.3274 184:1.53517 185:5.20898 186:3.91952 187:3.93692 188:0.0 189:3.916 190:-0.8 191:4.5 192:1.9 193:1.8 194:2.8 195:4.5 196:3.8 197:-0.4 198:4.5 
1.0 1:1.0 30:1.0 48:1.0 61:1.0 95:1.0 102:1.0 139:1.0 160:1.0 170:1.0 181:1.54061 182:3.93542 183:3.92049 184:1.53673 185:7.29686 186:2.76946 187:6.03705 188:6.51396 189:3.923 190:1.8 191:3.8 192:4.5 193:1.8 194:-4.5 195:2.5 196:-0.9 197:-1.3 198:3.8 
1.0 17:1.0 30:1.0 41:1.0 73:1.0 85:1.0 112:1.0 125:1.0 150:1.0 178:1.0 181:2.53166 182:3.93367 183:1.5382 184:2.41434 185:5.16635 186:3.7113 187:5.19403 188:3.92886 189:2.57016 190:-0.7 191:3.8 192:1.8 193:-1.6 194:2.8 195:-3.5 196:2.8 197:3.8 198:4.2 
1.0 8:1.0 30:1.0 45:1.0 63:1.0 95:1.0 110:1.0 133:1.0 148:1.0 161:1.0 181:3.92313 182:3.93438 183:5.18763 184:3.63195 185:7.17857 186:3.92603 187:2.41212 188:3.91396 189:1.53773 190:4.5 191:3.8 192:2.8 193:-3.5 194:-4.5 195:3.8 196:-1.6 197:4.5 198:1.8 
1.0 10:1.0 30:1.0 56:1.0 80:1.0 100:1.0 118:1.0 138:1.0 160:1.0 178:1.0 181:3.93916 182:3.93435 183:2.43377 184:6.55253 185:6.5618 186:2.57387 187:2.57617 188:6.51846 189:2.57247 190:3.8 191:3.8 192:-0.8 193:-1.3 194:-1.3 195:4.2 196:4.2 197:-1.3 198:4.2 
1.0 8:1.0 30:1.0 48:1.0 64:1.0 86:1.0 108:1.0 125:1.0 145:1.0 178:1.0 181:3.92347 182:3.93465 183:3.91838 184:4.98636 185:0.0 186:3.92575 187:5.17922 188:5.18867 189:2.57393 190:4.5 191:3.8 192:4.5 193:-3.5 194:-0.4 195:4.5 196:2.8 197:2.8 198:4.2 
1.0 8:1.0 30:1.0 50:1.0 61:1.0 88:1.0 101:1.0 131:1.0 146:1.0 170:1.0 181:3.92449 182:3.93289 183:3.93372 184:1.53672 185:3.92104 186:1.53681 187:5.32951 188:0.0 189:3.92487 190:4.5 191:3.8 192:3.8 193:1.8 194:4.5 195:1.8 196:1.9 197:-0.4 198:3.8 
1.0 20:1.0 38:1.0 51:1.0 77:1.0 91:1.0 108:1.0 130:1.0 145:1.0 170:1.0 181:6.55593 182:2.57313 183:5.32806 184:2.60656 185:5.32428 186:3.91886 187:3.93011 188:5.18788 189:3.92416 190:-1.3 191:4.2 192:1.9 193:-0.7 194:1.9 195:4.5 196:3.8 197:2.8 198:3.8 
1.0 8:1.0 30:1.0 56:1.0 63:1.0 84:1.0 112:1.0 140:1.0 150:1.0 170:1.0 181:3.92245 182:3.93623 183:2.43593 184:3.6287 185:4.98112 186:3.70844 187:6.55062 188:3.93249 189:3.92359 190:4.5 191:3.8 192:-0.8 193:-3.5 194:-3.5 195:-3.5 196:-1.3 197:3.8 198:3.8 
1.0 18:1.0 30:1.0 51:1.0 66:1.0 86:1.0 118:1.0 133:1.0 146:1.0 178:1.0 181:2.58733 182:3.93372 183:5.33183 184:0.0 185:0.0 186:2.60893 187:2.41229 188:0.0 189:2.57425 190:4.2 191:3.8 192:1.9 193:-0.4 194:-0.4 195:4.2 196:-1.6 197:-0.4 198:4.2 
1.0 8:1.0 30:1.0 60:1.0 63:1.0 92:1.0 118:1.0 138:1.0 157:1.0 170:1.0 181:3.92424 182:3.93294 183:6.5536 184:3.65455 185:3.69576 186:2.57385 187:2.57662 188:2.61135 189:3.92306 190:4.5 191:3.8 192:-1.3 193:-3.5 194:-3.5 195:4.2 196:4.2 197:-0.7 198:3.8 
1.0 18:1.0 31:1.0 42:1.0 66:1.0 86:1.0 116:1.0 130:1.0 160:1.0 178:1.0 181:2.58711 182:5.32778 183:2.7756 184:0.0 185:0.0 186:2.43854 187:3.93161 188:6.51832 189:2.5736 190:4.2 191:1.9 192:2.5 193:-0.4 194:-0.4 195:-0.8 196:3.8 197:-1.3 198:4.2 
1.0 18:1.0 30:1.0 59:1.0 69:1.0 96:1.0 120:1.0 133:1.0 150:1.0 178:1.0 181:2.58745 182:3.93468 183:6.02097 184:6.38504 185:2.43025 186:6.54517 187:2.40929 188:3.92992 189:2.56988 190:4.2 191:3.8 192:-0.9 193:-3.9 194:-0.8 195:-1.3 196:-1.6 197:3.8 198:4.2 
1.0 10:1.0 30:1.0 51:1.0 75:1.0 97:1.0 116:1.0 139:1.0 141:1.0 170:1.0 181:3.93889 182:3.93527 183:5.33283 184:7.26278 185:2.60666 186:2.43477 187:6.02321 188:1.53583 189:3.92294 190:3.8 191:3.8 192:1.9 193:-4.5 194:-0.7 195:-0.8 196:-0.9 197:1.8 198:3.8 
1.0 10:1.0 30:1.0 51:1.0 71:1.0 97:1.0 110:1.0 133:1.0 156:1.0 168:1.0 181:3.93807 182:3.93527 183:5.33168 184:5.32527 185:2.60687 186:3.92655 187:2.40988 188:2.43518 189:3.91091 190:3.8 191:3.8 192:1.9 193:1.9 194:-0.7 195:3.8 196:-1.6 197:-0.8 198:4.5 
1.0 17:1.0 28:1.0 60:1.0 76:1.0 87:1.0 110:1.0 130:1.0 150:1.0 178:1.0 181:2.53349 182:3.92329 183:6.54663 184:2.4359 185:4.49746 186:3.93204 187:3.93173 188:3.93036 189:2.56963 190:-0.7 191:4.5 192:-1.3 193:-0.8 194:-3.2 195:3.8 196:3.8 197:3.8 198:4.2 
1.0 15:1.0 30:1.0 58:1.0 63:1.0 85:1.0 110:1.0 127:1.0 159:1.0 170:1.0 181:7.2795 182:3.93538 183:2.57369 184:3.63717 185:5.18094 186:3.93393 187:4.48166 188:6.03597 189:3.92135 190:-4.5 191:3.8 192:4.2 193:-3.5 194:2.8 195:3.8 196:-3.2 197:-0.9 198:3.8 
1.0 15:1.0 30:1.0 53:1.0 70:1.0 98:1.0 110:1.0 133:1.0 141:1.0 178:1.0 181:7.22483 182:3.92933 183:2.41406 184:3.93045 185:2.57727 186:3.92545 187:2.40901 188:1.53712 189:2.57158 190:-4.5 191:3.8 192:-1.6 193:3.8 194:4.2 195:3.8 196:-1.6 197:1.8 198:4.2 
1.0 6:1.0 30:1.0 45:1.0 73:1.0 94:1.0 110:1.0 136:1.0 141:1.0 168:1.0 181:0.0 182:3.93443 183:5.18507 184:2.41551 185:4.97876 186:3.93697 187:2.4351 188:1.53713 189:3.91484 190:-0.4 191:3.8 192:2.8 193:-1.6 194:-3.5 195:3.8 196:-0.8 197:1.8 198:4.5 
1.0 16:1.0 30:1.0 57:1.0 61:1.0 90:1.0 116:1.0 121:1.0 146:1.0 178:1.0 181:2.43427 182:3.93262 183:2.60574 184:1.53666 185:3.93729 186:2.4342 187:1.53754 188:0.0 189:2.57183 190:-0.8 191:3.8 192:-0.7 193:1.8 194:3.8 195:-0.8 196:1.8 197:-0.4 198:4.2 
1.0 12:1.0 30:1.0 45:1.0 63:1.0 88:1.0 113:1.0 130:1.0 150:1.0 177:1.0 181:3.7506 182:3.93035 183:5.20238 184:3.69937 185:3.90339 186:2.41159 187:3.93168 188:3.92689 189:2.6001 190:-3.5 191:3.8 192:2.8 193:-3.5 194:4.5 195:-1.6 196:3.8 197:3.8 198:-0.7 
1.0 14:1.0 30:1.0 59:1.0 77:1.0 81:1.0 110:1.0 138:1.0 156:1.0 170:1.0 181:5.01889 182:3.93508 183:6.04392 184:2.61274 185:1.53621 186:3.93521 187:2.57295 188:2.43738 189:3.92369 190:-3.5 191:3.8 192:-0.9 193:-0.7 194:1.8 195:3.8 196:4.2 197:-0.8 198:3.8 
1.0 10:1.0 30:1.0 45:1.0 72:1.0 89:1.0 118:1.0 137:1.0 150:1.0 161:1.0 181:3.93746 182:3.93352 183:5.1896 184:3.73169 185:6.38756 186:2.5753 187:2.61078 188:3.93215 189:1.53676 190:3.8 191:3.8 192:2.8 193:-3.5 194:-3.9 195:4.2 196:-0.7 197:3.8 198:1.8 
1.0 17:1.0 30:1.0 60:1.0 64:1.0 81:1.0 118:1.0 135:1.0 149:1.0 178:1.0 181:2.53312 182:3.93439 183:6.54673 184:4.98527 185:1.53547 186:2.5744 187:7.29414 188:6.37882 189:2.5691 190:-0.7 191:3.8 192:-1.3 193:-3.5 194:1.8 195:4.2 196:-4.5 197:-3.9 198:4.2 
1.0 18:1.0 30:1.0 56:1.0 63:1.0 90:1.0 102:1.0 132:1.0 145:1.0 170:1.0 181:2.58675 182:3.93651 183:2.43489 184:3.63258 185:3.93126 186:2.77397 187:3.71512 188:5.18807 189:3.92348 190:4.2 191:3.8 192:-0.8 193:-3.5 194:3.8 195:2.5 196:-3.5 197:2.8 198:3.8 
1.0 16:1.0 38:1.0 48:1.0 63:1.0 87:1.0 108:1.0 127:1.0 160:1.0 171:1.0 181:2.43432 182:2.57431 183:3.91814 184:3.66908 185:4.47905 186:3.92121 187:4.48898 188:6.51322 189:5.31407 190:-0.8 191:4.2 192:4.5 193:-3.5 194:-3.2 195:4.5 196:-3.2 197:-1.3 198:1.9 
1.0 5:1.0 31:1.0 50:1.0 73:1.0 89:1.0 114:1.0 123:1.0 148:1.0 178:1.0 181:5.20094 182:5.3497 183:3.92823 184:2.41482 185:6.37505 186:5.00881 187:3.68862 188:3.9201 189:2.56961 190:2.8 191:1.9 192:3.8 193:-1.6 194:-3.9 195:-3.5 196:-3.5 197:4.5 198:4.2 
1.0 9:1.0 34:1.0 51:1.0 64:1.0 83:1.0 106:1.0 127:1.0 157:1.0 170:1.0 181:6.39257 182:5.01624 183:5.32774 184:4.9789 185:3.69171 186:0.0 187:4.50481 188:2.60828 189:3.92638 190:-3.9 191:-3.5 192:1.9 193:-3.5 194:-3.5 195:-0.4 196:-3.2 197:-0.7 198:3.8 
1.0 20:1.0 31:1.0 59:1.0 70:1.0 86:1.0 101:1.0 135:1.0 160:1.0 170:1.0 181:6.54812 182:5.33383 183:6.03479 184:3.93248 185:0.0 186:1.5377 187:7.27433 188:6.51292 189:3.92409 190:-1.3 191:1.9 192:-0.9 193:3.8 194:-0.4 195:1.8 196:-4.5 197:-1.3 198:3.8 
1.0 16:1.0 34:1.0 43:1.0 64:1.0 98:1.0 110:1.0 125:1.0 150:1.0 178:1.0 181:2.43392 182:5.01837 183:3.67002 184:4.98204 185:2.57486 186:3.93312 187:5.196 188:3.92966 189:2.57093 190:-0.8 191:-3.5 192:-3.5 193:-3.5 194:4.2 195:3.8 196:2.8 197:3.8 198:4.2 
1.0 5:1.0 30:1.0 57:1.0 73:1.0 90:1.0 116:1.0 138:1.0 157:1.0 170:1.0 181:5.21226 182:3.93627 183:2.52194 184:2.41202 185:3.93266 186:2.43358 187:2.57878 188:2.61029 189:3.92408 190:2.8 191:3.8 192:-0.7 193:-1.6 194:3.8 195:-0.8 196:4.2 197:-0.7 198:3.8 
1.0 5:1.0 30:1.0 53:1.0 63:1.0 97:1.0 115:1.0 125:1.0 141:1.0 178:1.0 181:5.18645 182:3.93114 183:2.41018 184:3.69273 185:2.61446 186:7.28161 187:5.18429 188:1.53547 189:2.5699 190:2.8 191:3.8 192:-1.6 193:-3.5 194:-0.7 195:-4.5 196:2.8 197:1.8 198:4.2 
1.0 10:1.0 30:1.0 41:1.0 66:1.0 85:1.0 111:1.0 121:1.0 160:1.0 171:1.0 181:3.93933 182:3.93141 183:1.53733 184:0.0 185:5.189 186:5.32362 187:1.53561 188:6.52149 189:5.31352 190:3.8 191:3.8 192:1.8 193:-0.4 194:2.8 195:1.9 196:1.8 197:-1.3 198:1.9 
1.0 10:1.0 30:1.0 50:1.0 68:1.0 96:1.0 111:1.0 140:1.0 141:1.0 170:1.0 181:3.93934 182:3.93443 183:3.93242 184:3.92162 185:2.43522 186:5.32582 187:6.52924 188:1.53663 189:3.92477 190:3.8 191:3.8 192:3.8 193:4.5 194:-0.8 195:1.9 196:-1.3 197:1.8 198:3.8 
1.0 9:1.0 31:1.0 51:1.0 70:1.0 85:1.0 120:1.0 131:1.0 143:1.0 170:1.0 181:6.39277 182:5.32629 183:5.32298 184:3.93087 185:5.17919 186:6.55288 187:5.33314 188:3.68562 189:3.92461 190:-3.9 191:1.9 192:1.9 193:3.8 194:2.8 195:-1.3 196:1.9 197:-3.5 198:3.8 
1.0 6:1.0 28:1.0 50:1.0 77:1.0 98:1.0 108:1.0 130:1.0 146:1.0 178:1.0 181:0.0 182:3.92452 183:3.92902 184:2.60511 185:2.57514 186:3.91688 187:3.93584 188:0.0 189:2.57116 190:-0.4 191:4.5 192:3.8 193:-0.7 194:4.2 195:4.5 196:3.8 197:-0.4 198:4.2 
1.0 10:1.0 31:1.0 57:1.0 65:1.0 99:1.0 112:1.0 133:1.0 153:1.0 178:1.0 181:3.94035 182:5.32794 183:2.61027 184:5.16746 185:5.98979 186:3.71994 187:2.41548 188:2.40429 189:2.57127 190:3.8 191:1.9 192:-0.7 193:2.8 194:-0.9 195:-3.5 196:-1.6 197:-1.6 198:4.2 
1.0 20:1.0 31:1.0 53:1.0 80:1.0 98:1.0 105:1.0 137:1.0 150:1.0 170:1.0 181:6.56113 182:5.32767 183:2.40044 184:6.5089 185:2.57647 186:5.18866 187:2.60995 188:3.93195 189:3.92399 190:-1.3 191:1.9 192:-1.6 193:-1.3 194:4.2 195:2.8 196:-0.7 197:3.8 198:3.8 
1.0 5:1.0 38:1.0 43:1.0 65:1.0 98:1.0 108:1.0 127:1.0 146:1.0 170:1.0 181:5.19817 182:2.57334 183:3.60582 184:5.19449 185:2.57269 186:3.91954 187:4.49055 188:0.0 189:3.92475 190:2.8 191:4.2 192:-3.5 193:2.8 194:4.2 195:4.5 196:-3.2 197:-0.4 198:3.8 
1.0 5:1.0 31:1.0 60:1.0 76:1.0 83:1.0 105:1.0 127:1.0 145:1.0 168:1.0 181:5.19504 182:5.32811 183:6.56224 184:2.43837 185:3.60151 186:5.18067 187:4.48427 188:5.18926 189:3.91722 190:2.8 191:1.9 192:-1.3 193:-0.8 194:-3.5 195:2.8 196:-3.2 197:2.8 198:4.5 
1.0 7:1.0 30:1.0 45:1.0 80:1.0 96:1.0 101:1.0 138:1.0 150:1.0 170:1.0 181:4.54062 182:3.93213 183:5.16835 184:6.55203 185:2.43849 186:1.53541 187:2.574 188:3.93158 189:3.92287 190:-3.2 191:3.8 192:2.8 193:-1.3 194:-0.8 195:1.8 196:4.2 197:3.8 198:3.8 
1.0 6:1.0 30:1.0 52:1.0 73:1.0 97:1.0 101:1.0 128:1.0 150:1.0 170:1.0 181:0.0 182:3.93341 183:3.72167 184:2.41389 185:2.61251 186:1.5376 187:3.91731 188:3.92955 189:3.92277 190:-0.4 191:3.8 192:-3.5 193:-1.6 194:-0.7 195:1.8 196:4.5 197:3.8 198:3.8 
1.0 5:1.0 30:1.0 57:1.0 75:1.0 84:1.0 108:1.0 130:1.0 159:1.0 161:1.0 181:5.2261 182:3.93704 183:2.60029 184:7.29591 185:4.98013 186:3.92017 187:3.93001 188:6.03015 189:1.53835 190:2.8 191:3.8 192:-0.7 193:-4.5 194:-3.5 195:4.5 196:3.8 197:-0.9 198:1.8 
1.0 20:1.0 30:1.0 41:1.0 69:1.0 90:1.0 117:1.0 121:1.0 150:1.0 178:1.0 181:6.55862 182:3.93572 183:1.53529 184:6.38822 185:3.92864 186:2.60933 187:1.53649 188:3.93171 189:2.56999 190:-1.3 191:3.8 192:1.8 193:-3.9 194:3.8 195:-0.7 196:1.8 197:3.8 198:4.2 
1.0 9:1.0 30:1.0 54:1.0 78:1.0 84:1.0 110:1.0 123:1.0 152:1.0 178:1.0 181:6.3961 182:3.93154 183:5.02575 184:2.57394 185:4.981 186:3.93374 187:3.6789 188:3.68959 189:2.57261 190:-3.9 191:3.8 192:-3.5 193:4.2 194:-3.5 195:3.8 196:-3.5 197:-3.5 198:4.2 
1.0 20:1.0 38:1.0 45:1.0 77:1.0 90:1.0 110:1.0 125:1.0 154:1.0 170:1.0 181:6.54501 182:2.57564 183:5.19185 184:2.6115 185:3.93315 186:3.9332 187:5.19349 188:5.01279 189:3.92379 190:-1.3 191:4.2 192:2.8 193:-0.7 194:3.8 195:3.8 196:2.8 197:-3.5 198:3.8 
1.0 20:1.0 30:1.0 60:1.0 61:1.0 96:1.0 105:1.0 122:1.0 157:1.0 178:1.0 181:6.55691 182:3.93258 183:6.52058 184:1.53736 185:2.436 186:5.2291 187:2.77878 188:2.60114 189:2.56946 190:-1.3 191:3.8 192:-1.3 193:1.8 194:-0.8 195:2.8 196:2.5 197:-0.7 198:4.2 
1.0 2:1.0 30:1.0 58:1.0 76:1.0 86:1.0 110:1.0 136:1.0 156:1.0 170:1.0 181:2.78636 182:3.93438 183:2.57196 184:2.44045 185:0.0 186:3.93812 187:2.43328 188:2.43907 189:3.92489 190:2.5 191:3.8 192:4.2 193:-0.8 194:-0.4 195:3.8 196:-0.8 197:-0.8 198:3.8 
1.0 10:1.0 37:1.0 48:1.0 78:1.0 85:1.0 118:1.0 133:1.0 144:1.0 178:1.0 181:3.93947 182:2.60298 183:3.9208 184:2.58072 185:5.18248 186:2.61082 187:2.41545 188:4.96791 189:2.57296 190:3.8 191:-0.7 192:4.5 193:4.2 194:2.8 195:4.2 196:-1.6 197:-3.5 198:4.2 
1.0 16:1.0 30:1.0 46:1.0 74:1.0 100:1.0 108:1.0 140:1.0 144:1.0 177:1.0 181:2.43384 182:3.93655 183:0.0 184:5.02069 185:6.5528 186:3.92196 187:6.59408 188:4.99184 189:2.58878 190:-0.8 191:3.8 192:-0.4 193:-3.5 194:-1.3 195:4.5 196:-1.3 197:-3.5 198:-0.7 
1.0 10:1.0 30:1.0 52:1.0 72:1.0 96:1.0 110:1.0 126:1.0 156:1.0 178:1.0 181:3.93854 182:3.93378 183:3.72959 184:3.73086 185:2.43322 186:3.93691 187:0.0 188:2.44006 189:2.57181 190:3.8 191:3.8 192:-3.5 193:-3.5 194:-0.8 195:3.8 196:-0.4 197:-0.8 198:4.2 
1.0 1:1.0 30:1.0 45:1.0 63:1.0 86:1.0 101:1.0 129:1.0 153:1.0 170:1.0 181:1.53933 182:3.93535 183:5.17105 184:3.67477 185:0.0 186:1.53778 187:6.37269 188:2.41371 189:3.92474 190:1.8 191:3.8 192:2.8 193:-3.5 194:-0.4 195:1.8 196:-3.9 197:-1.6 198:3.8 
1.0 19:1.0 30:1.0 58:1.0 67:1.0 89:1.0 114:1.0 139:1.0 145:1.0 170:1.0 181:6.0534 182:3.93328 183:2.57108 184:4.51427 185:6.38091 186:5.02654 187:6.04522 188:5.18609 189:3.92186 190:-0.9 191:3.8 192:4.2 193:-3.2 194:-3.9 195:-3.5 196:-0.9 197:2.8 198:3.8 
1.0 20:1.0 30:1.0 60:1.0 66:1.0 90:1.0 116:1.0 133:1.0 141:1.0 168:1.0 181:6.55683 182:3.93127 183:6.5128 184:0.0 185:3.93717 186:2.42965 187:2.41039 188:1.53535 189:3.91339 190:-1.3 191:3.8 192:-1.3 193:-0.4 194:3.8 195:-0.8 196:-1.6 197:1.8 198:4.5 
1.0 12:1.0 30:1.0 43:1.0 63:1.0 98:1.0 120:1.0 136:1.0 160:1.0 168:1.0 181:3.74987 182:3.93403 183:3.65642 184:3.63748 185:2.57779 186:6.55424 187:2.43502 188:6.52967 189:3.91936 190:-3.5 191:3.8 192:-3.5 193:-3.5 194:4.2 195:-1.3 196:-0.8 197:-1.3 198:4.5 
1.0 1:1.0 30:1.0 54:1.0 64:1.0 81:1.0 120:1.0 140:1.0 155:1.0 161:1.0 181:1.54014 182:3.93462 183:5.0124 184:4.98293 185:1.53639 186:6.54615 187:6.56426 188:7.29237 189:1.53595 190:1.8 191:3.8 192:-3.5 193:-3.5 194:1.8 195:-1.3 196:-1.3 197:-4.5 198:1.8 
1.0 9:1.0 30:1.0 58:1.0 80:1.0 90:1.0 108:1.0 138:1.0 146:1.0 178:1.0 181:6.39192 182:3.93386 183:2.5748 184:6.55904 185:3.93612 186:3.92324 187:2.57334 188:0.0 189:2.57065 190:-3.9 191:3.8 192:4.2 193:-1.3 194:3.8 195:4.5 196:4.2 197:-0.4 198:4.2 
1.0 1:1.0 30:1.0 56:1.0 72:1.0 86:1.0 108:1.0 133:1.0 153:1.0 178:1.0 181:1.53979 182:3.93691 183:2.43207 184:3.73343 185:0.0 186:3.92163 187:2.41154 188:2.40729 189:2.57016 190:1.8 191:3.8 192:-0.8 193:-3.5 194:-0.4 195:4.5 196:-1.6 197:-1.6 198:4.2 
1.0 6:1.0 30:1.0 50:1.0 66:1.0 96:1.0 110:1.0 138:1.0 146:1.0 161:1.0 181:0.0 182:3.93332 183:3.93561 184:0.0 185:2.44072 186:3.93088 187:2.57151 188:0.0 189:1.53789 190:-0.4 191:3.8 192:3.8 193:-0.4 194:-0.8 195:3.8 196:4.2 197:-0.4 198:1.8 
1.0 10:1.0 31:1.0 51:1.0 77:1.0 97:1.0 108:1.0 126:1.0 158:1.0 178:1.0 181:3.93906 182:5.33551 183:5.32753 184:2.60636 185:2.6097 186:3.91867 187:0.0 188:2.57469 189:2.56961 190:3.8 191:1.9 192:1.9 193:-0.7 194:-0.7 195:4.5 196:-0.4 197:4.2 198:4.2 
1.0 8:1.0 38:1.0 46:1.0 61:1.0 84:1.0 117:1.0 125:1.0 160:1.0 178:1.0 181:3.92173 182:2.57412 183:0.0 184:1.53748 185:4.97898 186:2.61012 187:5.19394 188:6.51183 189:2.57286 190:4.5 191:4.2 192:-0.4 193:1.8 194:-3.5 195:-0.7 196:2.8 197:-1.3 198:4.2 
1.0 5:1.0 30:1.0 46:1.0 75:1.0 100:1.0 111:1.0 136:1.0 141:1.0 170:1.0 181:5.171 182:3.93386 183:0.0 184:7.27512 185:6.53585 186:5.33149 187:2.43746 188:1.53699 189:3.92441 190:2.8 191:3.8 192:-0.4 193:-4.5 194:-1.3 195:1.9 196:-0.8 197:1.8 198:3.8 
1.0 5:1.0 30:1.0 60:1.0 66:1.0 81:1.0 101:1.0 130:1.0 150:1.0 161:1.0 181:5.19713 182:3.93096 183:6.49733 184:0.0 185:1.53721 186:1.53669 187:3.93423 188:3.92898 189:1.53736 190:2.8 191:3.8 192:-1.3 193:-0.4 194:1.8 195:1.8 196:3.8 197:3.8 198:1.8 
1.0 8:1.0 30:1.0 41:1.0 69:1.0 85:1.0 110:1.0 127:1.0 159:1.0 170:1.0 181:3.92377 182:3.93445 183:1.53616 184:6.38757 185:5.18269 186:3.9338 187:4.48084 188:6.03101 189:3.92142 190:4.5 191:3.8 192:1.8 193:-3.9 194:2.8 195:3.8 196:-3.2 197:-0.9 198:3.8 
1.0 20:1.0 21:1.0 51:1.0 62:1.0 90:1.0 112:1.0 137:1.0 145:1.0 178:1.0 181:6.53927 182:1.53659 183:5.33382 184:2.76933 185:3.93237 186:3.68486 187:2.61243 188:5.19341 189:2.57274 190:-1.3 191:1.8 192:1.9 193:2.5 194:3.8 195:-3.5 196:-0.7 197:2.8 198:4.2 
1.0 8:1.0 30:1.0 43:1.0 74:1.0 98:1.0 113:1.0 125:1.0 156:1.0 178:1.0 181:3.92253 182:3.93307 183:3.63309 184:5.01276 185:2.62425 186:2.41654 187:5.18102 188:2.4371 189:2.5734 190:4.5 191:3.8 192:-3.5 193:-3.5 194:4.2 195:-1.6 196:2.8 197:-0.8 198:4.2 
1.0 9:1.0 30:1.0 49:1.0 63:1.0 98:1.0 110:1.0 130:1.0 154:1.0 178:1.0 181:6.38956 182:3.93603 183:6.38155 184:3.65373 185:2.57752 186:3.93414 187:3.93263 188:5.01341 189:2.56935 190:-3.9 191:3.8 192:-3.9 193:-3.5 194:4.2 195:3.8 196:3.8 197:-3.5 198:4.2 
1.0 9:1.0 30:1.0 56:1.0 62:1.0 81:1.0 118:1.0 127:1.0 150:1.0 168:1.0 181:6.39205 182:3.93561 183:2.43558 184:2.77462 185:1.53663 186:2.57521 187:4.48586 188:3.92943 189:3.91395 190:-3.9 191:3.8 192:-0.8 193:2.5 194:1.8 195:4.2 196:-3.2 197:3.8 198:4.5 
1.0 5:1.0 28:1.0 50:1.0 68:1.0 85:1.0 112:1.0 128:1.0 148:1.0 178:1.0 181:5.20488 182:3.92111 183:3.93227 184:3.92018 185:5.19818 186:3.72247 187:3.91879 188:3.91886 189:2.57025 190:2.8 191:4.5 192:3.8 193:4.5 194:2.8 195:-3.5 196:4.5 197:4.5 198:4.2 
1.0 20:1.0 30:1.0 45:1.0 73:1.0 86:1.0 113:1.0 138:1.0 157:1.0 161:1.0 181:6.56963 182:3.93196 183:5.20529 184:2.41644 185:0.0 186:2.41603 187:2.57726 188:2.61085 189:1.53731 190:-1.3 191:3.8 192:2.8 193:-1.6 194:-0.4 195:-1.6 196:4.2 197:-0.7 198:1.8 
1.0 11:1.0 31:1.0 48:1.0 63:1.0 83:1.0 105:1.0 126:1.0 157:1.0 161:1.0 181:5.33734 182:5.32434 183:3.91927 184:3.63724 185:3.67349 186:5.19098 187:0.0 188:2.60439 189:1.53704 190:1.9 191:1.9 192:4.5 193:-3.5 194:-3.5 195:2.8 196:-0.4 197:-0.7 198:1.8 
1.0 10:1.0 30:1.0 51:1.0 70:1.0 90:1.0 113:1.0 137:1.0 141:1.0 170:1.0 181:3.93782 182:3.93413 183:5.3244 184:3.9314 185:3.92773 186:2.41595 187:2.6151 188:1.53808 189:3.924 190:3.8 191:3.8 192:1.9 193:3.8 194:3.8 195:-1.6 196:-0.7 197:1.8 198:3.8 
1.0 6:1.0 30:1.0 56:1.0 63:1.0 95:1.0 118:1.0 138:1.0 145:1.0 178:1.0 181:0.0 182:3.93729 183:2.43629 184:3.68081 185:7.2829 186:2.57174 187:2.57649 188:5.18923 189:2.57177 190:-0.4 191:3.8 192:-0.8 193:-3.5 194:-4.5 195:4.2 196:4.2 197:2.8 198:4.2 
1.0 5:1.0 30:1.0 42:1.0 77:1.0 81:1.0 103:1.0 121:1.0 141:1.0 178:1.0 181:5.20323 182:3.93563 183:2.76569 184:2.61091 185:1.53613 186:3.68033 187:1.5365 188:1.5369 189:2.5703 190:2.8 191:3.8 192:2.5 193:-0.7 194:1.8 195:-3.5 196:1.8 197:1.8 198:4.2 
1.0 20:1.0 30:1.0 48:1.0 69:1.0 94:1.0 108:1.0 130:1.0 145:1.0 178:1.0 181:6.55918 182:3.93626 183:3.92475 184:6.38554 185:5.01103 186:3.92134 187:3.93101 188:5.18733 189:2.57265 190:-1.3 191:3.8 192:4.5 193:-3.9 194:-3.5 195:4.5 196:3.8 197:2.8 198:4.2 
1.0 10:1.0 34:1.0 52:1.0 65:1.0 82:1.0 114:1.0 127:1.0 150:1.0 178:1.0 181:3.93922 182:5.01865 183:3.71902 184:5.19909 185:2.77454 186:5.01395 187:4.49554 188:3.9285 189:2.57046 190:3.8 191:-3.5 192:-3.5 193:2.8 194:2.5 195:-3.5 196:-3.2 197:3.8 198:4.2 
1.0 10:1.0 31:1.0 58:1.0 73:1.0 86:1.0 101:1.0 121:1.0 153:1.0 178:1.0 181:3.93941 182:5.33402 183:2.62151 184:2.4149 185:0.0 186:1.53698 187:1.53886 188:2.40913 189:2.5694 190:3.8 191:1.9 192:4.2 193:-1.6 194:-0.4 195:1.8 196:1.8 197:-1.6 198:4.2 
1.0 9:1.0 30:1.0 50:1.0 66:1.0 94:1.0 108:1.0 132:1.0 150:1.0 178:1.0 181:6.39236 182:3.93161 183:3.93709 184:0.0 185:5.01285 186:3.92051 187:3.73042 188:3.9301 189:2.57002 190:-3.9 191:3.8 192:3.8 193:-0.4 194:-3.5 195:4.5 196:-3.5 197:3.8 198:4.2 
1.0 6:1.0 38:1.0 60:1.0 66:1.0 86:1.0 110:1.0 122:1.0 150:1.0 161:1.0 181:0.0 182:2.5772 183:6.48946 184:0.0 185:0.0 186:3.93836 187:2.7678 188:3.93188 189:1.53705 190:-0.4 191:4.2 192:-1.3 193:-0.4 194:-0.4 195:3.8 196:2.5 197:3.8 198:1.8 
1.0 8:1.0 30:1.0 60:1.0 61:1.0 87:1.0 110:1.0 127:1.0 149:1.0 170:1.0 181:3.92427 182:3.93163 183:6.53835 184:1.53622 185:4.53206 186:3.93245 187:4.48866 188:6.38006 189:3.92296 190:4.5 191:3.8 192:-1.3 193:1.8 194:-3.2 195:3.8 196:-3.2 197:-3.9 198:3.8 
1.0 9:1.0 30:1.0 45:1.0 76:1.0 83:1.0 108:1.0 136:1.0 141:1.0 168:1.0 181:6.39142 182:3.93239 183:5.19361 184:2.43822 185:3.6434 186:3.92088 187:2.43668 188:1.53732 189:3.91389 190:-3.9 191:3.8 192:2.8 193:-0.8 194:-3.5 195:4.5 196:-0.8 197:1.8 198:4.5 
1.0 18:1.0 30:1.0 48:1.0 63:1.0 84:1.0 116:1.0 121:1.0 146:1.0 168:1.0 181:2.58709 182:3.93577 183:3.91684 184:3.65238 185:4.98148 186:2.43622 187:1.53774 188:0.0 189:3.91476 190:4.2 191:3.8 192:4.5 193:-3.5 194:-3.5 195:-0.8 196:1.8 197:-0.4 198:4.5 
1.0 16:1.0 30:1.0 45:1.0 73:1.0 84:1.0 105:1.0 136:1.0 144:1.0 170:1.0 181:2.43375 182:3.93288 183:5.18335 184:2.41485 185:4.96955 186:5.1893 187:2.43886 188:4.98455 189:3.92336 190:-0.8 191:3.8 192:2.8 193:-1.6 194:-3.5 195:2.8 196:-0.8 197:-3.5 198:3.8 
1.0 9:1.0 28:1.0 50:1.0 76:1.0 98:1.0 110:1.0 121:1.0 153:1.0 170:1.0 181:6.39052 182:3.91992 183:3.93432 184:2.43399 185:2.5772 186:3.93227 187:1.53812 188:2.41599 189:3.9242 190:-3.9 191:4.5 192:3.8 193:-0.8 194:4.2 195:3.8 196:1.8 197:-1.6 198:3.8 
1.0 10:1.0 30:1.0 50:1.0 72:1.0 97:1.0 117:1.0 130:1.0 157:1.0 178:1.0 181:3.93872 182:3.93359 183:3.93209 184:3.68742 185:2.61201 186:2.61415 187:3.92993 188:2.6063 189:2.57062 190:3.8 191:3.8 192:3.8 193:-3.5 194:-0.7 195:-0.7 196:3.8 197:-0.7 198:4.2 
1.0 1:1.0 30:1.0 56:1.0 64:1.0 86:1.0 118:1.0 140:1.0 155:1.0 168:1.0 181:1.54017 182:3.93766 183:2.43499 184:4.98686 185:0.0 186:2.57606 187:6.55437 188:7.29726 189:3.91658 190:1.8 191:3.8 192:-0.8 193:-3.5 194:-0.4 195:4.2 196:-1.3 197:-4.5 198:4.5 
1.0 11:1.0 30:1.0 50:1.0 72:1.0 98:1.0 114:1.0 137:1.0 150:1.0 168:1.0 181:5.33667 182:3.93331 183:3.93284 184:3.72217 185:2.57646 186:5.01439 187:2.60588 188:3.93339 189:3.91379 190:1.9 191:3.8 192:3.8 193:-3.5 194:4.2 195:-3.5 196:-0.7 197:3.8 198:4.5 
1.0 8:1.0 28:1.0 51:1.0 63:1.0 84:1.0 101:1.0 127:1.0 145:1.0 170:1.0 181:3.92226 182:3.92032 183:5.32172 184:3.63382 185:4.97982 186:1.53687 187:4.49043 188:5.1849 189:3.92351 190:4.5 191:4.5 192:1.9 193:-3.5 194:-3.5 195:1.8 196:-3.2 197:2.8 198:3.8 
1.0 15:1.0 30:1.0 54:1.0 76:1.0 90:1.0 114:1.0 137:1.0 160:1.0 178:1.0 181:7.34637 182:3.92826 183:5.02712 184:2.43936 185:3.93392 186:5.01574 187:2.60882 188:6.52394 189:2.57287 190:-4.5 191:3.8 192:-3.5 193:-0.8 194:3.8 195:-3.5 196:-0.7 197:-1.3 198:4.2 
1.0 18:1.0 30:1.0 50:1.0 70:1.0 88:1.0 117:1.0 127:1.0 160:1.0 161:1.0 181:2.58642 182:3.93407 183:3.93303 184:3.93293 185:3.92152 186:2.6107 187:4.48181 188:6.50616 189:1.53784 190:4.2 191:3.8 192:3.8 193:3.8 194:4.5 195:-0.7 196:-3.2 197:-1.3 198:1.8 
1.0 16:1.0 30:1.0 58:1.0 76:1.0 89:1.0 107:1.0 139:1.0 144:1.0 170:1.0 181:2.43397 182:3.93493 183:2.57261 184:2.43447 185:6.3851 186:4.48382 187:6.02737 188:4.98068 189:3.9227 190:-0.8 191:3.8 192:4.2 193:-0.8 194:-3.9 195:-3.2 196:-0.9 197:-3.5 198:3.8 
1.0 5:1.0 30:1.0 41:1.0 78:1.0 86:1.0 106:1.0 138:1.0 150:1.0 170:1.0 181:5.19277 182:3.93636 183:1.53461 184:2.57365 185:0.0 186:0.0 187:2.57522 188:3.93078 189:3.92378 190:2.8 191:3.8 192:1.8 193:4.2 194:-0.4 195:-0.4 196:4.2 197:3.8 198:3.8 
1.0 20:1.0 30:1.0 44:1.0 66:1.0 90:1.0 108:1.0 127:1.0 144:1.0 178:1.0 181:6.57162 182:3.93086 183:4.99201 184:0.0 185:3.93819 186:3.91892 187:4.50562 188:4.979 189:2.57192 190:-1.3 191:3.8 192:-3.5 193:-0.4 194:3.8 195:4.5 196:-3.2 197:-3.5 198:4.2 
1.0 18:1.0 38:1.0 50:1.0 76:1.0 99:1.0 101:1.0 133:1.0 153:1.0 178:1.0 181:2.58766 182:2.57548 183:3.93091 184:2.42622 185:6.02804 186:1.53777 187:2.40993 188:2.41357 189:2.57282 190:4.2 191:4.2 192:3.8 193:-0.8 194:-0.9 195:1.8 196:-1.6 197:-1.6 198:4.2 
1.0 4:1.0 31:1.0 45:1.0 66:1.0 86:1.0 117:1.0 133:1.0 141:1.0 178:1.0 181:4.98226 182:5.32943 183:5.16977 184:0.0 185:0.0 186:2.53182 187:2.40948 188:1.53576 189:2.57285 190:-3.5 191:1.9 192:2.8 193:-0.4 194:-0.4 195:-0.7 196:-1.6 197:1.8 198:4.2 
1.0 9:1.0 31:1.0 47:1.0 63:1.0 98:1.0 108:1.0 121:1.0 153:1.0 161:1.0 181:6.39246 182:5.32775 183:4.50107 184:3.67572 185:2.57693 186:3.92257 187:1.53796 188:2.40901 189:1.53779 190:-3.9 191:1.9 192:-3.2 193:-3.5 194:4.2 195:4.5 196:1.8 197:-1.6 198:1.8 
1.0 5:1.0 28:1.0 50:1.0 63:1.0 81:1.0 110:1.0 121:1.0 154:1.0 161:1.0 181:5.20818 182:3.92223 183:3.92966 184:3.66271 185:1.53628 186:3.93491 187:1.53622 188:5.01235 189:1.53734 190:2.8 191:4.5 192:3.8 193:-3.5 194:1.8 195:3.8 196:1.8 197:-3.5 198:1.8 
1.0 5:1.0 30:1.0 56:1.0 76:1.0 96:1.0 101:1.0 130:1.0 141:1.0 178:1.0 181:5.19789 182:3.93591 183:2.43744 184:2.43806 185:2.43729 186:1.53624 187:3.93606 188:1.5359 189:2.57041 190:2.8 191:3.8 192:-0.8 193:-0.8 194:-0.8 195:1.8 196:3.8 197:1.8 198:4.2 
1.0 11:1.0 30:1.0 42:1.0 71:1.0 85:1.0 108:1.0 133:1.0 156:1.0 178:1.0 181:5.3375 182:3.93427 183:2.77247 184:5.32341 185:5.17083 186:3.91213 187:2.40973 188:2.43196 189:2.57372 190:1.9 191:3.8 192:2.5 193:1.9 194:2.8 195:4.5 196:-1.6 197:-0.8 198:4.2 
1.0 10:1.0 30:1.0 51:1.0 77:1.0 96:1.0 110:1.0 134:1.0 160:1.0 161:1.0 181:3.93938 182:3.93526 183:5.32349 184:2.60718 185:2.43602 186:3.93256 187:5.01148 188:6.51379 189:1.53764 190:3.8 191:3.8 192:1.9 193:-0.7 194:-0.8 195:3.8 196:-3.5 197:-1.3 198:1.8 
1.0 20:1.0 30:1.0 41:1.0 72:1.0 86:1.0 106:1.0 125:1.0 150:1.0 168:1.0 181:6.55188 182:3.93646 183:1.53472 184:3.74033 185:0.0 186:0.0 187:5.21487 188:3.93097 189:3.91472 190:-1.3 191:3.8 192:1.8 193:-3.5 194:-0.4 195:-0.4 196:2.8 197:3.8 198:4.5 
1.0 5:1.0 30:1.0 60:1.0 66:1.0 81:1.0 110:1.0 121:1.0 150:1.0 161:1.0 181:5.20005 182:3.93043 183:6.50786 184:0.0 185:1.53676 186:3.93472 187:1.53622 188:3.93182 189:1.53767 190:2.8 191:3.8 192:-1.3 193:-0.4 194:1.8 195:3.8 196:1.8 197:3.8 198:1.8 
1.0 10:1.0 30:1.0 50:1.0 65:1.0 87:1.0 104:1.0 137:1.0 146:1.0 178:1.0 181:3.93871 182:3.93376 183:3.93061 184:5.18082 185:4.56278 186:4.98661 187:2.60411 188:0.0 189:2.57088 190:3.8 191:3.8 192:3.8 193:2.8 194:-3.2 195:-3.5 196:-0.7 197:-0.4 198:4.2 
1.0 8:1.0 28:1.0 59:1.0 66:1.0 84:1.0 110:1.0 125:1.0 146:1.0 178:1.0 181:3.92339 182:3.91915 183:6.01487 184:0.0 185:4.9893 186:3.93217 187:5.17762 188:0.0 189:2.57036 190:4.5 191:4.5 192:-0.9 193:-0.4 194:-3.5 195:3.8 196:2.8 197:-0.4 198:4.2 
1.0 10:1.0 30:1.0 46:1.0 77:1.0 85:1.0 117:1.0 139:1.0 157:1.0 170:1.0 181:3.93686 182:3.93662 183:0.0 184:2.61347 185:5.17721 186:2.61547 187:6.05836 188:2.6115 189:3.92366 190:3.8 191:3.8 192:-0.4 193:-0.7 194:2.8 195:-0.7 196:-0.9 197:-0.7 198:3.8 
1.0 20:1.0 30:1.0 43:1.0 74:1.0 98:1.0 113:1.0 125:1.0 156:1.0 178:1.0 181:6.56845 182:3.93391 183:3.61915 184:5.01676 185:2.62407 186:2.41391 187:5.17934 188:2.43665 189:2.57174 190:-1.3 191:3.8 192:-3.5 193:-3.5 194:4.2 195:-1.6 196:2.8 197:-0.8 198:4.2 
1.0 5:1.0 37:1.0 56:1.0 76:1.0 85:1.0 120:1.0 132:1.0 160:1.0 178:1.0 181:5.19466 182:2.61083 183:2.43607 184:2.4346 185:5.18521 186:6.55814 187:3.70433 188:6.52631 189:2.57126 190:2.8 191:-0.7 192:-0.8 193:-0.8 194:2.8 195:-1.3 196:-3.5 197:-1.3 198:4.2 
1.0 8:1.0 30:1.0 50:1.0 70:1.0 83:1.0 114:1.0 138:1.0 150:1.0 178:1.0 181:3.92346 182:3.93414 183:3.93218 184:3.93252 185:3.6827 186:5.01133 187:2.57209 188:3.93112 189:2.57011 190:4.5 191:3.8 192:3.8 193:3.8 194:-3.5 195:-3.5 196:4.2 197:3.8 198:4.2 
1.0 20:1.0 30:1.0 41:1.0 62:1.0 84:1.0 110:1.0 130:1.0 153:1.0 161:1.0 181:6.55556 182:3.93696 183:1.5353 184:2.77504 185:4.97944 186:3.93332 187:3.92352 188:2.40845 189:1.53749 190:-1.3 191:3.8 192:1.8 193:2.5 194:-3.5 195:3.8 196:3.8 197:-1.6 198:1.8 
1.0 20:1.0 30:1.0 45:1.0 80:1.0 85:1.0 110:1.0 127:1.0 159:1.0 170:1.0 181:6.54619 182:3.93349 183:5.17055 184:6.54385 185:5.20381 186:3.93515 187:4.47956 188:6.03158 189:3.92264 190:-1.3 191:3.8 192:2.8 193:-1.3 194:2.8 195:3.8 196:-3.2 197:-0.9 198:3.8 
1.0 5:1.0 38:1.0 45:1.0 75:1.0 96:1.0 113:1.0 125:1.0 148:1.0 178:1.0 181:5.19009 182:2.57493 183:5.17624 184:7.20331 185:2.43094 186:2.41336 187:5.18649 188:3.9179 189:2.57164 190:2.8 191:4.2 192:2.8 193:-4.5 194:-0.8 195:-1.6 196:2.8 197:4.5 198:4.2 
1.0 1:1.0 30:1.0 45:1.0 76:1.0 86:1.0 118:1.0 136:1.0 159:1.0 168:1.0 181:1.54045 182:3.93548 183:5.16562 184:2.43957 185:0.0 186:2.57347 187:2.43445 188:6.02636 189:3.91749 190:1.8 191:3.8 192:2.8 193:-0.8 194:-0.4 195:4.2 196:-0.8 197:-0.9 198:4.5 
1.0 6:1.0 28:1.0 50:1.0 77:1.0 98:1.0 118:1.0 139:1.0 157:1.0 161:1.0 181:0.0 182:3.92356 183:3.92925 184:2.60699 185:2.57763 186:2.57676 187:6.02442 188:2.60917 189:1.53772 190:-0.4 191:4.5 192:3.8 193:-0.7 194:4.2 195:4.2 196:-0.9 197:-0.7 198:1.8 
1.0 9:1.0 30:1.0 43:1.0 80:1.0 99:1.0 116:1.0 125:1.0 154:1.0 170:1.0 181:6.3924 182:3.93113 183:3.6465 184:6.50666 185:6.05655 186:2.43509 187:5.20509 188:5.01782 189:3.92338 190:-3.9 191:3.8 192:-3.5 193:-1.3 194:-0.9 195:-0.8 196:2.8 197:-3.5 198:3.8 
1.0 7:1.0 21:1.0 45:1.0 70:1.0 82:1.0 110:1.0 125:1.0 150:1.0 170:1.0 181:4.57009 182:1.5357 183:5.19623 184:3.93341 185:2.77272 186:3.93084 187:5.19226 188:3.93205 189:3.9244 190:-3.2 191:1.8 192:2.8 193:3.8 194:2.5 195:3.8 196:2.8 197:3.8 198:3.8 
1.0 14:1.0 30:1.0 52:1.0 63:1.0 100:1.0 104:1.0 134:1.0 150:1.0 170:1.0 181:5.01457 182:3.93541 183:3.70872 184:3.64517 185:6.55409 186:4.98369 187:5.02082 188:3.93226 189:3.92335 190:-3.5 191:3.8 192:-3.5 193:-3.5 194:-1.3 195:-3.5 196:-3.5 197:3.8 198:3.8 
1.0 9:1.0 30:1.0 50:1.0 70:1.0 99:1.0 105:1.0 132:1.0 160:1.0 170:1.0 181:6.39238 182:3.93391 183:3.93025 184:3.93178 185:6.03645 186:5.19102 187:3.69285 188:6.52416 189:3.92379 190:-3.9 191:3.8 192:3.8 193:3.8 194:-0.9 195:2.8 196:-3.5 197:-1.3 198:3.8 
1.0 6:1.0 30:1.0 41:1.0 61:1.0 84:1.0 116:1.0 125:1.0 146:1.0 170:1.0 181:0.0 182:3.93562 183:1.53605 184:1.53595 185:4.98347 186:2.43476 187:5.17838 188:0.0 189:3.92411 190:-0.4 191:3.8 192:1.8 193:1.8 194:-3.5 195:-0.8 196:2.8 197:-0.4 198:3.8 
1.0 16:1.0 30:1.0 60:1.0 61:1.0 98:1.0 117:1.0 137:1.0 141:1.0 178:1.0 181:2.43458 182:3.93192 183:6.54875 184:1.53664 185:2.57831 186:2.6088 187:2.61349 188:1.53663 189:2.57164 190:-0.8 191:3.8 192:-1.3 193:1.8 194:4.2 195:-0.7 196:-0.7 197:1.8 198:4.2 
1.0 16:1.0 30:1.0 49:1.0 64:1.0 95:1.0 108:1.0 123:1.0 151:1.0 170:1.0 181:2.43427 182:3.93514 183:6.38162 184:4.98388 185:7.29015 186:3.91857 187:3.64717 188:5.32603 189:3.92363 190:-0.8 191:3.8 192:-3.9 193:-3.5 194:-4.5 195:4.5 196:-3.5 197:1.9 198:3.8 
1.0 16:1.0 31:1.0 48:1.0 65:1.0 96:1.0 118:1.0 130:1.0 143:1.0 161:1.0 181:2.4334 182:5.32899 183:3.92069 184:5.1941 185:2.43577 186:2.57626 187:3.93309 188:3.67572 189:1.5385 190:-0.8 191:1.9 192:4.5 193:2.8 194:-0.8 195:4.2 196:3.8 197:-3.5 198:1.8 
1.0 1:1.0 30:1.0 50:1.0 66:1.0 86:1.0 110:1.0 135:1.0 153:1.0 178:1.0 181:1.54078 182:3.93292 183:3.93475 184:0.0 185:0.0 186:3.93643 187:7.2312 188:2.40937 189:2.56945 190:1.8 191:3.8 192:3.8 193:-0.4 194:-0.4 195:3.8 196:-4.5 197:-1.6 198:4.2 
1.0 20:1.0 31:1.0 50:1.0 76:1.0 99:1.0 106:1.0 129:1.0 144:1.0 161:1.0 181:6.55635 182:5.33542 183:3.93432 184:2.4323 185:6.03212 186:0.0 187:6.38973 188:4.9805 189:1.5374 190:-1.3 191:1.9 192:3.8 193:-0.8 194:-0.9 195:-0.4 196:-3.9 197:-3.5 198:1.8 
1.0 1:1.0 30:1.0 50:1.0 64:1.0 92:1.0 108:1.0 127:1.0 155:1.0 178:1.0 181:1.54023 182:3.93554 183:3.9317 184:4.98394 185:3.72764 186:3.91993 187:4.49189 188:7.30483 189:2.56709 190:1.8 191:3.8 192:3.8 193:-3.5 194:-3.5 195:4.5 196:-3.2 197:-4.5 198:4.2 
1.0 6:1.0 31:1.0 52:1.0 63:1.0 87:1.0 112:1.0 125:1.0 145:1.0 178:1.0 181:0.0 182:5.33187 183:3.71771 184:3.63173 185:4.47601 186:3.70392 187:5.18318 188:5.18975 189:2.57247 190:-0.4 191:1.9 192:-3.5 193:-3.5 194:-3.2 195:-3.5 196:2.8 197:2.8 198:4.2 
1.0 20:1.0 34:1.0 58:1.0 64:1.0 86:1.0 101:1.0 137:1.0 155:1.0 178:1.0 181:6.5598 182:5.03093 183:2.57392 184:4.98704 185:0.0 186:1.53664 187:2.61029 188:7.31177 189:2.56744 190:-1.3 191:-3.5 192:4.2 193:-3.5 194:-0.4 195:1.8 196:-0.7 197:-4.5 198:4.2 
1.0 19:1.0 38:1.0 59:1.0 63:1.0 97:1.0 119:1.0 133:1.0 150:1.0 161:1.0 181:6.07452 182:2.57525 183:6.03993 184:3.61389 185:2.61007 186:6.00945 187:2.41653 188:3.92947 189:1.53726 190:-0.9 191:4.2 192:-0.9 193:-3.5 194:-0.7 195:-0.9 196:-1.6 197:3.8 198:1.8 
1.0 15:1.0 30:1.0 46:1.0 73:1.0 94:1.0 106:1.0 139:1.0 155:1.0 178:1.0 181:7.27412 182:3.93895 183:0.0 184:2.41148 185:5.00432 186:0.0 187:6.03791 188:7.27158 189:2.56604 190:-4.5 191:3.8 192:-0.4 193:-1.6 194:-3.5 195:-0.4 196:-0.9 197:-4.5 198:4.2 
1.0 1:1.0 34:1.0 56:1.0 63:1.0 85:1.0 111:1.0 136:1.0 159:1.0 178:1.0 181:1.54049 182:5.01633 183:2.4364 184:3.63673 185:5.18232 186:5.33014 187:2.43547 188:6.05502 189:2.57398 190:1.8 191:-3.5 192:-0.8 193:-3.5 194:2.8 195:1.9 196:-0.8 197:-0.9 198:4.2 
1.0 5:1.0 30:1.0 41:1.0 63:1.0 89:1.0 109:1.0 131:1.0 157:1.0 170:1.0 181:5.18638 182:3.93476 183:1.53537 184:3.69637 185:6.38149 186:6.38449 187:5.3225 188:2.6071 189:3.92319 190:2.8 191:3.8 192:1.8 193:-3.5 194:-3.9 195:-3.9 196:1.9 197:-0.7 198:3.8 
1.0 8:1.0 30:1.0 50:1.0 76:1.0 82:1.0 108:1.0 127:1.0 157:1.0 177:1.0 181:3.92381 182:3.9332 183:3.93447 184:2.43528 185:2.77392 186:3.92302 187:4.48898 188:2.61386 189:2.59654 190:4.5 191:3.8 192:3.8 193:-0.8 194:2.5 195:4.5 196:-3.2 197:-0.7 198:-0.7 
1.0 1:1.0 30:1.0 60:1.0 66:1.0 99:1.0 117:1.0 138:1.0 150:1.0 178:1.0 181:1.5403 182:3.93164 183:6.51125 184:0.0 185:6.08175 186:2.60789 187:2.57227 188:3.93006 189:2.56991 190:1.8 191:3.8 192:-1.3 193:-0.4 194:-0.9 195:-0.7 196:4.2 197:3.8 198:4.2 
1.0 20:1.0 30:1.0 58:1.0 63:1.0 82:1.0 106:1.0 121:1.0 144:1.0 170:1.0 181:6.56568 182:3.93566 183:2.57172 184:3.64039 185:2.77544 186:0.0 187:1.53741 188:4.98227 189:3.92429 190:-1.3 191:3.8 192:4.2 193:-3.5 194:2.5 195:-0.4 196:1.8 197:-3.5 198:3.8 
1.0 18:1.0 30:1.0 52:1.0 64:1.0 97:1.0 117:1.0 132:1.0 159:1.0 170:1.0 181:2.58648 182:3.93435 183:3.70919 184:4.97726 185:2.60998 186:2.61651 187:3.71188 188:6.0077 189:3.92172 190:4.2 191:3.8 192:-3.5 193:-3.5 194:-0.7 195:-0.7 196:-3.5 197:-0.9 198:3.8 
