svm_type c_svc
kernel_type rbf
gamma 0.005050505050505051
nr_class 2
total_sv 2111
rho 3.139543988198928
label 1 -1
nr_sv 1009 1102
SV
1.0 9:1.0 30:1.0 45:1.0 65:1.0 81:1.0 109:1.0 122:1.0 150:1.0 178:1.0 181:6.39143 182:3.93274 183:5.17548 184:5.19496 185:1.53574 186:6.39007 187:2.76906 188:3.93027 189:2.56977 190:-3.9 191:3.8 192:2.8 193:2.8 194:1.8 195:-3.9 196:2.5 197:3.8 198:4.2 
1.0 1:1.0 31:1.0 51:1.0 79:1.0 95:1.0 108:1.0 121:1.0 154:1.0 170:1.0 181:1.54062 182:5.33153 183:5.32463 184:6.03048 185:7.26468 186:3.92434 187:1.53634 188:5.01207 189:3.92457 190:1.8 191:1.9 192:1.9 193:-0.9 194:-4.5 195:4.5 196:1.8 197:-3.5 198:3.8 
1.0 20:1.0 36:1.0 43:1.0 66:1.0 92:1.0 110:1.0 127:1.0 150:1.0 170:1.0 181:6.56477 182:2.43933 183:3.69087 184:0.0 185:3.73283 186:3.93352 187:4.48511 188:3.92949 189:3.92247 190:-1.3 191:-0.8 192:-3.5 193:-0.4 194:-3.5 195:3.8 196:-3.2 197:3.8 198:3.8 
1.0 20:1.0 31:1.0 56:1.0 65:1.0 99:1.0 102:1.0 129:1.0 156:1.0 168:1.0 181:6.53963 182:5.33624 183:2.43393 184:5.19077 185:6.03721 186:2.77313 187:6.3901 188:2.43539 189:3.91668 190:-1.3 191:1.9 192:-0.8 193:2.8 194:-0.9 195:2.5 196:-3.9 197:-0.8 198:4.5 
1.0 5:1.0 30:1.0 54:1.0 73:1.0 97:1.0 101:1.0 123:1.0 150:1.0 170:1.0 181:5.19935 182:3.93438 183:5.01688 184:2.41551 185:2.61449 186:1.53658 187:3.66352 188:3.93197 189:3.92406 190:2.8 191:3.8 192:-3.5 193:-1.6 194:-0.7 195:1.8 196:-3.5 197:3.8 198:3.8 
1.0 6:1.0 30:1.0 41:1.0 73:1.0 96:1.0 118:1.0 130:1.0 152:1.0 170:1.0 181:0.0 182:3.93571 183:1.5379 184:2.41282 185:2.43256 186:2.57749 187:3.93219 188:3.72939 189:3.92414 190:-0.4 191:3.8 192:1.8 193:-1.6 194:-0.8 195:4.2 196:3.8 197:-3.5 198:3.8 
1.0 1:1.0 30:1.0 58:1.0 66:1.0 90:1.0 105:1.0 138:1.0 150:1.0 170:1.0 181:1.54025 182:3.93307 183:2.57298 184:0.0 185:3.93666 186:5.1929 187:2.57434 188:3.9325 189:3.92315 190:1.8 191:3.8 192:4.2 193:-0.4 194:3.8 195:2.8 196:4.2 197:3.8 198:3.8 
1.0 10:1.0 30:1.0 41:1.0 63:1.0 86:1.0 110:1.0 121:1.0 149:1.0 161:1.0 181:3.93741 182:3.93609 183:1.53573 184:3.71002 185:0.0 186:3.93681 187:1.53534 188:6.38308 189:1.53776 190:3.8 191:3.8 192:1.8 193:-3.5 194:-0.4 195:3.8 196:1.8 197:-3.9 198:1.8 
1.0 10:1.0 30:1.0 45:1.0 65:1.0 90:1.0 101:1.0 130:1.0 156:1.0 168:1.0 181:3.93856 182:3.93368 183:5.18532 184:5.18687 185:3.93322 186:1.53509 187:3.9366 188:2.43558 189:3.91906 190:3.8 191:3.8 192:2.8 193:2.8 194:3.8 195:1.8 196:3.8 197:-0.8 198:4.5 
1.0 15:1.0 37:1.0 41:1.0 79:1.0 99:1.0 118:1.0 139:1.0 142:1.0 178:1.0 181:7.26214 182:2.60671 183:1.53664 184:6.02675 185:6.03313 186:2.57436 187:6.04269 188:2.76754 189:2.56905 190:-4.5 191:-0.7 192:1.8 193:-0.9 194:-0.9 195:4.2 196:-0.9 197:2.5 198:4.2 
1.0 10:1.0 31:1.0 57:1.0 61:1.0 88:1.0 116:1.0 134:1.0 146:1.0 168:1.0 181:3.94083 182:5.32382 183:2.60575 184:1.53692 185:3.91913 186:2.43364 187:5.00895 188:0.0 189:3.91474 190:3.8 191:1.9 192:-0.7 193:1.8 194:4.5 195:-0.8 196:-3.5 197:-0.4 198:4.5 
1.0 19:1.0 30:1.0 50:1.0 66:1.0 85:1.0 108:1.0 129:1.0 142:1.0 168:1.0 181:6.06193 182:3.93167 183:3.93528 184:0.0 185:5.20977 186:3.9224 187:6.38667 188:2.77065 189:3.91468 190:-0.9 191:3.8 192:3.8 193:-0.4 194:2.8 195:4.5 196:-3.9 197:2.5 198:4.5 
1.0 10:1.0 38:1.0 48:1.0 77:1.0 88:1.0 112:1.0 140:1.0 145:1.0 170:1.0 181:3.94009 182:2.57197 183:3.92446 184:2.61029 185:3.91853 186:3.71494 187:6.53052 188:5.19891 189:3.92416 190:3.8 191:4.2 192:4.5 193:-0.7 194:4.5 195:-3.5 196:-1.3 197:2.8 198:3.8 
1.0 5:1.0 37:1.0 48:1.0 66:1.0 92:1.0 111:1.0 125:1.0 156:1.0 170:1.0 181:5.20709 182:2.60746 183:3.92045 184:0.0 185:3.7355 186:5.3219 187:5.18784 188:2.43621 189:3.92472 190:2.8 191:-0.7 192:4.5 193:-0.4 194:-3.5 195:1.9 196:2.8 197:-0.8 198:3.8 
1.0 6:1.0 31:1.0 53:1.0 72:1.0 99:1.0 102:1.0 138:1.0 156:1.0 168:1.0 181:0.0 182:5.32749 183:2.41236 184:3.73086 185:6.0123 186:2.77125 187:2.57097 188:2.43853 189:3.9129 190:-0.4 191:1.9 192:-1.6 193:-3.5 194:-0.9 195:2.5 196:4.2 197:-0.8 198:4.5 
1.0 17:1.0 37:1.0 59:1.0 64:1.0 83:1.0 118:1.0 133:1.0 160:1.0 170:1.0 181:2.53154 182:2.60966 183:6.02146 184:4.97741 185:3.68356 186:2.62416 187:2.41315 188:6.5069 189:3.92148 190:-0.7 191:-0.7 192:-0.9 193:-3.5 194:-3.5 195:4.2 196:-1.6 197:-1.3 198:3.8 
1.0 10:1.0 30:1.0 48:1.0 70:1.0 82:1.0 118:1.0 137:1.0 154:1.0 178:1.0 181:3.93982 182:3.93541 183:3.91875 184:3.93483 185:2.77082 186:2.57759 187:2.60971 188:5.00178 189:2.56887 190:3.8 191:3.8 192:4.5 193:3.8 194:2.5 195:4.2 196:-0.7 197:-3.5 198:4.2 
1.0 15:1.0 30:1.0 51:1.0 72:1.0 83:1.0 119:1.0 121:1.0 144:1.0 178:1.0 181:7.28939 182:3.93296 183:5.331 184:3.71673 185:3.64025 186:6.03994 187:1.53516 188:4.98763 189:2.57064 190:-4.5 191:3.8 192:1.9 193:-3.5 194:-3.5 195:-0.9 196:1.8 197:-3.5 198:4.2 
1.0 18:1.0 30:1.0 50:1.0 64:1.0 89:1.0 101:1.0 133:1.0 153:1.0 170:1.0 181:2.58783 182:3.93435 183:3.93197 184:4.98313 185:6.38486 186:1.53678 187:2.41046 188:2.40404 189:3.92477 190:4.2 191:3.8 192:3.8 193:-3.5 194:-3.9 195:1.8 196:-1.6 197:-1.6 198:3.8 
1.0 6:1.0 30:1.0 50:1.0 66:1.0 92:1.0 118:1.0 136:1.0 157:1.0 178:1.0 181:0.0 182:3.93309 183:3.93604 184:0.0 185:3.72902 186:2.57563 187:2.43294 188:2.61089 189:2.57018 190:-0.4 191:3.8 192:3.8 193:-0.4 194:-3.5 195:4.2 196:-0.8 197:-0.7 198:4.2 
1.0 18:1.0 28:1.0 41:1.0 63:1.0 100:1.0 112:1.0 140:1.0 149:1.0 170:1.0 181:2.58719 182:3.92272 183:1.53635 184:3.64632 185:6.53742 186:3.71365 187:6.55597 188:6.3862 189:3.92357 190:4.2 191:4.5 192:1.8 193:-3.5 194:-1.3 195:-3.5 196:-1.3 197:-3.9 198:3.8 
1.0 5:1.0 30:1.0 58:1.0 76:1.0 94:1.0 110:1.0 125:1.0 157:1.0 165:1.0 181:5.20759 182:3.93432 183:2.57263 184:2.43615 185:5.01512 186:3.93216 187:5.17062 188:2.61331 189:5.20374 190:2.8 191:3.8 192:4.2 193:-0.8 194:-3.5 195:3.8 196:2.8 197:-0.7 198:2.8 
1.0 20:1.0 30:1.0 45:1.0 80:1.0 100:1.0 115:1.0 129:1.0 156:1.0 178:1.0 181:6.54559 182:3.93402 183:5.17188 184:6.54335 185:6.55433 186:7.26754 187:6.38697 188:2.43311 189:2.57288 190:-1.3 191:3.8 192:2.8 193:-1.3 194:-1.3 195:-4.5 196:-3.9 197:-0.8 198:4.2 
1.0 1:1.0 30:1.0 52:1.0 68:1.0 81:1.0 110:1.0 128:1.0 141:1.0 178:1.0 181:1.54046 182:3.9359 183:3.72707 184:3.92164 185:1.53622 186:3.9346 187:3.91864 188:1.53613 189:2.56986 190:1.8 191:3.8 192:-3.5 193:4.5 194:1.8 195:3.8 196:4.5 197:1.8 198:4.2 
1.0 20:1.0 30:1.0 53:1.0 61:1.0 88:1.0 118:1.0 135:1.0 144:1.0 161:1.0 181:6.5155 182:3.92888 183:2.4139 184:1.53626 185:3.92124 186:2.57691 187:7.29825 188:4.97551 189:1.53818 190:-1.3 191:3.8 192:-1.6 193:1.8 194:4.5 195:4.2 196:-4.5 197:-3.5 198:1.8 
1.0 5:1.0 30:1.0 50:1.0 77:1.0 96:1.0 110:1.0 135:1.0 155:1.0 161:1.0 181:5.20595 182:3.93492 183:3.92851 184:2.60688 185:2.43667 186:3.93438 187:7.27663 188:7.30673 189:1.5375 190:2.8 191:3.8 192:3.8 193:-0.7 194:-0.8 195:3.8 196:-4.5 197:-4.5 198:1.8 
1.0 20:1.0 30:1.0 56:1.0 73:1.0 86:1.0 113:1.0 138:1.0 157:1.0 178:1.0 181:6.54402 182:3.93531 183:2.43113 184:2.41709 185:0.0 186:2.41551 187:2.57804 188:2.61169 189:2.56959 190:-1.3 191:3.8 192:-0.8 193:-1.6 194:-0.4 195:-1.6 196:4.2 197:-0.7 198:4.2 
1.0 16:1.0 30:1.0 60:1.0 69:1.0 86:1.0 118:1.0 140:1.0 144:1.0 170:1.0 181:2.43478 182:3.93394 183:6.47536 184:6.38353 185:0.0 186:2.57681 187:6.55356 188:4.98606 189:3.9254 190:-0.8 191:3.8 192:-1.3 193:-3.9 194:-0.4 195:4.2 196:-1.3 197:-3.5 198:3.8 
1.0 15:1.0 30:1.0 41:1.0 75:1.0 82:1.0 110:1.0 137:1.0 153:1.0 161:1.0 181:7.28663 182:3.93557 183:1.53714 184:7.29276 185:2.77121 186:3.93089 187:2.52767 188:2.40752 189:1.53818 190:-4.5 191:3.8 192:1.8 193:-4.5 194:2.5 195:3.8 196:-0.7 197:-1.6 198:1.8 
1.0 10:1.0 31:1.0 51:1.0 71:1.0 90:1.0 113:1.0 121:1.0 157:1.0 170:1.0 181:3.93943 182:5.3346 183:5.3212 184:5.3358 185:3.9265 186:2.41301 187:1.5362 188:2.61586 189:3.92319 190:3.8 191:1.9 192:1.9 193:1.9 194:3.8 195:-1.6 196:1.8 197:-0.7 198:3.8 
1.0 17:1.0 30:1.0 57:1.0 61:1.0 81:1.0 110:1.0 125:1.0 150:1.0 170:1.0 181:2.53451 182:3.93165 183:2.60779 184:1.53706 185:1.53625 186:3.93262 187:5.18902 188:3.93012 189:3.92409 190:-0.7 191:3.8 192:-0.7 193:1.8 194:1.8 195:3.8 196:2.8 197:3.8 198:3.8 
1.0 6:1.0 30:1.0 50:1.0 63:1.0 98:1.0 117:1.0 123:1.0 152:1.0 178:1.0 181:0.0 182:3.93551 183:3.93182 184:3.68095 185:2.5797 186:2.60687 187:3.67552 188:3.70074 189:2.57336 190:-0.4 191:3.8 192:3.8 193:-3.5 194:4.2 195:-0.7 196:-3.5 197:-3.5 198:4.2 
1.0 6:1.0 30:1.0 48:1.0 80:1.0 97:1.0 120:1.0 136:1.0 146:1.0 170:1.0 181:0.0 182:3.93549 183:3.92469 184:6.51457 185:2.61476 186:6.48013 187:2.43566 188:0.0 189:3.92619 190:-0.4 191:3.8 192:4.5 193:-1.3 194:-0.7 195:-1.3 196:-0.8 197:-0.4 198:3.8 
1.0 5:1.0 30:1.0 53:1.0 73:1.0 94:1.0 108:1.0 133:1.0 158:1.0 168:1.0 181:5.20024 182:3.92961 183:2.41404 184:2.4109 185:4.99896 186:3.90739 187:2.41333 188:2.57715 189:3.9106 190:2.8 191:3.8 192:-1.6 193:-1.6 194:-3.5 195:4.5 196:-1.6 197:4.2 198:4.5 
1.0 18:1.0 31:1.0 41:1.0 78:1.0 86:1.0 110:1.0 138:1.0 156:1.0 168:1.0 181:2.58746 182:5.33107 183:1.53515 184:2.57515 185:0.0 186:3.93768 187:2.57139 188:2.43824 189:3.91465 190:4.2 191:1.9 192:1.8 193:4.2 194:-0.4 195:3.8 196:4.2 197:-0.8 198:4.5 
1.0 20:1.0 31:1.0 45:1.0 65:1.0 98:1.0 108:1.0 129:1.0 152:1.0 170:1.0 181:6.55272 182:5.33347 183:5.18937 184:5.20017 185:2.57325 186:3.92243 187:6.38424 188:3.73009 189:3.9238 190:-1.3 191:1.9 192:2.8 193:2.8 194:4.2 195:4.5 196:-3.9 197:-3.5 198:3.8 
1.0 18:1.0 30:1.0 43:1.0 64:1.0 93:1.0 116:1.0 128:1.0 146:1.0 170:1.0 181:2.58863 182:3.93445 183:3.70237 184:4.96973 185:2.40939 186:2.43293 187:3.91751 188:0.0 189:3.92415 190:4.2 191:3.8 192:-3.5 193:-3.5 194:-1.6 195:-0.8 196:4.5 197:-0.4 198:3.8 
0.6668960142951263 18:1.0 30:1.0 42:1.0 73:1.0 100:1.0 111:1.0 133:1.0 149:1.0 178:1.0 181:2.58855 182:3.93346 183:2.7566 184:2.41881 185:6.51598 186:5.31467 187:2.42345 188:6.3661 189:2.57153 190:4.2 191:3.8 192:2.5 193:-1.6 194:-1.3 195:1.9 196:-1.6 197:-3.9 198:4.2 
1.0 19:1.0 30:1.0 49:1.0 66:1.0 92:1.0 108:1.0 136:1.0 153:1.0 178:1.0 181:6.04712 182:3.93146 183:6.39461 184:0.0 185:3.71921 186:3.92462 187:2.43183 188:2.41289 189:2.57043 190:-0.9 191:3.8 192:-3.9 193:-0.4 194:-3.5 195:4.5 196:-0.8 197:-1.6 198:4.2 
1.0 16:1.0 30:1.0 41:1.0 80:1.0 92:1.0 109:1.0 125:1.0 160:1.0 168:1.0 181:2.43379 182:3.93494 183:1.5358 184:6.5606 185:3.73062 186:6.38946 187:5.17913 188:6.51916 189:3.91527 190:-0.8 191:3.8 192:1.8 193:-1.3 194:-3.5 195:-3.9 196:2.8 197:-1.3 198:4.5 
1.0 11:1.0 28:1.0 50:1.0 78:1.0 93:1.0 110:1.0 128:1.0 157:1.0 178:1.0 181:5.3364 182:3.92329 183:3.93144 184:2.62487 185:2.41541 186:3.93364 187:3.91676 188:2.6097 189:2.56968 190:1.9 191:4.5 192:3.8 193:4.2 194:-1.6 195:3.8 196:4.5 197:-0.7 198:4.2 
1.0 6:1.0 30:1.0 54:1.0 63:1.0 82:1.0 117:1.0 131:1.0 150:1.0 178:1.0 181:0.0 182:3.93661 183:5.01333 184:3.68341 185:2.76753 186:2.60961 187:5.32191 188:3.92957 189:2.57024 190:-0.4 191:3.8 192:-3.5 193:-3.5 194:2.5 195:-0.7 196:1.9 197:3.8 198:4.2 
1.0 20:1.0 30:1.0 52:1.0 77:1.0 93:1.0 106:1.0 130:1.0 153:1.0 178:1.0 181:6.54025 182:3.93582 183:3.72703 184:2.53821 185:2.41156 186:0.0 187:3.92744 188:2.41044 189:2.56984 190:-1.3 191:3.8 192:-3.5 193:-0.7 194:-1.6 195:-0.4 196:3.8 197:-1.6 198:4.2 
1.0 1:1.0 30:1.0 53:1.0 64:1.0 83:1.0 120:1.0 123:1.0 155:1.0 178:1.0 181:1.54056 182:3.92804 183:2.41079 184:4.97191 185:3.6454 186:6.5425 187:3.67975 188:7.2809 189:2.56523 190:1.8 191:3.8 192:-1.6 193:-3.5 194:-3.5 195:-1.3 196:-3.5 197:-4.5 198:4.2 
1.0 7:1.0 30:1.0 43:1.0 65:1.0 99:1.0 107:1.0 127:1.0 144:1.0 178:1.0 181:4.52587 182:3.93095 183:3.62995 184:5.18035 185:6.05295 186:4.48992 187:4.50018 188:4.98489 189:2.56991 190:-3.2 191:3.8 192:-3.5 193:2.8 194:-0.9 195:-3.2 196:-3.2 197:-3.5 198:4.2 
1.0 6:1.0 30:1.0 48:1.0 64:1.0 84:1.0 111:1.0 121:1.0 156:1.0 161:1.0 181:0.0 182:3.93609 183:3.91859 184:4.98253 185:4.98183 186:5.3285 187:1.53674 188:2.438 189:1.53765 190:-0.4 191:3.8 192:4.5 193:-3.5 194:-3.5 195:1.9 196:1.8 197:-0.8 198:1.8 
1.0 15:1.0 30:1.0 52:1.0 72:1.0 95:1.0 113:1.0 128:1.0 141:1.0 178:1.0 181:7.28409 182:3.93278 183:3.71371 184:3.74679 185:7.21871 186:2.41035 187:3.91584 188:1.53632 189:2.56993 190:-4.5 191:3.8 192:-3.5 193:-3.5 194:-4.5 195:-1.6 196:4.5 197:1.8 198:4.2 
1.0 5:1.0 37:1.0 41:1.0 69:1.0 88:1.0 112:1.0 124:1.0 151:1.0 178:1.0 181:5.19387 182:2.6111 183:1.5364 184:6.3843 185:3.91962 186:3.71419 187:4.98093 188:5.32574 189:2.56902 190:2.8 191:-0.7 192:1.8 193:-3.9 194:4.5 195:-3.5 196:-3.5 197:1.9 198:4.2 
1.0 5:1.0 31:1.0 60:1.0 77:1.0 89:1.0 107:1.0 136:1.0 151:1.0 170:1.0 181:5.19457 182:5.33241 183:6.53605 184:2.61242 185:6.38639 186:4.49211 187:2.43361 188:5.32895 189:3.92321 190:2.8 191:1.9 192:-1.3 193:-0.7 194:-3.9 195:-3.2 196:-0.8 197:1.9 198:3.8 
1.0 20:1.0 34:1.0 42:1.0 66:1.0 87:1.0 120:1.0 137:1.0 147:1.0 168:1.0 181:6.56129 182:5.02088 183:2.78054 184:0.0 185:4.53647 186:6.55489 187:2.60483 188:4.48119 189:3.91486 190:-1.3 191:-3.5 192:2.5 193:-0.4 194:-3.2 195:-1.3 196:-0.7 197:-3.2 198:4.5 
0.2151595111631645 5:1.0 38:1.0 48:1.0 66:1.0 86:1.0 111:1.0 137:1.0 146:1.0 178:1.0 181:5.20759 182:2.57416 183:3.91981 184:0.0 185:0.0 186:5.32547 187:2.60632 188:0.0 189:2.56959 190:2.8 191:4.2 192:4.5 193:-0.4 194:-0.4 195:1.9 196:-0.7 197:-0.4 198:4.2 
1.0 6:1.0 30:1.0 45:1.0 68:1.0 100:1.0 108:1.0 133:1.0 146:1.0 177:1.0 181:0.0 182:3.93592 183:5.172 184:3.92116 185:6.48701 186:3.90883 187:2.4127 188:0.0 189:2.60244 190:-0.4 191:3.8 192:2.8 193:4.5 194:-1.3 195:4.5 196:-1.6 197:-0.4 198:-0.7 
1.0 16:1.0 28:1.0 58:1.0 61:1.0 100:1.0 117:1.0 131:1.0 156:1.0 170:1.0 181:2.43463 182:3.92245 183:2.57688 184:1.53657 185:6.53782 186:2.60984 187:5.32399 188:2.43535 189:3.9245 190:-0.8 191:4.5 192:4.2 193:1.8 194:-1.3 195:-0.7 196:1.9 197:-0.8 198:3.8 
1.0 8:1.0 31:1.0 43:1.0 74:1.0 98:1.0 113:1.0 125:1.0 156:1.0 178:1.0 181:3.92265 182:5.32774 183:3.64243 184:5.01312 185:2.62442 186:2.41531 187:5.17807 188:2.438 189:2.57311 190:4.5 191:1.9 192:-3.5 193:-3.5 194:4.2 195:-1.6 196:2.8 197:-0.8 198:4.2 
1.0 18:1.0 30:1.0 50:1.0 72:1.0 81:1.0 113:1.0 136:1.0 144:1.0 161:1.0 181:2.58758 182:3.93221 183:3.93305 184:3.75021 185:1.53848 186:2.40782 187:2.43723 188:4.98079 189:1.53749 190:4.2 191:3.8 192:3.8 193:-3.5 194:1.8 195:-1.6 196:-0.8 197:-3.5 198:1.8 
1.0 5:1.0 38:1.0 41:1.0 78:1.0 87:1.0 113:1.0 138:1.0 143:1.0 178:1.0 181:5.19138 182:2.57494 183:1.53502 184:2.57641 185:4.74 186:2.41335 187:2.57582 188:3.69818 189:2.5766 190:2.8 191:4.2 192:1.8 193:4.2 194:-3.2 195:-1.6 196:4.2 197:-3.5 198:4.2 
1.0 9:1.0 30:1.0 48:1.0 77:1.0 94:1.0 113:1.0 130:1.0 153:1.0 161:1.0 181:6.39326 182:3.93315 183:3.92363 184:2.61076 185:5.0134 186:2.41792 187:3.92535 188:2.40909 189:1.53714 190:-3.9 191:3.8 192:4.5 193:-0.7 194:-3.5 195:-1.6 196:3.8 197:-1.6 198:1.8 
1.0 1:1.0 31:1.0 47:1.0 61:1.0 95:1.0 111:1.0 121:1.0 141:1.0 178:1.0 181:1.54086 182:5.32995 183:4.48274 184:1.5372 185:7.29228 186:5.32756 187:1.53636 188:1.53652 189:2.5694 190:1.8 191:1.9 192:-3.2 193:1.8 194:-4.5 195:1.9 196:1.8 197:1.8 198:4.2 
1.0 5:1.0 38:1.0 41:1.0 75:1.0 98:1.0 105:1.0 130:1.0 146:1.0 170:1.0 181:5.19256 182:2.57539 183:1.53577 184:7.29458 185:2.57534 186:5.15839 187:3.93202 188:0.0 189:3.92489 190:2.8 191:4.2 192:1.8 193:-4.5 194:4.2 195:2.8 196:3.8 197:-0.4 198:3.8 
1.0 16:1.0 30:1.0 48:1.0 73:1.0 83:1.0 101:1.0 137:1.0 147:1.0 170:1.0 181:2.43574 182:3.93306 183:3.9071 184:2.41338 185:3.65369 186:1.53708 187:2.61146 188:4.49474 189:3.92303 190:-0.8 191:3.8 192:4.5 193:-1.6 194:-3.5 195:1.8 196:-0.7 197:-3.2 198:3.8 
1.0 9:1.0 30:1.0 56:1.0 71:1.0 86:1.0 110:1.0 128:1.0 141:1.0 168:1.0 181:6.39145 182:3.93586 183:2.43449 184:5.33174 185:0.0 186:3.93652 187:3.91908 188:1.53629 189:3.91367 190:-3.9 191:3.8 192:-0.8 193:1.9 194:-0.4 195:3.8 196:4.5 197:1.8 198:4.5 
1.0 14:1.0 30:1.0 45:1.0 73:1.0 86:1.0 110:1.0 121:1.0 141:1.0 170:1.0 181:5.01875 182:3.93277 183:5.19989 184:2.41349 185:0.0 186:3.93865 187:1.53501 188:1.53714 189:3.92551 190:-3.5 191:3.8 192:2.8 193:-1.6 194:-0.4 195:3.8 196:1.8 197:1.8 198:3.8 
1.0 18:1.0 30:1.0 56:1.0 63:1.0 83:1.0 110:1.0 130:1.0 144:1.0 178:1.0 181:2.58689 182:3.93704 183:2.43755 184:3.65124 185:3.63244 186:3.93187 187:3.93392 188:4.98098 189:2.57034 190:4.2 191:3.8 192:-0.8 193:-3.5 194:-3.5 195:3.8 196:3.8 197:-3.5 198:4.2 
1.0 10:1.0 30:1.0 41:1.0 61:1.0 86:1.0 101:1.0 123:1.0 144:1.0 178:1.0 181:3.93794 182:3.93498 183:1.5363 184:1.53779 185:0.0 186:1.53729 187:3.68387 188:4.9798 189:2.56975 190:3.8 191:3.8 192:1.8 193:1.8 194:-0.4 195:1.8 196:-3.5 197:-3.5 198:4.2 
1.0 10:1.0 28:1.0 58:1.0 61:1.0 81:1.0 110:1.0 138:1.0 145:1.0 170:1.0 181:3.94072 182:3.92171 183:2.57561 184:1.53704 185:1.53671 186:3.93363 187:2.5757 188:5.18877 189:3.92251 190:3.8 191:4.5 192:4.2 193:1.8 194:1.8 195:3.8 196:4.2 197:2.8 198:3.8 
1.0 5:1.0 30:1.0 48:1.0 63:1.0 86:1.0 113:1.0 124:1.0 157:1.0 161:1.0 181:5.21271 182:3.9331 183:3.92222 184:3.72526 185:0.0 186:2.41092 187:4.97638 188:2.61004 189:1.53769 190:2.8 191:3.8 192:4.5 193:-3.5 194:-0.4 195:-1.6 196:-3.5 197:-0.7 198:1.8 
1.0 6:1.0 30:1.0 43:1.0 73:1.0 97:1.0 106:1.0 138:1.0 141:1.0 178:1.0 181:0.0 182:3.93251 183:3.69377 184:2.41188 185:2.61184 186:0.0 187:2.5765 188:1.53548 189:2.57139 190:-0.4 191:3.8 192:-3.5 193:-1.6 194:-0.7 195:-0.4 196:4.2 197:1.8 198:4.2 
1.0 19:1.0 31:1.0 50:1.0 66:1.0 97:1.0 106:1.0 138:1.0 160:1.0 170:1.0 181:6.05822 182:5.32675 183:3.93495 184:0.0 185:2.6108 186:0.0 187:2.57685 188:6.51755 189:3.92126 190:-0.9 191:1.9 192:3.8 193:-0.4 194:-0.7 195:-0.4 196:4.2 197:-1.3 198:3.8 
1.0 19:1.0 30:1.0 46:1.0 72:1.0 88:1.0 108:1.0 131:1.0 160:1.0 161:1.0 181:6.0506 182:3.9324 183:0.0 184:3.73013 185:3.91944 186:3.92259 187:5.32451 188:6.51163 189:1.53763 190:-0.9 191:3.8 192:-0.4 193:-3.5 194:4.5 195:4.5 196:1.9 197:-1.3 198:1.8 
1.0 15:1.0 30:1.0 53:1.0 67:1.0 88:1.0 102:1.0 140:1.0 153:1.0 178:1.0 181:7.24189 182:3.92796 183:2.41451 184:4.47248 185:3.91971 186:2.76913 187:6.51895 188:2.40996 189:2.57115 190:-4.5 191:3.8 192:-1.6 193:-3.2 194:4.5 195:2.5 196:-1.3 197:-1.6 198:4.2 
1.0 20:1.0 37:1.0 41:1.0 70:1.0 87:1.0 120:1.0 140:1.0 160:1.0 170:1.0 181:6.5438 182:2.6096 183:1.53563 184:3.93528 185:4.47892 186:6.53861 187:6.53778 188:6.53438 189:3.92298 190:-1.3 191:-0.7 192:1.8 193:3.8 194:-3.2 195:-1.3 196:-1.3 197:-1.3 198:3.8 
1.0 1:1.0 30:1.0 51:1.0 63:1.0 89:1.0 116:1.0 130:1.0 147:1.0 178:1.0 181:1.54006 182:3.93661 183:5.32495 184:3.6708 185:6.38214 186:2.43445 187:3.934 188:4.48707 189:2.57304 190:1.8 191:3.8 192:1.9 193:-3.5 194:-3.9 195:-0.8 196:3.8 197:-3.2 198:4.2 
1.0 20:1.0 30:1.0 46:1.0 64:1.0 98:1.0 110:1.0 138:1.0 156:1.0 178:1.0 181:6.48557 182:3.93112 183:0.0 184:4.98952 185:2.57309 186:3.93478 187:2.57221 188:2.43658 189:2.57137 190:-1.3 191:3.8 192:-0.4 193:-3.5 194:4.2 195:3.8 196:4.2 197:-0.8 198:4.2 
1.0 11:1.0 38:1.0 50:1.0 61:1.0 85:1.0 108:1.0 137:1.0 145:1.0 170:1.0 181:5.33803 182:2.57359 183:3.93375 184:1.53625 185:5.2258 186:3.92708 187:2.60365 188:5.18149 189:3.92366 190:1.9 191:4.2 192:3.8 193:1.8 194:2.8 195:4.5 196:-0.7 197:2.8 198:3.8 
1.0 20:1.0 30:1.0 60:1.0 73:1.0 86:1.0 113:1.0 138:1.0 157:1.0 161:1.0 181:6.56456 182:3.9341 183:6.52163 184:2.41614 185:0.0 186:2.41541 187:2.57737 188:2.61171 189:1.53753 190:-1.3 191:3.8 192:-1.3 193:-1.6 194:-0.4 195:-1.6 196:4.2 197:-0.7 198:1.8 
1.0 20:1.0 30:1.0 49:1.0 68:1.0 86:1.0 117:1.0 130:1.0 150:1.0 178:1.0 181:6.5567 182:3.93667 183:6.38369 184:3.92219 185:0.0 186:2.61206 187:3.93266 188:3.93057 189:2.57038 190:-1.3 191:3.8 192:-3.9 193:4.5 194:-0.4 195:-0.7 196:3.8 197:3.8 198:4.2 
1.0 20:1.0 30:1.0 55:1.0 70:1.0 100:1.0 108:1.0 128:1.0 150:1.0 161:1.0 181:6.55042 182:3.93696 183:7.25696 184:3.93192 185:6.55577 186:3.92375 187:3.92439 188:3.93094 189:1.53772 190:-1.3 191:3.8 192:-4.5 193:3.8 194:-1.3 195:4.5 196:4.5 197:3.8 198:1.8 
1.0 10:1.0 30:1.0 50:1.0 61:1.0 86:1.0 117:1.0 133:1.0 141:1.0 178:1.0 181:3.93819 182:3.93287 183:3.92888 184:1.53738 185:0.0 186:2.5354 187:2.40802 188:1.53718 189:2.57215 190:3.8 191:3.8 192:3.8 193:1.8 194:-0.4 195:-0.7 196:-1.6 197:1.8 198:4.2 
1.0 2:1.0 31:1.0 56:1.0 61:1.0 92:1.0 104:1.0 121:1.0 141:1.0 168:1.0 181:2.78495 182:5.3288 183:2.4345 184:1.5369 185:3.71729 186:4.98212 187:1.53623 188:1.53701 189:3.91304 190:2.5 191:1.9 192:-0.8 193:1.8 194:-3.5 195:-3.5 196:1.8 197:1.8 198:4.5 
1.0 9:1.0 30:1.0 48:1.0 64:1.0 93:1.0 118:1.0 132:1.0 141:1.0 168:1.0 181:6.38826 182:3.93454 183:3.92182 184:4.96795 185:2.41255 186:2.5785 187:3.73308 188:1.53662 189:3.91235 190:-3.9 191:3.8 192:4.5 193:-3.5 194:-1.6 195:4.2 196:-3.5 197:1.8 198:4.5 
1.0 16:1.0 30:1.0 50:1.0 80:1.0 90:1.0 108:1.0 130:1.0 145:1.0 170:1.0 181:2.43369 182:3.9338 183:3.93075 184:6.55689 185:3.93407 186:3.92398 187:3.93026 188:5.18966 189:3.92304 190:-0.8 191:3.8 192:3.8 193:-1.3 194:3.8 195:4.5 196:3.8 197:2.8 198:3.8 
1.0 10:1.0 30:1.0 57:1.0 65:1.0 99:1.0 112:1.0 133:1.0 153:1.0 178:1.0 181:3.94008 182:3.93123 183:2.6074 184:5.17113 185:5.99063 186:3.7169 187:2.41525 188:2.40529 189:2.57114 190:3.8 191:3.8 192:-0.7 193:2.8 194:-0.9 195:-3.5 196:-1.6 197:-1.6 198:4.2 
1.0 8:1.0 30:1.0 51:1.0 63:1.0 97:1.0 108:1.0 122:1.0 146:1.0 177:1.0 181:3.92167 182:3.93609 183:5.32579 184:3.63464 185:2.60934 186:3.92041 187:2.77565 188:0.0 189:2.59898 190:4.5 191:3.8 192:1.9 193:-3.5 194:-0.7 195:4.5 196:2.5 197:-0.4 198:-0.7 
1.0 3:1.0 30:1.0 60:1.0 63:1.0 91:1.0 108:1.0 127:1.0 152:1.0 178:1.0 181:3.6837 182:3.93335 183:6.54788 184:3.65651 185:5.32636 186:3.9199 187:4.48946 188:3.71166 189:2.57341 190:-3.5 191:3.8 192:-1.3 193:-3.5 194:1.9 195:4.5 196:-3.2 197:-3.5 198:4.2 
1.0 17:1.0 31:1.0 53:1.0 64:1.0 90:1.0 101:1.0 139:1.0 141:1.0 178:1.0 181:2.53462 182:5.32107 183:2.41265 184:4.97378 185:3.93479 186:1.53642 187:6.03363 188:1.53631 189:2.56876 190:-0.7 191:1.9 192:-1.6 193:-3.5 194:3.8 195:1.8 196:-0.9 197:1.8 198:4.2 
1.0 8:1.0 30:1.0 41:1.0 76:1.0 85:1.0 116:1.0 121:1.0 156:1.0 177:1.0 181:3.92406 182:3.93349 183:1.53597 184:2.43669 185:5.17956 186:2.43732 187:1.53667 188:2.43645 189:2.60016 190:4.5 191:3.8 192:1.8 193:-0.8 194:2.8 195:-0.8 196:1.8 197:-0.8 198:-0.7 
1.0 1:1.0 30:1.0 47:1.0 77:1.0 81:1.0 110:1.0 121:1.0 157:1.0 178:1.0 181:1.54101 182:3.93568 183:4.5447 184:2.61183 185:1.53636 186:3.93645 187:1.53563 188:2.61084 189:2.56954 190:1.8 191:3.8 192:-3.2 193:-0.7 194:1.8 195:3.8 196:1.8 197:-0.7 198:4.2 
1.0 20:1.0 34:1.0 50:1.0 61:1.0 86:1.0 120:1.0 128:1.0 150:1.0 177:1.0 181:6.55604 182:5.02094 183:3.931 184:1.53672 185:0.0 186:6.57009 187:3.92504 188:3.92589 189:2.59905 190:-1.3 191:-3.5 192:3.8 193:1.8 194:-0.4 195:-1.3 196:4.5 197:3.8 198:-0.7 
1.0 7:1.0 30:1.0 57:1.0 64:1.0 92:1.0 112:1.0 130:1.0 160:1.0 168:1.0 181:4.57447 182:3.93483 183:2.59991 184:4.98117 185:3.72521 186:3.72061 187:3.93113 188:6.5173 189:3.91749 190:-3.2 191:3.8 192:-0.7 193:-3.5 194:-3.5 195:-3.5 196:3.8 197:-1.3 198:4.5 
1.0 8:1.0 30:1.0 41:1.0 77:1.0 90:1.0 112:1.0 137:1.0 150:1.0 168:1.0 181:3.92478 182:3.93406 183:1.5349 184:2.61352 185:3.93641 186:3.6966 187:2.61118 188:3.93284 189:3.91334 190:4.5 191:3.8 192:1.8 193:-0.7 194:3.8 195:-3.5 196:-0.7 197:3.8 198:4.5 
1.0 20:1.0 30:1.0 41:1.0 73:1.0 86:1.0 113:1.0 138:1.0 157:1.0 178:1.0 181:6.5769 182:3.9331 183:1.53632 184:2.41789 185:0.0 186:2.41579 187:2.57798 188:2.61238 189:2.5696 190:-1.3 191:3.8 192:1.8 193:-1.6 194:-0.4 195:-1.6 196:4.2 197:-0.7 198:4.2 
1.0 18:1.0 30:1.0 56:1.0 64:1.0 99:1.0 110:1.0 133:1.0 158:1.0 177:1.0 181:2.58832 182:3.93659 183:2.43447 184:4.98102 185:5.9906 186:3.92743 187:2.41755 188:2.57716 189:2.60218 190:4.2 191:3.8 192:-0.8 193:-3.5 194:-0.9 195:3.8 196:-1.6 197:4.2 198:-0.7 
1.0 18:1.0 30:1.0 45:1.0 63:1.0 83:1.0 110:1.0 122:1.0 144:1.0 161:1.0 181:2.58782 182:3.9338 183:5.1936 184:3.61391 185:3.60216 186:3.93314 187:2.77626 188:4.98195 189:1.53677 190:4.2 191:3.8 192:2.8 193:-3.5 194:-3.5 195:3.8 196:2.5 197:-3.5 198:1.8 
1.0 11:1.0 31:1.0 54:1.0 78:1.0 99:1.0 108:1.0 134:1.0 153:1.0 170:1.0 181:5.3367 182:5.3268 183:5.01657 184:2.57506 185:6.03392 186:3.91849 187:5.02377 188:2.41536 189:3.92279 190:1.9 191:1.9 192:-3.5 193:4.2 194:-0.9 195:4.5 196:-3.5 197:-1.6 198:3.8 
1.0 18:1.0 31:1.0 41:1.0 61:1.0 98:1.0 102:1.0 130:1.0 154:1.0 168:1.0 181:2.58748 182:5.33008 183:1.53624 184:1.53682 185:2.57448 186:2.77067 187:3.934 188:5.00805 189:3.91508 190:4.2 191:1.9 192:1.8 193:1.8 194:4.2 195:2.5 196:3.8 197:-3.5 198:4.5 
0.5801894290127634 9:1.0 30:1.0 48:1.0 77:1.0 85:1.0 110:1.0 125:1.0 158:1.0 168:1.0 181:6.39471 182:3.93535 183:3.91719 184:2.61249 185:5.18556 186:3.93055 187:5.18951 188:2.57318 189:3.91366 190:-3.9 191:3.8 192:4.5 193:-0.7 194:2.8 195:3.8 196:2.8 197:4.2 198:4.5 
1.0 11:1.0 38:1.0 41:1.0 69:1.0 100:1.0 103:1.0 130:1.0 150:1.0 178:1.0 181:5.33571 182:2.57323 183:1.53758 184:6.38407 185:6.54301 186:3.64494 187:3.93438 188:3.92972 189:2.56899 190:1.9 191:4.2 192:1.8 193:-3.9 194:-1.3 195:-3.5 196:3.8 197:3.8 198:4.2 
1.0 15:1.0 30:1.0 50:1.0 74:1.0 84:1.0 117:1.0 124:1.0 150:1.0 178:1.0 181:7.27216 182:3.93397 183:3.93161 184:5.01483 185:4.97946 186:2.60854 187:4.9822 188:3.92992 189:2.57005 190:-4.5 191:3.8 192:3.8 193:-3.5 194:-3.5 195:-0.7 196:-3.5 197:3.8 198:4.2 
1.0 5:1.0 37:1.0 50:1.0 78:1.0 81:1.0 117:1.0 138:1.0 156:1.0 168:1.0 181:5.20581 182:2.60771 183:3.93178 184:2.57502 185:1.53664 186:2.61022 187:2.57473 188:2.43629 189:3.91319 190:2.8 191:-0.7 192:3.8 193:4.2 194:1.8 195:-0.7 196:4.2 197:-0.8 198:4.5 
1.0 5:1.0 28:1.0 43:1.0 68:1.0 90:1.0 110:1.0 125:1.0 158:1.0 168:1.0 181:5.20354 182:3.92294 183:3.63878 184:3.92221 185:3.93259 186:3.93274 187:5.19138 188:2.57286 189:3.91616 190:2.8 191:4.5 192:-3.5 193:4.5 194:3.8 195:3.8 196:2.8 197:4.2 198:4.5 
1.0 16:1.0 30:1.0 45:1.0 66:1.0 94:1.0 115:1.0 128:1.0 144:1.0 178:1.0 181:2.43379 182:3.93266 183:5.18543 184:0.0 185:5.02399 186:7.32103 187:3.91323 188:4.9856 189:2.57121 190:-0.8 191:3.8 192:2.8 193:-0.4 194:-3.5 195:-4.5 196:4.5 197:-3.5 198:4.2 
1.0 1:1.0 28:1.0 48:1.0 73:1.0 90:1.0 116:1.0 121:1.0 156:1.0 178:1.0 181:1.54091 182:3.92439 183:3.90514 184:2.41521 185:3.93284 186:2.43787 187:1.53668 188:2.4381 189:2.57109 190:1.8 191:4.5 192:4.5 193:-1.6 194:3.8 195:-0.8 196:1.8 197:-0.8 198:4.2 
1.0 14:1.0 38:1.0 43:1.0 62:1.0 85:1.0 110:1.0 139:1.0 147:1.0 178:1.0 181:5.01683 182:2.57303 183:3.6465 184:2.76943 185:5.18041 186:3.93199 187:6.04193 188:4.49107 189:2.5711 190:-3.5 191:4.2 192:-3.5 193:2.5 194:2.8 195:3.8 196:-0.9 197:-3.2 198:4.2 
1.0 11:1.0 37:1.0 41:1.0 64:1.0 83:1.0 111:1.0 130:1.0 157:1.0 178:1.0 181:5.33837 182:2.60557 183:1.53623 184:4.98148 185:3.63475 186:5.33045 187:3.93091 188:2.60488 189:2.56916 190:1.9 191:-0.7 192:1.8 193:-3.5 194:-3.5 195:1.9 196:3.8 197:-0.7 198:4.2 
1.0 10:1.0 31:1.0 57:1.0 70:1.0 100:1.0 114:1.0 128:1.0 154:1.0 178:1.0 181:3.94154 182:5.32516 183:2.60541 184:3.93246 185:6.55233 186:5.01504 187:3.92425 188:5.01473 189:2.56852 190:3.8 191:1.9 192:-0.7 193:3.8 194:-1.3 195:-3.5 196:4.5 197:-3.5 198:4.2 
1.0 20:1.0 30:1.0 58:1.0 69:1.0 100:1.0 114:1.0 121:1.0 157:1.0 178:1.0 181:6.57265 182:3.93491 183:2.57326 184:6.38614 185:6.5273 186:5.02154 187:1.53527 188:2.60843 189:2.56939 190:-1.3 191:3.8 192:4.2 193:-3.9 194:-1.3 195:-3.5 196:1.8 197:-0.7 198:4.2 
1.0 17:1.0 30:1.0 53:1.0 63:1.0 98:1.0 109:1.0 136:1.0 145:1.0 178:1.0 181:2.53447 182:3.92683 183:2.40809 184:3.65266 185:2.5791 186:6.38522 187:2.43514 188:5.18967 189:2.57229 190:-0.7 191:3.8 192:-1.6 193:-3.5 194:4.2 195:-3.9 196:-0.8 197:2.8 198:4.2 
1.0 5:1.0 31:1.0 58:1.0 65:1.0 90:1.0 114:1.0 137:1.0 147:1.0 168:1.0 181:5.19768 182:5.32892 183:2.57376 184:5.19262 185:3.93426 186:5.01626 187:2.60459 188:4.49429 189:3.91441 190:2.8 191:1.9 192:4.2 193:2.8 194:3.8 195:-3.5 196:-0.7 197:-3.2 198:4.5 
1.0 5:1.0 30:1.0 49:1.0 63:1.0 98:1.0 104:1.0 133:1.0 150:1.0 170:1.0 181:5.20091 182:3.93486 183:6.38194 184:3.6293 185:2.57821 186:4.97205 187:2.414 188:3.93298 189:3.92333 190:2.8 191:3.8 192:-3.9 193:-3.5 194:4.2 195:-3.5 196:-1.6 197:3.8 198:3.8 
1.0 18:1.0 30:1.0 41:1.0 64:1.0 81:1.0 111:1.0 136:1.0 154:1.0 178:1.0 181:2.58738 182:3.93574 183:1.53612 184:4.98497 185:1.53629 186:5.33113 187:2.43332 188:5.01436 189:2.5689 190:4.2 191:3.8 192:1.8 193:-3.5 194:1.8 195:1.9 196:-0.8 197:-3.5 198:4.2 
1.0 18:1.0 30:1.0 41:1.0 72:1.0 85:1.0 102:1.0 136:1.0 141:1.0 170:1.0 181:2.58687 182:3.93462 183:1.53656 184:3.7189 185:5.18678 186:2.77223 187:2.4357 188:1.53629 189:3.92353 190:4.2 191:3.8 192:1.8 193:-3.5 194:2.8 195:2.5 196:-0.8 197:1.8 198:3.8 
1.0 5:1.0 30:1.0 60:1.0 72:1.0 95:1.0 113:1.0 130:1.0 152:1.0 176:1.0 181:5.20143 182:3.93109 183:6.55615 184:3.74326 185:7.18626 186:2.41154 187:3.93172 188:3.74069 189:2.41049 190:2.8 191:3.8 192:-1.3 193:-3.5 194:-4.5 195:-1.6 196:3.8 197:-3.5 198:-0.8 
1.0 20:1.0 30:1.0 50:1.0 61:1.0 98:1.0 102:1.0 126:1.0 142:1.0 168:1.0 181:6.55833 182:3.93416 183:3.93515 184:1.5359 185:2.57392 186:2.77946 187:0.0 188:2.77643 189:3.91519 190:-1.3 191:3.8 192:3.8 193:1.8 194:4.2 195:2.5 196:-0.4 197:2.5 198:4.5 
1.0 8:1.0 31:1.0 41:1.0 68:1.0 86:1.0 108:1.0 138:1.0 156:1.0 168:1.0 181:3.92259 182:5.33203 183:1.53488 184:3.9189 185:0.0 186:3.92024 187:2.57201 188:2.43695 189:3.91506 190:4.5 191:1.9 192:1.8 193:4.5 194:-0.4 195:4.5 196:4.2 197:-0.8 198:4.5 
1.0 5:1.0 31:1.0 41:1.0 76:1.0 93:1.0 104:1.0 132:1.0 158:1.0 168:1.0 181:5.1797 182:5.3289 183:1.53663 184:2.4317 185:2.40897 186:4.97865 187:3.72676 188:2.5744 189:3.91279 190:2.8 191:1.9 192:1.8 193:-0.8 194:-1.6 195:-3.5 196:-3.5 197:4.2 198:4.5 
1.0 10:1.0 30:1.0 50:1.0 79:1.0 88:1.0 116:1.0 138:1.0 149:1.0 178:1.0 181:3.9385 182:3.93381 183:3.9329 184:6.0294 185:3.91857 186:2.43652 187:2.57506 188:6.37933 189:2.56704 190:3.8 191:3.8 192:3.8 193:-0.9 194:4.5 195:-0.8 196:4.2 197:-3.9 198:4.2 
1.0 20:1.0 34:1.0 46:1.0 76:1.0 100:1.0 106:1.0 125:1.0 155:1.0 170:1.0 181:6.48919 182:5.01911 183:0.0 184:2.43851 185:6.52435 186:0.0 187:5.21853 188:7.27605 189:3.92354 190:-1.3 191:-3.5 192:-0.4 193:-0.8 194:-1.3 195:-0.4 196:2.8 197:-4.5 198:3.8 
1.0 5:1.0 31:1.0 46:1.0 78:1.0 88:1.0 120:1.0 128:1.0 151:1.0 168:1.0 181:5.17162 182:5.32703 183:0.0 184:2.575 185:3.92138 186:6.54324 187:3.91928 188:5.32716 189:3.91397 190:2.8 191:1.9 192:-0.4 193:4.2 194:4.5 195:-1.3 196:4.5 197:1.9 198:4.5 
1.0 18:1.0 30:1.0 56:1.0 73:1.0 90:1.0 113:1.0 136:1.0 154:1.0 161:1.0 181:2.58851 182:3.93402 183:2.43246 184:2.4199 185:3.92744 186:2.41326 187:2.43218 188:5.00218 189:1.53723 190:4.2 191:3.8 192:-0.8 193:-1.6 194:3.8 195:-1.6 196:-0.8 197:-3.5 198:1.8 
1.0 10:1.0 31:1.0 51:1.0 75:1.0 97:1.0 117:1.0 139:1.0 141:1.0 170:1.0 181:3.93921 182:5.33056 183:5.33353 184:7.21514 185:2.60772 186:2.62029 187:6.019 188:1.53618 189:3.92354 190:3.8 191:1.9 192:1.9 193:-4.5 194:-0.7 195:-0.7 196:-0.9 197:1.8 198:3.8 
1.0 17:1.0 30:1.0 52:1.0 64:1.0 83:1.0 110:1.0 130:1.0 144:1.0 168:1.0 181:2.53247 182:3.93586 183:3.71926 184:4.98146 185:3.62865 186:3.93365 187:3.93372 188:4.98177 189:3.91625 190:-0.7 191:3.8 192:-3.5 193:-3.5 194:-3.5 195:3.8 196:3.8 197:-3.5 198:4.5 
1.0 5:1.0 28:1.0 48:1.0 64:1.0 98:1.0 116:1.0 132:1.0 142:1.0 178:1.0 181:5.20915 182:3.91774 183:3.91832 184:4.98303 185:2.57368 186:2.43795 187:3.73501 188:2.7691 189:2.57146 190:2.8 191:4.5 192:4.5 193:-3.5 194:4.2 195:-0.8 196:-3.5 197:2.5 198:4.2 
1.0 20:1.0 30:1.0 51:1.0 63:1.0 84:1.0 104:1.0 138:1.0 153:1.0 161:1.0 181:6.55778 182:3.93479 183:5.32558 184:3.67738 185:4.98189 186:4.98267 187:2.62011 188:2.40525 189:1.53832 190:-1.3 191:3.8 192:1.9 193:-3.5 194:-3.5 195:-3.5 196:4.2 197:-1.6 198:1.8 
1.0 6:1.0 30:1.0 53:1.0 64:1.0 96:1.0 117:1.0 133:1.0 156:1.0 170:1.0 181:0.0 182:3.92878 183:2.40938 184:4.97637 185:2.43317 186:2.53852 187:2.40708 188:2.43798 189:3.92504 190:-0.4 191:3.8 192:-1.6 193:-3.5 194:-0.8 195:-0.7 196:-1.6 197:-0.8 198:3.8 
1.0 20:1.0 28:1.0 50:1.0 67:1.0 96:1.0 103:1.0 140:1.0 154:1.0 170:1.0 181:6.56132 182:3.92119 183:3.93373 184:4.48628 185:2.4359 186:3.6298 187:6.54485 188:5.01846 189:3.92404 190:-1.3 191:4.5 192:3.8 193:-3.2 194:-0.8 195:-3.5 196:-1.3 197:-3.5 198:3.8 
1.0 6:1.0 30:1.0 41:1.0 75:1.0 90:1.0 103:1.0 121:1.0 150:1.0 178:1.0 181:0.0 182:3.93566 183:1.53573 184:7.29979 185:3.93172 186:3.64753 187:1.53657 188:3.93293 189:2.56872 190:-0.4 191:3.8 192:1.8 193:-4.5 194:3.8 195:-3.5 196:1.8 197:3.8 198:4.2 
1.0 9:1.0 30:1.0 58:1.0 61:1.0 100:1.0 114:1.0 121:1.0 157:1.0 178:1.0 181:6.39314 182:3.93238 183:2.57558 184:1.53661 185:6.55901 186:5.01916 187:1.53351 188:2.60854 189:2.56979 190:-3.9 191:3.8 192:4.2 193:1.8 194:-1.3 195:-3.5 196:1.8 197:-0.7 198:4.2 
1.0 1:1.0 30:1.0 46:1.0 80:1.0 94:1.0 110:1.0 121:1.0 145:1.0 178:1.0 181:1.53967 182:3.93768 183:0.0 184:6.57262 185:5.01627 186:3.93568 187:1.53587 188:5.19423 189:2.57297 190:1.8 191:3.8 192:-0.4 193:-1.3 194:-3.5 195:3.8 196:1.8 197:2.8 198:4.2 
1.0 8:1.0 28:1.0 50:1.0 61:1.0 88:1.0 116:1.0 121:1.0 150:1.0 170:1.0 181:3.92365 182:3.91914 183:3.93405 184:1.53626 185:3.92025 186:2.43604 187:1.53592 188:3.93246 189:3.92271 190:4.5 191:4.5 192:3.8 193:1.8 194:4.5 195:-0.8 196:1.8 197:3.8 198:3.8 
1.0 19:1.0 30:1.0 56:1.0 70:1.0 90:1.0 118:1.0 133:1.0 145:1.0 178:1.0 181:6.05111 182:3.93261 183:2.43406 184:3.93356 185:3.93038 186:2.62276 187:2.41677 188:5.18242 189:2.57148 190:-0.9 191:3.8 192:-0.8 193:3.8 194:3.8 195:4.2 196:-1.6 197:2.8 198:4.2 
1.0 16:1.0 31:1.0 57:1.0 64:1.0 82:1.0 116:1.0 134:1.0 144:1.0 170:1.0 181:2.43478 182:5.32697 183:2.60388 184:4.98202 185:2.77223 186:2.4357 187:5.00789 188:4.98115 189:3.92322 190:-0.8 191:1.9 192:-0.7 193:-3.5 194:2.5 195:-0.8 196:-3.5 197:-3.5 198:3.8 
1.0 19:1.0 38:1.0 51:1.0 63:1.0 97:1.0 110:1.0 132:1.0 146:1.0 168:1.0 181:6.05763 182:2.57301 183:5.33397 184:3.6376 185:2.61034 186:3.93548 187:3.73926 188:0.0 189:3.916 190:-0.9 191:4.2 192:1.9 193:-3.5 194:-0.7 195:3.8 196:-3.5 197:-0.4 198:4.5 
1.0 11:1.0 28:1.0 46:1.0 72:1.0 100:1.0 105:1.0 136:1.0 146:1.0 178:1.0 181:5.33461 182:3.92271 183:0.0 184:3.71618 185:6.53324 186:5.16803 187:2.44066 188:0.0 189:2.56886 190:1.9 191:4.5 192:-0.4 193:-3.5 194:-1.3 195:2.8 196:-0.8 197:-0.4 198:4.2 
1.0 10:1.0 30:1.0 57:1.0 64:1.0 98:1.0 104:1.0 137:1.0 160:1.0 178:1.0 181:3.93945 182:3.93042 183:2.60292 184:4.98254 185:2.57572 186:4.9781 187:2.61092 188:6.52118 189:2.57295 190:3.8 191:3.8 192:-0.7 193:-3.5 194:4.2 195:-3.5 196:-0.7 197:-1.3 198:4.2 
1.0 10:1.0 37:1.0 58:1.0 69:1.0 87:1.0 111:1.0 121:1.0 152:1.0 178:1.0 181:3.93793 182:2.60251 183:2.5759 184:6.38335 185:4.48005 186:5.32402 187:1.53557 188:3.72396 189:2.57272 190:3.8 191:-0.7 192:4.2 193:-3.9 194:-3.2 195:1.9 196:1.8 197:-3.5 198:4.2 
1.0 16:1.0 31:1.0 41:1.0 71:1.0 97:1.0 102:1.0 128:1.0 141:1.0 178:1.0 181:2.4343 182:5.32889 183:1.53505 184:5.32644 185:2.60415 186:2.77144 187:3.91881 188:1.53677 189:2.57005 190:-0.8 191:1.9 192:1.8 193:1.9 194:-0.7 195:2.5 196:4.5 197:1.8 198:4.2 
1.0 5:1.0 34:1.0 60:1.0 80:1.0 86:1.0 108:1.0 123:1.0 159:1.0 178:1.0 181:5.18647 182:5.02144 183:6.47631 184:6.54173 185:0.0 186:3.92647 187:3.63679 188:6.04727 189:2.57383 190:2.8 191:-3.5 192:-1.3 193:-1.3 194:-0.4 195:4.5 196:-3.5 197:-0.9 198:4.2 
1.0 17:1.0 28:1.0 48:1.0 61:1.0 90:1.0 110:1.0 125:1.0 141:1.0 170:1.0 181:2.53422 182:3.92041 183:3.92113 184:1.53676 185:3.93301 186:3.93095 187:5.18359 188:1.53599 189:3.92325 190:-0.7 191:4.5 192:4.5 193:1.8 194:3.8 195:3.8 196:2.8 197:1.8 198:3.8 
1.0 11:1.0 30:1.0 50:1.0 61:1.0 90:1.0 108:1.0 121:1.0 158:1.0 170:1.0 181:5.33741 182:3.9312 183:3.93298 184:1.53644 185:3.93532 186:3.9206 187:1.53629 188:2.57435 189:3.92296 190:1.9 191:3.8 192:3.8 193:1.8 194:3.8 195:4.5 196:1.8 197:4.2 198:3.8 
1.0 10:1.0 30:1.0 56:1.0 70:1.0 85:1.0 116:1.0 137:1.0 150:1.0 178:1.0 181:3.93825 182:3.93528 183:2.43411 184:3.9292 185:5.22324 186:2.43952 187:2.60515 188:3.93084 189:2.56889 190:3.8 191:3.8 192:-0.8 193:3.8 194:2.8 195:-0.8 196:-0.7 197:3.8 198:4.2 
1.0 5:1.0 30:1.0 50:1.0 76:1.0 90:1.0 106:1.0 128:1.0 147:1.0 170:1.0 181:5.20616 182:3.93442 183:3.93452 184:2.43459 185:3.93694 186:0.0 187:3.92269 188:4.48792 189:3.9237 190:2.8 191:3.8 192:3.8 193:-0.8 194:3.8 195:-0.4 196:4.5 197:-3.2 198:3.8 
1.0 19:1.0 30:1.0 43:1.0 74:1.0 98:1.0 113:1.0 125:1.0 156:1.0 178:1.0 181:6.04723 182:3.92815 183:3.60795 184:5.02199 185:2.62316 186:2.41606 187:5.18261 188:2.43568 189:2.57212 190:-0.9 191:3.8 192:-3.5 193:-3.5 194:4.2 195:-1.6 196:2.8 197:-0.8 198:4.2 
1.0 20:1.0 30:1.0 51:1.0 77:1.0 90:1.0 111:1.0 129:1.0 146:1.0 161:1.0 181:6.55976 182:3.93838 183:5.32456 184:2.60663 185:3.93564 186:5.32502 187:6.38457 188:0.0 189:1.53748 190:-1.3 191:3.8 192:1.9 193:-0.7 194:3.8 195:1.9 196:-3.9 197:-0.4 198:1.8 
1.0 1:1.0 30:1.0 59:1.0 66:1.0 81:1.0 105:1.0 133:1.0 158:1.0 170:1.0 181:1.5403 182:3.93193 183:6.014 184:0.0 185:1.53734 186:5.19845 187:2.40927 188:2.57559 189:3.926 190:1.8 191:3.8 192:-0.9 193:-0.4 194:1.8 195:2.8 196:-1.6 197:4.2 198:3.8 
1.0 12:1.0 30:1.0 58:1.0 73:1.0 91:1.0 118:1.0 121:1.0 157:1.0 178:1.0 181:3.74514 182:3.93313 183:2.62276 184:2.41478 185:5.30892 186:2.57564 187:1.53602 188:2.6114 189:2.57054 190:-3.5 191:3.8 192:4.2 193:-1.6 194:1.9 195:4.2 196:1.8 197:-0.7 198:4.2 
1.0 5:1.0 30:1.0 50:1.0 75:1.0 86:1.0 113:1.0 125:1.0 144:1.0 161:1.0 181:5.20933 182:3.93386 183:3.92882 184:7.10543 185:0.0 186:2.41147 187:5.17754 188:4.98229 189:1.53732 190:2.8 191:3.8 192:3.8 193:-4.5 194:-0.4 195:-1.6 196:2.8 197:-3.5 198:1.8 
1.0 5:1.0 28:1.0 58:1.0 64:1.0 87:1.0 108:1.0 132:1.0 141:1.0 171:1.0 181:5.20829 182:3.92099 183:2.57387 184:4.98381 185:4.48959 186:3.91988 187:3.71547 188:1.53635 189:5.31007 190:2.8 191:4.5 192:4.2 193:-3.5 194:-3.2 195:4.5 196:-3.5 197:1.8 198:1.9 
1.0 15:1.0 30:1.0 43:1.0 73:1.0 95:1.0 110:1.0 121:1.0 153:1.0 178:1.0 181:7.27426 182:3.93141 183:3.69376 184:2.4183 185:7.26391 186:3.93133 187:1.53824 188:2.41296 189:2.57049 190:-4.5 191:3.8 192:-3.5 193:-1.6 194:-4.5 195:3.8 196:1.8 197:-1.6 198:4.2 
1.0 16:1.0 28:1.0 60:1.0 64:1.0 98:1.0 106:1.0 128:1.0 158:1.0 170:1.0 181:2.43333 182:3.92213 183:6.57398 184:4.98186 185:2.5729 186:0.0 187:3.92014 188:2.57382 189:3.92315 190:-0.8 191:4.5 192:-1.3 193:-3.5 194:4.2 195:-0.4 196:4.5 197:4.2 198:3.8 
1.0 1:1.0 31:1.0 41:1.0 70:1.0 96:1.0 108:1.0 138:1.0 156:1.0 170:1.0 181:1.54111 182:5.33092 183:1.5362 184:3.9359 185:2.43491 186:3.91965 187:2.57425 188:2.43719 189:3.92432 190:1.8 191:1.9 192:1.8 193:3.8 194:-0.8 195:4.5 196:4.2 197:-0.8 198:3.8 
1.0 5:1.0 30:1.0 54:1.0 63:1.0 84:1.0 116:1.0 121:1.0 160:1.0 178:1.0 181:5.20148 182:3.93512 183:5.024 184:3.65265 185:4.98164 186:2.43767 187:1.53628 188:6.52371 189:2.5716 190:2.8 191:3.8 192:-3.5 193:-3.5 194:-3.5 195:-0.8 196:1.8 197:-1.3 198:4.2 
1.0 9:1.0 30:1.0 54:1.0 73:1.0 96:1.0 103:1.0 137:1.0 150:1.0 170:1.0 181:6.39558 182:3.93191 183:5.01501 184:2.41398 185:2.43214 186:3.66227 187:2.61081 188:3.93432 189:3.92259 190:-3.9 191:3.8 192:-3.5 193:-1.6 194:-0.8 195:-3.5 196:-0.7 197:3.8 198:3.8 
1.0 5:1.0 30:1.0 41:1.0 73:1.0 83:1.0 117:1.0 135:1.0 141:1.0 178:1.0 181:5.18628 182:3.93311 183:1.53702 184:2.40895 185:3.67687 186:2.61303 187:7.3064 188:1.5363 189:2.57122 190:2.8 191:3.8 192:1.8 193:-1.6 194:-3.5 195:-0.7 196:-4.5 197:1.8 198:4.2 
1.0 18:1.0 30:1.0 53:1.0 61:1.0 97:1.0 105:1.0 121:1.0 141:1.0 178:1.0 181:2.5901 182:3.92876 183:2.41334 184:1.53749 185:2.61993 186:5.1835 187:1.53581 188:1.53625 189:2.56874 190:4.2 191:3.8 192:-1.6 193:1.8 194:-0.7 195:2.8 196:1.8 197:1.8 198:4.2 
1.0 20:1.0 31:1.0 41:1.0 69:1.0 90:1.0 107:1.0 121:1.0 160:1.0 170:1.0 181:6.5528 182:5.33449 183:1.53466 184:6.38516 185:3.93215 186:4.48348 187:1.53643 188:6.51747 189:3.92314 190:-1.3 191:1.9 192:1.8 193:-3.9 194:3.8 195:-3.2 196:1.8 197:-1.3 198:3.8 
1.0 5:1.0 30:1.0 43:1.0 70:1.0 93:1.0 110:1.0 133:1.0 159:1.0 161:1.0 181:5.17915 182:3.93281 183:3.66818 184:3.92826 185:2.41836 186:3.93182 187:2.41649 188:5.9913 189:1.53837 190:2.8 191:3.8 192:-3.5 193:3.8 194:-1.6 195:3.8 196:-1.6 197:-0.9 198:1.8 
1.0 11:1.0 34:1.0 58:1.0 65:1.0 85:1.0 106:1.0 140:1.0 145:1.0 161:1.0 181:5.3369 182:5.01741 183:2.57724 184:5.15674 185:5.17501 186:0.0 187:6.55113 188:5.18966 189:1.53678 190:1.9 191:-3.5 192:4.2 193:2.8 194:2.8 195:-0.4 196:-1.3 197:2.8 198:1.8 
1.0 2:1.0 28:1.0 52:1.0 66:1.0 98:1.0 111:1.0 139:1.0 157:1.0 178:1.0 181:2.78646 182:3.92 183:3.74429 184:0.0 185:2.57575 186:5.32961 187:6.03953 188:2.60698 189:2.56879 190:2.5 191:4.5 192:-3.5 193:-0.4 194:4.2 195:1.9 196:-0.9 197:-0.7 198:4.2 
1.0 5:1.0 30:1.0 50:1.0 61:1.0 89:1.0 110:1.0 137:1.0 143:1.0 168:1.0 181:5.20436 182:3.93391 183:3.93266 184:1.53638 185:6.38738 186:3.92841 187:2.6041 188:3.69701 189:3.91757 190:2.8 191:3.8 192:3.8 193:1.8 194:-3.9 195:3.8 196:-0.7 197:-3.5 198:4.5 
1.0 1:1.0 38:1.0 58:1.0 66:1.0 85:1.0 110:1.0 130:1.0 146:1.0 178:1.0 181:1.5403 182:2.57359 183:2.57581 184:0.0 185:5.21849 186:3.93112 187:3.93817 188:0.0 189:2.56996 190:1.8 191:4.2 192:4.2 193:-0.4 194:2.8 195:3.8 196:3.8 197:-0.4 198:4.2 
1.0 20:1.0 30:1.0 60:1.0 70:1.0 97:1.0 105:1.0 140:1.0 145:1.0 177:1.0 181:6.56236 182:3.93131 183:6.60788 184:3.93352 185:2.60277 186:5.17515 187:6.59102 188:5.21995 189:2.59829 190:-1.3 191:3.8 192:-1.3 193:3.8 194:-0.7 195:2.8 196:-1.3 197:2.8 198:-0.7 
1.0 18:1.0 30:1.0 41:1.0 63:1.0 90:1.0 106:1.0 121:1.0 143:1.0 178:1.0 181:2.58617 182:3.93616 183:1.53553 184:3.63852 185:3.9342 186:0.0 187:1.53723 188:3.67999 189:2.57647 190:4.2 191:3.8 192:1.8 193:-3.5 194:3.8 195:-0.4 196:1.8 197:-3.5 198:4.2 
1.0 18:1.0 31:1.0 41:1.0 62:1.0 90:1.0 118:1.0 133:1.0 141:1.0 161:1.0 181:2.58659 182:5.32938 183:1.53565 184:2.77318 185:3.93371 186:2.62024 187:2.40751 188:1.53647 189:1.53761 190:4.2 191:1.9 192:1.8 193:2.5 194:3.8 195:4.2 196:-1.6 197:1.8 198:1.8 
1.0 6:1.0 31:1.0 45:1.0 66:1.0 86:1.0 102:1.0 125:1.0 141:1.0 161:1.0 181:0.0 182:5.33144 183:5.17057 184:0.0 185:0.0 186:2.77759 187:5.17579 188:1.53637 189:1.53729 190:-0.4 191:1.9 192:2.8 193:-0.4 194:-0.4 195:2.5 196:2.8 197:1.8 198:1.8 
1.0 20:1.0 30:1.0 50:1.0 61:1.0 90:1.0 115:1.0 140:1.0 150:1.0 161:1.0 181:6.55461 182:3.93559 183:3.93466 184:1.53626 185:3.9353 186:7.22796 187:6.54449 188:3.93068 189:1.53616 190:-1.3 191:3.8 192:3.8 193:1.8 194:3.8 195:-4.5 196:-1.3 197:3.8 198:1.8 
1.0 5:1.0 31:1.0 43:1.0 73:1.0 86:1.0 108:1.0 125:1.0 153:1.0 175:1.0 181:5.20997 182:5.34721 183:3.6783 184:2.41417 185:0.0 186:3.92728 187:5.1882 188:2.41759 189:7.27445 190:2.8 191:1.9 192:-3.5 193:-1.6 194:-0.4 195:4.5 196:2.8 197:-1.6 198:-4.5 
1.0 9:1.0 28:1.0 51:1.0 76:1.0 88:1.0 106:1.0 125:1.0 144:1.0 161:1.0 181:6.39096 182:3.92003 183:5.32882 184:2.4326 185:3.92065 186:0.0 187:5.20564 188:4.97964 189:1.53708 190:-3.9 191:4.5 192:1.9 193:-0.8 194:4.5 195:-0.4 196:2.8 197:-3.5 198:1.8 
1.0 9:1.0 31:1.0 58:1.0 64:1.0 90:1.0 118:1.0 127:1.0 145:1.0 170:1.0 181:6.39209 182:5.32903 183:2.57306 184:4.98138 185:3.93252 186:2.57329 187:4.48607 188:5.18438 189:3.92301 190:-3.9 191:1.9 192:4.2 193:-3.5 194:3.8 195:4.2 196:-3.2 197:2.8 198:3.8 
1.0 16:1.0 30:1.0 53:1.0 73:1.0 92:1.0 105:1.0 136:1.0 156:1.0 170:1.0 181:2.4334 182:3.93073 183:2.41436 184:2.41184 185:3.72582 186:5.18834 187:2.43569 188:2.43967 189:3.92407 190:-0.8 191:3.8 192:-1.6 193:-1.6 194:-3.5 195:2.8 196:-0.8 197:-0.8 198:3.8 
1.0 16:1.0 30:1.0 51:1.0 72:1.0 98:1.0 103:1.0 121:1.0 141:1.0 178:1.0 181:2.43412 182:3.93523 183:5.3264 184:3.72726 185:2.57516 186:3.63381 187:1.5368 188:1.53665 189:2.5689 190:-0.8 191:3.8 192:1.9 193:-3.5 194:4.2 195:-3.5 196:1.8 197:1.8 198:4.2 
1.0 17:1.0 28:1.0 51:1.0 66:1.0 98:1.0 108:1.0 125:1.0 150:1.0 168:1.0 181:2.53493 182:3.92032 183:5.33068 184:0.0 185:2.57453 186:3.92079 187:5.19113 188:3.92982 189:3.91294 190:-0.7 191:4.5 192:1.9 193:-0.4 194:4.2 195:4.5 196:2.8 197:3.8 198:4.5 
1.0 17:1.0 30:1.0 43:1.0 61:1.0 81:1.0 112:1.0 127:1.0 156:1.0 168:1.0 181:2.53276 182:3.93368 183:3.64386 184:1.53631 185:1.53675 186:3.72974 187:4.48417 188:2.43479 189:3.91672 190:-0.7 191:3.8 192:-3.5 193:1.8 194:1.8 195:-3.5 196:-3.2 197:-0.8 198:4.5 
1.0 2:1.0 31:1.0 45:1.0 66:1.0 98:1.0 118:1.0 136:1.0 153:1.0 161:1.0 181:2.78641 182:5.32748 183:5.19016 184:0.0 185:2.57539 186:2.57531 187:2.4293 188:2.40543 189:1.53757 190:2.5 191:1.9 192:2.8 193:-0.4 194:4.2 195:4.2 196:-0.8 197:-1.6 198:1.8 
1.0 17:1.0 30:1.0 59:1.0 61:1.0 88:1.0 108:1.0 132:1.0 157:1.0 168:1.0 181:2.53256 182:3.93422 183:6.03802 184:1.53611 185:3.92547 186:3.925 187:3.69779 188:2.61334 189:3.91302 190:-0.7 191:3.8 192:-0.9 193:1.8 194:4.5 195:4.5 196:-3.5 197:-0.7 198:4.5 
1.0 11:1.0 28:1.0 41:1.0 61:1.0 100:1.0 117:1.0 121:1.0 141:1.0 170:1.0 181:5.33596 182:3.9224 183:1.53567 184:1.53711 185:6.54152 186:2.61203 187:1.53641 188:1.53718 189:3.92324 190:1.9 191:4.5 192:1.8 193:1.8 194:-1.3 195:-0.7 196:1.8 197:1.8 198:3.8 
1.0 20:1.0 30:1.0 41:1.0 73:1.0 86:1.0 113:1.0 138:1.0 157:1.0 161:1.0 181:6.57365 182:3.93507 183:1.53571 184:2.4175 185:0.0 186:2.41564 187:2.57747 188:2.61145 189:1.53818 190:-1.3 191:3.8 192:1.8 193:-1.6 194:-0.4 195:-1.6 196:4.2 197:-0.7 198:1.8 
1.0 9:1.0 30:1.0 42:1.0 76:1.0 93:1.0 118:1.0 125:1.0 141:1.0 168:1.0 181:6.38748 182:3.93359 183:2.77165 184:2.4338 185:2.41072 186:2.57666 187:5.18997 188:1.53633 189:3.91492 190:-3.9 191:3.8 192:2.5 193:-0.8 194:-1.6 195:4.2 196:2.8 197:1.8 198:4.5 
1.0 17:1.0 31:1.0 45:1.0 69:1.0 88:1.0 118:1.0 140:1.0 156:1.0 170:1.0 181:2.53464 182:5.32884 183:5.1951 184:6.38206 185:3.92228 186:2.57644 187:6.54323 188:2.43887 189:3.9246 190:-0.7 191:1.9 192:2.8 193:-3.9 194:4.5 195:4.2 196:-1.3 197:-0.8 198:3.8 
1.0 20:1.0 34:1.0 60:1.0 78:1.0 95:1.0 110:1.0 127:1.0 144:1.0 171:1.0 181:6.55497 182:5.02065 183:6.549 184:2.57405 185:7.27054 186:3.93444 187:4.49233 188:4.98108 189:5.31488 190:-1.3 191:-3.5 192:-1.3 193:4.2 194:-4.5 195:3.8 196:-3.2 197:-3.5 198:1.9 
1.0 10:1.0 30:1.0 57:1.0 80:1.0 85:1.0 102:1.0 125:1.0 158:1.0 161:1.0 181:3.93973 182:3.92915 183:2.60695 184:6.54946 185:5.18878 186:2.77263 187:5.19263 188:2.57199 189:1.53802 190:3.8 191:3.8 192:-0.7 193:-1.3 194:2.8 195:2.5 196:2.8 197:4.2 198:1.8 
1.0 1:1.0 30:1.0 53:1.0 63:1.0 97:1.0 118:1.0 121:1.0 153:1.0 178:1.0 181:1.53927 182:3.92722 183:2.40656 184:3.6869 185:2.61327 186:2.57707 187:1.53807 188:2.4102 189:2.56981 190:1.8 191:3.8 192:-1.6 193:-3.5 194:-0.7 195:4.2 196:1.8 197:-1.6 198:4.2 
1.0 8:1.0 28:1.0 45:1.0 79:1.0 85:1.0 116:1.0 130:1.0 144:1.0 168:1.0 181:3.92409 182:3.92289 183:5.16187 184:6.02319 185:5.18665 186:2.4373 187:3.9319 188:4.98362 189:3.91697 190:4.5 191:4.5 192:2.8 193:-0.9 194:2.8 195:-0.8 196:3.8 197:-3.5 198:4.5 
1.0 11:1.0 30:1.0 58:1.0 66:1.0 87:1.0 111:1.0 133:1.0 145:1.0 171:1.0 181:5.33635 182:3.93044 183:2.57367 184:0.0 185:4.49619 186:5.31656 187:2.42278 188:5.17196 189:5.30936 190:1.9 191:3.8 192:4.2 193:-0.4 194:-3.2 195:1.9 196:-1.6 197:2.8 198:1.9 
0.958699384971966 6:1.0 30:1.0 45:1.0 66:1.0 85:1.0 118:1.0 132:1.0 145:1.0 178:1.0 181:0.0 182:3.93262 183:5.17019 184:0.0 185:5.19909 186:2.57417 187:3.71863 188:5.18894 189:2.57283 190:-0.4 191:3.8 192:2.8 193:-0.4 194:2.8 195:4.2 196:-3.5 197:2.8 198:4.2 
1.0 1:1.0 30:1.0 43:1.0 61:1.0 97:1.0 106:1.0 125:1.0 158:1.0 178:1.0 181:1.53969 182:3.93187 183:3.66123 184:1.53633 185:2.60984 186:0.0 187:5.20994 188:2.57404 189:2.57199 190:1.8 191:3.8 192:-3.5 193:1.8 194:-0.7 195:-0.4 196:2.8 197:4.2 198:4.2 
1.0 10:1.0 30:1.0 46:1.0 75:1.0 92:1.0 116:1.0 125:1.0 144:1.0 178:1.0 181:3.93736 182:3.93722 183:0.0 184:7.30307 185:3.72829 186:2.43549 187:5.20726 188:4.98141 189:2.57238 190:3.8 191:3.8 192:-0.4 193:-4.5 194:-3.5 195:-0.8 196:2.8 197:-3.5 198:4.2 
1.0 16:1.0 38:1.0 50:1.0 70:1.0 85:1.0 110:1.0 121:1.0 145:1.0 178:1.0 181:2.43385 182:2.57635 183:3.9326 184:3.93086 185:5.17725 186:3.9334 187:1.53506 188:5.19699 189:2.57258 190:-0.8 191:4.2 192:3.8 193:3.8 194:2.8 195:3.8 196:1.8 197:2.8 198:4.2 
0.7736289821316827 3:1.0 30:1.0 51:1.0 66:1.0 100:1.0 108:1.0 133:1.0 150:1.0 178:1.0 181:3.66704 182:3.9312 183:5.33683 184:0.0 185:6.51956 186:3.91603 187:2.41762 188:3.92751 189:2.57122 190:-3.5 191:3.8 192:1.9 193:-0.4 194:-1.3 195:4.5 196:-1.6 197:3.8 198:4.2 
1.0 16:1.0 30:1.0 50:1.0 70:1.0 98:1.0 118:1.0 124:1.0 146:1.0 178:1.0 181:2.43345 182:3.93529 183:3.93212 184:3.9331 185:2.57101 186:2.57388 187:4.98547 188:0.0 189:2.57065 190:-0.8 191:3.8 192:3.8 193:3.8 194:4.2 195:4.2 196:-3.5 197:-0.4 198:4.2 
1.0 9:1.0 30:1.0 59:1.0 77:1.0 96:1.0 108:1.0 136:1.0 142:1.0 161:1.0 181:6.39382 182:3.93383 183:6.03977 184:2.61143 185:2.43679 186:3.9196 187:2.4351 188:2.77131 189:1.53797 190:-3.9 191:3.8 192:-0.9 193:-0.7 194:-0.8 195:4.5 196:-0.8 197:2.5 198:1.8 
1.0 20:1.0 21:1.0 50:1.0 62:1.0 97:1.0 110:1.0 130:1.0 147:1.0 170:1.0 181:6.53747 182:1.53671 183:3.93593 184:2.76483 185:2.61114 186:3.93477 187:3.93132 188:4.49042 189:3.92336 190:-1.3 191:1.8 192:3.8 193:2.5 194:-0.7 195:3.8 196:3.8 197:-3.2 198:3.8 
1.0 10:1.0 30:1.0 53:1.0 65:1.0 98:1.0 114:1.0 139:1.0 145:1.0 178:1.0 181:3.93871 182:3.92858 183:2.41577 184:5.17177 185:2.57734 186:5.01252 187:6.02296 188:5.18813 189:2.57176 190:3.8 191:3.8 192:-1.6 193:2.8 194:4.2 195:-3.5 196:-0.9 197:2.8 198:4.2 
1.0 17:1.0 30:1.0 50:1.0 65:1.0 90:1.0 109:1.0 138:1.0 153:1.0 178:1.0 181:2.5318 182:3.93497 183:3.93258 184:5.18776 185:3.93257 186:6.38857 187:2.6217 188:2.40987 189:2.56901 190:-0.7 191:3.8 192:3.8 193:2.8 194:3.8 195:-3.9 196:4.2 197:-1.6 198:4.2 
1.0 1:1.0 30:1.0 51:1.0 61:1.0 88:1.0 117:1.0 129:1.0 152:1.0 178:1.0 181:1.53962 182:3.93572 183:5.32646 184:1.5355 185:3.92224 186:2.61106 187:6.37964 188:3.72381 189:2.57342 190:1.8 191:3.8 192:1.9 193:1.8 194:4.5 195:-0.7 196:-3.9 197:-3.5 198:4.2 
1.0 5:1.0 30:1.0 41:1.0 65:1.0 90:1.0 110:1.0 125:1.0 150:1.0 178:1.0 181:5.18547 182:3.93329 183:1.53558 184:5.21069 185:3.93009 186:3.93404 187:5.20098 188:3.92895 189:2.57194 190:2.8 191:3.8 192:1.8 193:2.8 194:3.8 195:3.8 196:2.8 197:3.8 198:4.2 
1.0 14:1.0 30:1.0 51:1.0 61:1.0 84:1.0 109:1.0 130:1.0 154:1.0 170:1.0 181:5.0176 182:3.93429 183:5.33021 184:1.53569 185:4.99016 186:6.38725 187:3.92863 188:5.01909 189:3.9284 190:-3.5 191:3.8 192:1.9 193:1.8 194:-3.5 195:-3.9 196:3.8 197:-3.5 198:3.8 
1.0 18:1.0 31:1.0 49:1.0 70:1.0 85:1.0 117:1.0 128:1.0 156:1.0 178:1.0 181:2.58799 182:5.33063 183:6.37986 184:3.93225 185:5.18959 186:2.61051 187:3.91875 188:2.43748 189:2.57104 190:4.2 191:1.9 192:-3.9 193:3.8 194:2.8 195:-0.7 196:4.5 197:-0.8 198:4.2 
1.0 15:1.0 30:1.0 43:1.0 61:1.0 95:1.0 110:1.0 134:1.0 158:1.0 170:1.0 181:7.28231 182:3.93262 183:3.66227 184:1.53727 185:7.3449 186:3.92802 187:5.02379 188:2.57264 189:3.92286 190:-4.5 191:3.8 192:-3.5 193:1.8 194:-4.5 195:3.8 196:-3.5 197:4.2 198:3.8 
1.0 5:1.0 30:1.0 46:1.0 74:1.0 81:1.0 103:1.0 125:1.0 156:1.0 170:1.0 181:5.17196 182:3.93326 183:0.0 184:5.02224 185:1.53521 186:3.63379 187:5.18226 188:2.43757 189:3.92388 190:2.8 191:3.8 192:-0.4 193:-3.5 194:1.8 195:-3.5 196:2.8 197:-0.8 198:3.8 
1.0 5:1.0 30:1.0 52:1.0 75:1.0 85:1.0 117:1.0 137:1.0 157:1.0 170:1.0 181:5.2048 182:3.93509 183:3.72521 184:7.22561 185:5.21265 186:2.61893 187:2.60693 188:2.61451 189:3.92428 190:2.8 191:3.8 192:-3.5 193:-4.5 194:2.8 195:-0.7 196:-0.7 197:-0.7 198:3.8 
1.0 8:1.0 30:1.0 54:1.0 63:1.0 91:1.0 115:1.0 132:1.0 157:1.0 168:1.0 181:3.92257 182:3.93555 183:5.0101 184:3.66442 185:5.32566 186:7.24019 187:3.70131 188:2.61217 189:3.91376 190:4.5 191:3.8 192:-3.5 193:-3.5 194:1.9 195:-4.5 196:-3.5 197:-0.7 198:4.5 
1.0 16:1.0 28:1.0 51:1.0 64:1.0 97:1.0 108:1.0 123:1.0 153:1.0 178:1.0 181:2.43417 182:3.92088 183:5.33417 184:4.97911 185:2.61157 186:3.92215 187:3.69203 188:2.40904 189:2.57099 190:-0.8 191:4.5 192:1.9 193:-3.5 194:-0.7 195:4.5 196:-3.5 197:-1.6 198:4.2 
1.0 8:1.0 28:1.0 50:1.0 69:1.0 81:1.0 110:1.0 140:1.0 151:1.0 170:1.0 181:3.92347 182:3.9205 183:3.93171 184:6.38492 185:1.53597 186:3.93301 187:6.53967 188:5.3332 189:3.92424 190:4.5 191:4.5 192:3.8 193:-3.9 194:1.8 195:3.8 196:-1.3 197:1.9 198:3.8 
1.0 6:1.0 30:1.0 48:1.0 61:1.0 82:1.0 110:1.0 128:1.0 145:1.0 178:1.0 181:0.0 182:3.93526 183:3.9213 184:1.53659 185:2.77417 186:3.93163 187:3.91935 188:5.18837 189:2.57235 190:-0.4 191:3.8 192:4.5 193:1.8 194:2.5 195:3.8 196:4.5 197:2.8 198:4.2 
1.0 1:1.0 31:1.0 59:1.0 70:1.0 90:1.0 110:1.0 130:1.0 156:1.0 168:1.0 181:1.54123 182:5.32967 183:6.0285 184:3.93007 185:3.93116 186:3.93285 187:3.93398 188:2.43769 189:3.91626 190:1.8 191:1.9 192:-0.9 193:3.8 194:3.8 195:3.8 196:3.8 197:-0.8 198:4.5 
1.0 16:1.0 30:1.0 45:1.0 70:1.0 93:1.0 109:1.0 130:1.0 158:1.0 178:1.0 181:2.43446 182:3.93043 183:5.20103 184:3.92818 185:2.41861 186:6.36422 187:3.93392 188:2.57124 189:2.57005 190:-0.8 191:3.8 192:2.8 193:3.8 194:-1.6 195:-3.9 196:3.8 197:4.2 198:4.2 
1.0 6:1.0 38:1.0 45:1.0 67:1.0 97:1.0 111:1.0 139:1.0 147:1.0 178:1.0 181:0.0 182:2.57596 183:5.22466 184:4.52473 185:2.60739 186:5.32267 187:6.03664 188:4.48079 189:2.57235 190:-0.4 191:4.2 192:2.8 193:-3.2 194:-0.7 195:1.9 196:-0.9 197:-3.2 198:4.2 
1.0 20:1.0 30:1.0 41:1.0 70:1.0 90:1.0 104:1.0 121:1.0 142:1.0 170:1.0 181:6.55525 182:3.93581 183:1.53486 184:3.93492 185:3.93057 186:4.98431 187:1.5361 188:2.77426 189:3.92437 190:-1.3 191:3.8 192:1.8 193:3.8 194:3.8 195:-3.5 196:1.8 197:2.5 198:3.8 
1.0 15:1.0 30:1.0 48:1.0 63:1.0 85:1.0 110:1.0 129:1.0 143:1.0 178:1.0 181:7.27019 182:3.93401 183:3.91953 184:3.63289 185:5.18645 186:3.93579 187:6.3829 188:3.65398 189:2.57472 190:-4.5 191:3.8 192:4.5 193:-3.5 194:2.8 195:3.8 196:-3.9 197:-3.5 198:4.2 
1.0 5:1.0 30:1.0 41:1.0 61:1.0 96:1.0 101:1.0 130:1.0 146:1.0 178:1.0 181:5.19315 182:3.93419 183:1.53628 184:1.53685 185:2.43821 186:1.53653 187:3.93796 188:0.0 189:2.5711 190:2.8 191:3.8 192:1.8 193:1.8 194:-0.8 195:1.8 196:3.8 197:-0.4 198:4.2 
1.0 18:1.0 30:1.0 43:1.0 63:1.0 86:1.0 108:1.0 140:1.0 155:1.0 168:1.0 181:2.58598 182:3.93444 183:3.65151 184:3.68537 185:0.0 186:3.92333 187:6.54869 188:7.29824 189:3.91893 190:4.2 191:3.8 192:-3.5 193:-3.5 194:-0.4 195:4.5 196:-1.3 197:-4.5 198:4.5 
1.0 9:1.0 31:1.0 43:1.0 68:1.0 86:1.0 118:1.0 133:1.0 150:1.0 170:1.0 181:6.39395 182:5.32926 183:3.65353 184:3.92309 185:0.0 186:2.62381 187:2.41058 188:3.93107 189:3.92353 190:-3.9 191:1.9 192:-3.5 193:4.5 194:-0.4 195:4.2 196:-1.6 197:3.8 198:3.8 
1.0 1:1.0 30:1.0 60:1.0 66:1.0 81:1.0 110:1.0 130:1.0 150:1.0 161:1.0 181:1.5406 182:3.9319 183:6.4971 184:0.0 185:1.53688 186:3.93391 187:3.9323 188:3.92923 189:1.53778 190:1.8 191:3.8 192:-1.3 193:-0.4 194:1.8 195:3.8 196:3.8 197:3.8 198:1.8 
1.0 5:1.0 30:1.0 60:1.0 66:1.0 81:1.0 110:1.0 135:1.0 150:1.0 161:1.0 181:5.1991 182:3.9303 183:6.50473 184:0.0 185:1.53643 186:3.93519 187:7.28187 188:3.93 189:1.53697 190:2.8 191:3.8 192:-1.3 193:-0.4 194:1.8 195:3.8 196:-4.5 197:3.8 198:1.8 
1.0 10:1.0 30:1.0 50:1.0 63:1.0 100:1.0 111:1.0 137:1.0 156:1.0 177:1.0 181:3.93897 182:3.93457 183:3.93029 184:3.64895 185:6.58925 186:5.33926 187:2.59666 188:2.43267 189:2.60304 190:3.8 191:3.8 192:3.8 193:-3.5 194:-1.3 195:1.9 196:-0.7 197:-0.8 198:-0.7 
1.0 6:1.0 30:1.0 50:1.0 63:1.0 92:1.0 117:1.0 124:1.0 153:1.0 161:1.0 181:0.0 182:3.93463 183:3.93044 184:3.6626 185:3.65111 186:2.60948 187:4.96794 188:2.40729 189:1.53813 190:-0.4 191:3.8 192:3.8 193:-3.5 194:-3.5 195:-0.7 196:-3.5 197:-1.6 198:1.8 
1.0 20:1.0 27:1.0 50:1.0 66:1.0 86:1.0 108:1.0 124:1.0 146:1.0 170:1.0 181:6.55795 182:4.48889 183:3.93421 184:0.0 185:0.0 186:3.91879 187:4.98366 188:0.0 189:3.92578 190:-1.3 191:-3.2 192:3.8 193:-0.4 194:-0.4 195:4.5 196:-3.5 197:-0.4 198:3.8 
1.0 6:1.0 30:1.0 41:1.0 61:1.0 97:1.0 116:1.0 125:1.0 153:1.0 170:1.0 181:0.0 182:3.93375 183:1.53652 184:1.5368 185:2.61145 186:2.43162 187:5.19736 188:2.41187 189:3.92322 190:-0.4 191:3.8 192:1.8 193:1.8 194:-0.7 195:-0.8 196:2.8 197:-1.6 198:3.8 
1.0 7:1.0 30:1.0 46:1.0 72:1.0 98:1.0 109:1.0 140:1.0 150:1.0 178:1.0 181:4.54772 182:3.93468 183:0.0 184:3.73097 185:2.57743 186:6.38458 187:6.54941 188:3.93034 189:2.56966 190:-3.2 191:3.8 192:-0.4 193:-3.5 194:4.2 195:-3.9 196:-1.3 197:3.8 198:4.2 
1.0 18:1.0 30:1.0 60:1.0 62:1.0 98:1.0 107:1.0 134:1.0 144:1.0 168:1.0 181:2.58735 182:3.93313 183:6.56036 184:2.77364 185:2.57338 186:4.50254 187:5.00578 188:4.9858 189:3.91613 190:4.2 191:3.8 192:-1.3 193:2.5 194:4.2 195:-3.2 196:-3.5 197:-3.5 198:4.5 
1.0 12:1.0 30:1.0 59:1.0 72:1.0 97:1.0 105:1.0 137:1.0 155:1.0 170:1.0 181:3.74785 182:3.93056 183:6.04129 184:3.69544 185:2.60531 186:5.18055 187:2.61327 188:7.30087 189:3.92321 190:-3.5 191:3.8 192:-0.9 193:-3.5 194:-0.7 195:2.8 196:-0.7 197:-4.5 198:3.8 
1.0 18:1.0 28:1.0 50:1.0 61:1.0 86:1.0 113:1.0 128:1.0 153:1.0 178:1.0 181:2.58705 182:3.92003 183:3.93123 184:1.53651 185:0.0 186:2.41237 187:3.90267 188:2.4103 189:2.57024 190:4.2 191:4.5 192:3.8 193:1.8 194:-0.4 195:-1.6 196:4.5 197:-1.6 198:4.2 
0.2793371914741395 9:1.0 30:1.0 51:1.0 73:1.0 86:1.0 116:1.0 128:1.0 160:1.0 178:1.0 181:6.39392 182:3.93459 183:5.3124 184:2.41301 185:0.0 186:2.43805 187:3.91794 188:6.51533 189:2.57186 190:-3.9 191:3.8 192:1.9 193:-1.6 194:-0.4 195:-0.8 196:4.5 197:-1.3 198:4.2 
1.0 9:1.0 30:1.0 60:1.0 68:1.0 81:1.0 110:1.0 122:1.0 149:1.0 178:1.0 181:6.3928 182:3.93288 183:6.54611 184:3.92103 185:1.53413 186:3.93645 187:2.77225 188:6.38161 189:2.56765 190:-3.9 191:3.8 192:-1.3 193:4.5 194:1.8 195:3.8 196:2.5 197:-3.9 198:4.2 
1.0 9:1.0 28:1.0 41:1.0 63:1.0 83:1.0 115:1.0 128:1.0 158:1.0 178:1.0 181:6.39057 182:3.92218 183:1.53553 184:3.67178 185:3.64941 186:7.28713 187:3.91952 188:2.57326 189:2.57038 190:-3.9 191:4.5 192:1.8 193:-3.5 194:-3.5 195:-4.5 196:4.5 197:4.2 198:4.2 
1.0 15:1.0 30:1.0 54:1.0 64:1.0 81:1.0 110:1.0 121:1.0 158:1.0 178:1.0 181:7.34493 182:3.92894 183:5.02383 184:4.98938 185:1.53609 186:3.93647 187:1.53581 188:2.57391 189:2.56928 190:-4.5 191:3.8 192:-3.5 193:-3.5 194:1.8 195:3.8 196:1.8 197:4.2 198:4.2 
1.0 20:1.0 30:1.0 58:1.0 76:1.0 96:1.0 110:1.0 136:1.0 144:1.0 168:1.0 181:6.56844 182:3.93438 183:2.57079 184:2.43755 185:2.4365 186:3.93579 187:2.43655 188:4.9819 189:3.91613 190:-1.3 191:3.8 192:4.2 193:-0.8 194:-0.8 195:3.8 196:-0.8 197:-3.5 198:4.5 
1.0 10:1.0 31:1.0 50:1.0 78:1.0 81:1.0 107:1.0 140:1.0 141:1.0 168:1.0 181:3.94075 182:5.32845 183:3.93127 184:2.57414 185:1.53651 186:4.4876 187:6.54214 188:1.5355 189:3.91742 190:3.8 191:1.9 192:3.8 193:4.2 194:1.8 195:-3.2 196:-1.3 197:1.8 198:4.5 
1.0 5:1.0 30:1.0 45:1.0 70:1.0 81:1.0 119:1.0 128:1.0 151:1.0 170:1.0 181:5.1917 182:3.93208 183:5.18359 184:3.93256 185:1.53524 186:6.05577 187:3.91752 188:5.33779 189:3.92278 190:2.8 191:3.8 192:2.8 193:3.8 194:1.8 195:-0.9 196:4.5 197:1.9 198:3.8 
1.0 15:1.0 30:1.0 52:1.0 63:1.0 99:1.0 103:1.0 125:1.0 158:1.0 178:1.0 181:7.27332 182:3.93561 183:3.70462 184:3.63751 185:6.04128 186:3.67749 187:5.19214 188:2.57246 189:2.57065 190:-4.5 191:3.8 192:-3.5 193:-3.5 194:-0.9 195:-3.5 196:2.8 197:4.2 198:4.2 
1.0 16:1.0 38:1.0 50:1.0 70:1.0 99:1.0 111:1.0 121:1.0 156:1.0 178:1.0 181:2.43489 182:2.57651 183:3.93144 184:3.93266 185:6.02524 186:5.32717 187:1.53568 188:2.43818 189:2.5712 190:-0.8 191:4.2 192:3.8 193:3.8 194:-0.9 195:1.9 196:1.8 197:-0.8 198:4.2 
0.9066168643941251 5:1.0 30:1.0 60:1.0 66:1.0 81:1.0 110:1.0 130:1.0 141:1.0 161:1.0 181:5.1993 182:3.93082 183:6.50535 184:0.0 185:1.53601 186:3.93348 187:3.93081 188:1.53692 189:1.53756 190:2.8 191:3.8 192:-1.3 193:-0.4 194:1.8 195:3.8 196:3.8 197:1.8 198:1.8 
1.0 20:1.0 30:1.0 53:1.0 70:1.0 96:1.0 118:1.0 125:1.0 148:1.0 168:1.0 181:6.51696 182:3.92909 183:2.41589 184:3.93066 185:2.43475 186:2.57618 187:5.19915 188:3.91765 189:3.91426 190:-1.3 191:3.8 192:-1.6 193:3.8 194:-0.8 195:4.2 196:2.8 197:4.5 198:4.5 
1.0 18:1.0 28:1.0 50:1.0 73:1.0 81:1.0 102:1.0 121:1.0 145:1.0 178:1.0 181:2.58803 182:3.92341 183:3.92707 184:2.41379 185:1.53635 186:2.77224 187:1.5359 188:5.19275 189:2.57259 190:4.2 191:4.5 192:3.8 193:-1.6 194:1.8 195:2.5 196:1.8 197:2.8 198:4.2 
1.0 8:1.0 30:1.0 56:1.0 73:1.0 97:1.0 101:1.0 133:1.0 156:1.0 178:1.0 181:3.92467 182:3.93446 183:2.43032 184:2.41634 185:2.61189 186:1.54048 187:2.40951 188:2.43849 189:2.57417 190:4.5 191:3.8 192:-0.8 193:-1.6 194:-0.7 195:1.8 196:-1.6 197:-0.8 198:4.2 
1.0 16:1.0 30:1.0 56:1.0 61:1.0 100:1.0 112:1.0 128:1.0 149:1.0 170:1.0 181:2.43443 182:3.93578 183:2.43565 184:1.53701 185:6.56176 186:3.72576 187:3.92939 188:6.3819 189:3.92312 190:-0.8 191:3.8 192:-0.8 193:1.8 194:-1.3 195:-3.5 196:4.5 197:-3.9 198:3.8 
1.0 10:1.0 30:1.0 43:1.0 70:1.0 85:1.0 106:1.0 133:1.0 144:1.0 178:1.0 181:3.93811 182:3.93378 183:3.64658 184:3.92709 185:5.18721 186:0.0 187:2.41371 188:4.97081 189:2.57286 190:3.8 191:3.8 192:-3.5 193:3.8 194:2.8 195:-0.4 196:-1.6 197:-3.5 198:4.2 
1.0 15:1.0 31:1.0 53:1.0 64:1.0 81:1.0 101:1.0 133:1.0 153:1.0 178:1.0 181:7.24962 182:5.32623 183:2.41379 184:4.97539 185:1.53653 186:1.53714 187:2.41194 188:2.4046 189:2.57106 190:-4.5 191:1.9 192:-1.6 193:-3.5 194:1.8 195:1.8 196:-1.6 197:-1.6 198:4.2 
1.0 20:1.0 30:1.0 41:1.0 75:1.0 92:1.0 101:1.0 138:1.0 153:1.0 178:1.0 181:6.55428 182:3.93615 183:1.53521 184:7.30126 185:3.71095 186:1.53698 187:2.62374 188:2.40714 189:2.56938 190:-1.3 191:3.8 192:1.8 193:-4.5 194:-3.5 195:1.8 196:4.2 197:-1.6 198:4.2 
1.0 16:1.0 30:1.0 59:1.0 69:1.0 83:1.0 106:1.0 121:1.0 153:1.0 170:1.0 181:2.43394 182:3.93285 183:6.02493 184:6.3823 185:3.60316 186:0.0 187:1.5379 188:2.40964 189:3.92345 190:-0.8 191:3.8 192:-0.9 193:-3.9 194:-3.5 195:-0.4 196:1.8 197:-1.6 198:3.8 
1.0 1:1.0 31:1.0 54:1.0 77:1.0 91:1.0 110:1.0 125:1.0 157:1.0 171:1.0 181:1.54003 182:5.33709 183:5.01711 184:2.6077 185:5.32188 186:3.93179 187:5.17289 188:2.61047 189:5.31351 190:1.8 191:1.9 192:-3.5 193:-0.7 194:1.9 195:3.8 196:2.8 197:-0.7 198:1.9 
1.0 5:1.0 38:1.0 46:1.0 78:1.0 88:1.0 108:1.0 130:1.0 146:1.0 178:1.0 181:5.17649 182:2.57368 183:0.0 184:2.57366 185:3.92088 186:3.91844 187:3.93705 188:0.0 189:2.57096 190:2.8 191:4.2 192:-0.4 193:4.2 194:4.5 195:4.5 196:3.8 197:-0.4 198:4.2 
0.8958444399289186 20:1.0 30:1.0 58:1.0 76:1.0 88:1.0 105:1.0 130:1.0 147:1.0 170:1.0 181:6.56664 182:3.93475 183:2.57151 184:2.4351 185:3.9214 186:5.19419 187:3.93164 188:4.49413 189:3.92381 190:-1.3 191:3.8 192:4.2 193:-0.8 194:4.5 195:2.8 196:3.8 197:-3.2 198:3.8 
1.0 10:1.0 30:1.0 41:1.0 78:1.0 81:1.0 118:1.0 140:1.0 141:1.0 178:1.0 181:3.93815 182:3.93406 183:1.53563 184:2.57551 185:1.53622 186:2.57628 187:6.54662 188:1.53621 189:2.57081 190:3.8 191:3.8 192:1.8 193:4.2 194:1.8 195:4.2 196:-1.3 197:1.8 198:4.2 
1.0 7:1.0 28:1.0 45:1.0 80:1.0 94:1.0 110:1.0 121:1.0 152:1.0 178:1.0 181:4.54287 182:3.92128 183:5.17275 184:6.56399 185:5.01427 186:3.93751 187:1.53538 188:3.72423 189:2.57253 190:-3.2 191:4.5 192:2.8 193:-1.3 194:-3.5 195:3.8 196:1.8 197:-3.5 198:4.2 
1.0 17:1.0 30:1.0 50:1.0 62:1.0 90:1.0 108:1.0 133:1.0 157:1.0 161:1.0 181:2.53283 182:3.93565 183:3.93268 184:2.77206 185:3.93335 186:3.90551 187:2.41376 188:2.61474 189:1.53798 190:-0.7 191:3.8 192:3.8 193:2.5 194:3.8 195:4.5 196:-1.6 197:-0.7 198:1.8 
1.0 1:1.0 30:1.0 41:1.0 61:1.0 81:1.0 117:1.0 133:1.0 151:1.0 178:1.0 181:1.54081 182:3.93463 183:1.53647 184:1.53732 185:1.53611 186:2.54107 187:2.41106 188:5.31522 189:2.57063 190:1.8 191:3.8 192:1.8 193:1.8 194:1.8 195:-0.7 196:-1.6 197:1.9 198:4.2 
1.0 11:1.0 31:1.0 42:1.0 73:1.0 85:1.0 110:1.0 125:1.0 150:1.0 171:1.0 181:5.33593 182:5.35878 183:2.75793 184:2.41135 185:5.15809 186:3.93136 187:5.18325 188:3.93116 189:5.31848 190:1.9 191:1.9 192:2.5 193:-1.6 194:2.8 195:3.8 196:2.8 197:3.8 198:1.9 
1.0 18:1.0 30:1.0 50:1.0 65:1.0 90:1.0 101:1.0 125:1.0 158:1.0 178:1.0 181:2.58748 182:3.93462 183:3.93164 184:5.17895 185:3.93284 186:1.53511 187:5.20774 188:2.57317 189:2.57252 190:4.2 191:3.8 192:3.8 193:2.8 194:3.8 195:1.8 196:2.8 197:4.2 198:4.2 
1.0 17:1.0 38:1.0 48:1.0 67:1.0 90:1.0 104:1.0 139:1.0 150:1.0 170:1.0 181:2.53433 182:2.57368 183:3.92077 184:4.49556 185:3.92894 186:4.98463 187:6.05347 188:3.92838 189:3.92265 190:-0.7 191:4.2 192:4.5 193:-3.2 194:3.8 195:-3.5 196:-0.9 197:3.8 198:3.8 
1.0 1:1.0 30:1.0 60:1.0 61:1.0 82:1.0 118:1.0 130:1.0 141:1.0 161:1.0 181:1.53966 182:3.93354 183:6.53359 184:1.53653 185:2.7759 186:2.57436 187:3.93468 188:1.53633 189:1.53822 190:1.8 191:3.8 192:-1.3 193:1.8 194:2.5 195:4.2 196:3.8 197:1.8 198:1.8 
1.0 20:1.0 30:1.0 56:1.0 61:1.0 89:1.0 108:1.0 137:1.0 157:1.0 170:1.0 181:6.54736 182:3.93479 183:2.43794 184:1.53675 185:6.38659 186:3.9203 187:2.61041 188:2.61875 189:3.92373 190:-1.3 191:3.8 192:-0.8 193:1.8 194:-3.9 195:4.5 196:-0.7 197:-0.7 198:3.8 
1.0 8:1.0 30:1.0 43:1.0 68:1.0 81:1.0 106:1.0 125:1.0 144:1.0 168:1.0 181:3.92355 182:3.93351 183:3.67136 184:3.92136 185:1.5372 186:0.0 187:5.21749 188:4.98191 189:3.91689 190:4.5 191:3.8 192:-3.5 193:4.5 194:1.8 195:-0.4 196:2.8 197:-3.5 198:4.5 
1.0 12:1.0 28:1.0 48:1.0 63:1.0 99:1.0 114:1.0 125:1.0 141:1.0 168:1.0 181:3.75367 182:3.92118 183:3.91764 184:3.63828 185:6.03361 186:5.01328 187:5.18546 188:1.53577 189:3.91605 190:-3.5 191:4.5 192:4.5 193:-3.5 194:-0.9 195:-3.5 196:2.8 197:1.8 198:4.5 
1.0 8:1.0 30:1.0 45:1.0 77:1.0 85:1.0 110:1.0 127:1.0 150:1.0 161:1.0 181:3.92479 182:3.935 183:5.16893 184:2.61271 185:5.19214 186:3.9331 187:4.4909 188:3.92924 189:1.53729 190:4.5 191:3.8 192:2.8 193:-0.7 194:2.8 195:3.8 196:-3.2 197:3.8 198:1.8 
1.0 9:1.0 38:1.0 50:1.0 76:1.0 88:1.0 111:1.0 121:1.0 145:1.0 168:1.0 181:6.39221 182:2.57215 183:3.93571 184:2.434 185:3.92087 186:5.32804 187:1.5356 188:5.1897 189:3.91471 190:-3.9 191:4.2 192:3.8 193:-0.8 194:4.5 195:1.9 196:1.8 197:2.8 198:4.5 
1.0 10:1.0 30:1.0 56:1.0 69:1.0 92:1.0 117:1.0 125:1.0 160:1.0 170:1.0 181:3.93872 182:3.93513 183:2.43466 184:6.38673 185:3.69755 186:2.61433 187:5.19053 188:6.5154 189:3.92431 190:3.8 191:3.8 192:-0.8 193:-3.9 194:-3.5 195:-0.7 196:2.8 197:-1.3 198:3.8 
1.0 10:1.0 28:1.0 57:1.0 72:1.0 100:1.0 110:1.0 133:1.0 156:1.0 178:1.0 181:3.94037 182:3.92232 183:2.61036 184:3.71477 185:6.497 186:3.92684 187:2.41136 188:2.43213 189:2.57419 190:3.8 191:4.5 192:-0.7 193:-3.5 194:-1.3 195:3.8 196:-1.6 197:-0.8 198:4.2 
1.0 1:1.0 30:1.0 60:1.0 69:1.0 86:1.0 105:1.0 134:1.0 145:1.0 168:1.0 181:1.53967 182:3.9355 183:6.46963 184:6.382 185:0.0 186:5.20949 187:5.01027 188:5.19386 189:3.91557 190:1.8 191:3.8 192:-1.3 193:-3.9 194:-0.4 195:2.8 196:-3.5 197:2.8 198:4.5 
1.0 5:1.0 38:1.0 41:1.0 72:1.0 85:1.0 116:1.0 131:1.0 144:1.0 170:1.0 181:5.1877 182:2.57545 183:1.53605 184:3.7189 185:5.18791 186:2.43601 187:5.33219 188:4.98385 189:3.92252 190:2.8 191:4.2 192:1.8 193:-3.5 194:2.8 195:-0.8 196:1.9 197:-3.5 198:3.8 
1.0 20:1.0 31:1.0 43:1.0 63:1.0 98:1.0 118:1.0 130:1.0 146:1.0 178:1.0 181:6.554 182:5.33201 183:3.68164 184:3.62928 185:2.57579 186:2.57374 187:3.93724 188:0.0 189:2.57092 190:-1.3 191:1.9 192:-3.5 193:-3.5 194:4.2 195:4.2 196:3.8 197:-0.4 198:4.2 
1.0 10:1.0 30:1.0 56:1.0 72:1.0 97:1.0 110:1.0 121:1.0 144:1.0 170:1.0 181:3.93803 182:3.9346 183:2.43473 184:3.68501 185:2.61077 186:3.93502 187:1.53623 188:4.98281 189:3.92333 190:3.8 191:3.8 192:-0.8 193:-3.5 194:-0.7 195:3.8 196:1.8 197:-3.5 198:3.8 
1.0 15:1.0 30:1.0 58:1.0 63:1.0 81:1.0 111:1.0 138:1.0 160:1.0 177:1.0 181:7.27884 182:3.93493 183:2.57257 184:3.64783 185:1.53703 186:5.33269 187:2.57608 188:6.52179 189:2.60589 190:-4.5 191:3.8 192:4.2 193:-3.5 194:1.8 195:1.9 196:4.2 197:-1.3 198:-0.7 
1.0 4:1.0 31:1.0 41:1.0 63:1.0 100:1.0 108:1.0 125:1.0 145:1.0 178:1.0 181:4.98144 182:5.33138 183:1.53629 184:3.64049 185:6.53263 186:3.92438 187:5.18599 188:5.19017 189:2.57227 190:-3.5 191:1.9 192:1.8 193:-3.5 194:-1.3 195:4.5 196:2.8 197:2.8 198:4.2 
1.0 9:1.0 28:1.0 50:1.0 76:1.0 98:1.0 105:1.0 125:1.0 150:1.0 161:1.0 181:6.39256 182:3.92128 183:3.93414 184:2.43371 185:2.57868 186:5.19131 187:5.19159 188:3.93019 189:1.53634 190:-3.9 191:4.5 192:3.8 193:-0.8 194:4.2 195:2.8 196:2.8 197:3.8 198:1.8 
1.0 5:1.0 26:1.0 41:1.0 74:1.0 91:1.0 106:1.0 139:1.0 153:1.0 178:1.0 181:5.17047 182:0.0 183:1.53781 184:5.01605 185:5.33208 186:0.0 187:6.02738 188:2.41284 189:2.56969 190:2.8 191:-0.4 192:1.8 193:-3.5 194:1.9 195:-0.4 196:-0.9 197:-1.6 198:4.2 
1.0 10:1.0 30:1.0 47:1.0 63:1.0 88:1.0 106:1.0 129:1.0 153:1.0 178:1.0 181:3.93815 182:3.93631 183:4.5084 184:3.63915 185:3.92413 186:0.0 187:6.37627 188:2.41061 189:2.57068 190:3.8 191:3.8 192:-3.2 193:-3.5 194:4.5 195:-0.4 196:-3.9 197:-1.6 198:4.2 
0.5654571210479353 5:1.0 30:1.0 57:1.0 74:1.0 92:1.0 105:1.0 126:1.0 153:1.0 178:1.0 181:5.2249 182:3.93709 183:2.60073 184:5.01226 185:3.71932 186:5.18002 187:0.0 188:2.41222 189:2.5684 190:2.8 191:3.8 192:-0.7 193:-3.5 194:-3.5 195:2.8 196:-0.4 197:-1.6 198:4.2 
1.0 9:1.0 34:1.0 50:1.0 64:1.0 96:1.0 118:1.0 131:1.0 160:1.0 170:1.0 181:6.39222 182:5.01827 183:3.93206 184:4.98463 185:2.43583 186:2.57623 187:5.32317 188:6.51341 189:3.92288 190:-3.9 191:-3.5 192:3.8 193:-3.5 194:-0.8 195:4.2 196:1.9 197:-1.3 198:3.8 
1.0 8:1.0 31:1.0 50:1.0 78:1.0 96:1.0 110:1.0 123:1.0 157:1.0 178:1.0 181:3.92351 182:5.32602 183:3.93204 184:2.57242 185:2.43684 186:3.93303 187:3.65183 188:2.61011 189:2.57095 190:4.5 191:1.9 192:3.8 193:4.2 194:-0.8 195:3.8 196:-3.5 197:-0.7 198:4.2 
1.0 20:1.0 30:1.0 58:1.0 61:1.0 100:1.0 114:1.0 121:1.0 157:1.0 178:1.0 181:6.57468 182:3.93406 183:2.57434 184:1.53668 185:6.5586 186:5.01761 187:1.53478 188:2.60936 189:2.56978 190:-1.3 191:3.8 192:4.2 193:1.8 194:-1.3 195:-3.5 196:1.8 197:-0.7 198:4.2 
1.0 10:1.0 30:1.0 43:1.0 73:1.0 90:1.0 120:1.0 125:1.0 144:1.0 178:1.0 181:3.93778 182:3.93059 183:3.69221 184:2.41775 185:3.9324 186:6.54994 187:5.19414 188:4.98211 189:2.57272 190:3.8 191:3.8 192:-3.5 193:-1.6 194:3.8 195:-1.3 196:2.8 197:-3.5 198:4.2 
1.0 18:1.0 30:1.0 45:1.0 76:1.0 86:1.0 113:1.0 136:1.0 153:1.0 170:1.0 181:2.58826 182:3.9329 183:5.15398 184:2.43569 185:0.0 186:2.41273 187:2.4352 188:2.41445 189:3.92346 190:4.2 191:3.8 192:2.8 193:-0.8 194:-0.4 195:-1.6 196:-0.8 197:-1.6 198:3.8 
1.0 6:1.0 30:1.0 45:1.0 78:1.0 96:1.0 110:1.0 133:1.0 158:1.0 178:1.0 181:0.0 182:3.93578 183:5.17054 184:2.57588 185:2.4345 186:3.92561 187:2.40924 188:2.57441 189:2.57038 190:-0.4 191:3.8 192:2.8 193:4.2 194:-0.8 195:3.8 196:-1.6 197:4.2 198:4.2 
1.0 5:1.0 38:1.0 46:1.0 69:1.0 97:1.0 118:1.0 139:1.0 145:1.0 178:1.0 181:5.17563 182:2.57376 183:0.0 184:6.39054 185:2.60524 186:2.57813 187:6.01214 188:5.1853 189:2.57333 190:2.8 191:4.2 192:-0.4 193:-3.9 194:-0.7 195:4.2 196:-0.9 197:2.8 198:4.2 
1.0 10:1.0 31:1.0 58:1.0 63:1.0 96:1.0 105:1.0 123:1.0 153:1.0 178:1.0 181:3.94087 182:5.33148 183:2.57309 184:3.6552 185:2.43359 186:5.21111 187:3.674 188:2.40426 189:2.56906 190:3.8 191:1.9 192:4.2 193:-3.5 194:-0.8 195:2.8 196:-3.5 197:-1.6 198:4.2 
1.0 14:1.0 30:1.0 50:1.0 74:1.0 81:1.0 112:1.0 133:1.0 148:1.0 170:1.0 181:5.01477 182:3.93518 183:3.93096 184:5.01667 185:1.53618 186:3.71936 187:2.40904 188:3.91476 189:3.92472 190:-3.5 191:3.8 192:3.8 193:-3.5 194:1.8 195:-3.5 196:-1.6 197:4.5 198:3.8 
1.0 10:1.0 30:1.0 45:1.0 66:1.0 100:1.0 101:1.0 138:1.0 160:1.0 178:1.0 181:3.9375 182:3.93129 183:5.16793 184:0.0 185:6.55446 186:1.53615 187:2.5749 188:6.51612 189:2.5723 190:3.8 191:3.8 192:2.8 193:-0.4 194:-1.3 195:1.8 196:4.2 197:-1.3 198:4.2 
0.5745393246994601 8:1.0 30:1.0 45:1.0 62:1.0 85:1.0 110:1.0 121:1.0 141:1.0 178:1.0 181:3.92352 182:3.93224 183:5.17654 184:2.77062 185:5.17931 186:3.93312 187:1.53533 188:1.53647 189:2.56919 190:4.5 191:3.8 192:2.8 193:2.5 194:2.8 195:3.8 196:1.8 197:1.8 198:4.2 
1.0 1:1.0 30:1.0 41:1.0 73:1.0 96:1.0 117:1.0 131:1.0 149:1.0 168:1.0 181:1.53975 182:3.9324 183:1.53754 184:2.4144 185:2.43136 186:2.61716 187:5.31995 188:6.3758 189:3.91704 190:1.8 191:3.8 192:1.8 193:-1.6 194:-0.8 195:-0.7 196:1.9 197:-3.9 198:4.5 
1.0 5:1.0 30:1.0 53:1.0 63:1.0 97:1.0 115:1.0 125:1.0 146:1.0 178:1.0 181:5.18845 182:3.93037 183:2.41216 184:3.68845 185:2.61481 186:7.29011 187:5.17004 188:0.0 189:2.57104 190:2.8 191:3.8 192:-1.6 193:-3.5 194:-0.7 195:-4.5 196:2.8 197:-0.4 198:4.2 
1.0 8:1.0 30:1.0 52:1.0 73:1.0 100:1.0 111:1.0 133:1.0 156:1.0 178:1.0 181:3.92638 182:3.93151 183:3.72813 184:2.42293 185:6.50292 186:5.31438 187:2.41554 188:2.42968 189:2.57433 190:4.5 191:3.8 192:-3.5 193:-1.6 194:-1.3 195:1.9 196:-1.6 197:-0.8 198:4.2 
1.0 10:1.0 28:1.0 51:1.0 65:1.0 84:1.0 114:1.0 140:1.0 145:1.0 168:1.0 181:3.94112 182:3.92202 183:5.32504 184:5.19314 185:4.98457 186:5.01544 187:6.53985 188:5.19226 189:3.91489 190:3.8 191:4.5 192:1.9 193:2.8 194:-3.5 195:-3.5 196:-1.3 197:2.8 198:4.5 
1.0 5:1.0 38:1.0 45:1.0 68:1.0 90:1.0 117:1.0 121:1.0 148:1.0 170:1.0 181:5.19174 182:2.57518 183:5.20364 184:3.92344 185:3.92882 186:2.60657 187:1.5359 188:3.91752 189:3.92313 190:2.8 191:4.2 192:2.8 193:4.5 194:3.8 195:-0.7 196:1.8 197:4.5 198:3.8 
1.0 10:1.0 30:1.0 60:1.0 61:1.0 87:1.0 108:1.0 132:1.0 141:1.0 170:1.0 181:3.93812 182:3.93219 183:6.54178 184:1.53624 185:4.52199 186:3.91993 187:3.71328 188:1.53733 189:3.92386 190:3.8 191:3.8 192:-1.3 193:1.8 194:-3.2 195:4.5 196:-3.5 197:1.8 198:3.8 
1.0 15:1.0 30:1.0 60:1.0 63:1.0 90:1.0 117:1.0 135:1.0 160:1.0 161:1.0 181:7.27724 182:3.9303 183:6.54476 184:3.66523 185:3.93452 186:2.60492 187:7.28046 188:6.50872 189:1.53798 190:-4.5 191:3.8 192:-1.3 193:-3.5 194:3.8 195:-0.7 196:-4.5 197:-1.3 198:1.8 
1.0 13:1.0 30:1.0 45:1.0 73:1.0 86:1.0 108:1.0 137:1.0 155:1.0 178:1.0 181:2.36805 182:3.93335 183:5.19732 184:2.41266 185:0.0 186:3.92346 187:2.61038 188:7.31093 189:2.56696 190:-1.6 191:3.8 192:2.8 193:-1.6 194:-0.4 195:4.5 196:-0.7 197:-4.5 198:4.2 
1.0 6:1.0 30:1.0 50:1.0 65:1.0 86:1.0 101:1.0 121:1.0 146:1.0 178:1.0 181:0.0 182:3.93558 183:3.93019 184:5.16803 185:0.0 186:1.5369 187:1.53822 188:0.0 189:2.5717 190:-0.4 191:3.8 192:3.8 193:2.8 194:-0.4 195:1.8 196:1.8 197:-0.4 198:4.2 
1.0 5:1.0 30:1.0 60:1.0 78:1.0 98:1.0 102:1.0 136:1.0 150:1.0 161:1.0 181:5.1919 182:3.93227 183:6.55345 184:2.57276 185:2.57256 186:2.77429 187:2.4357 188:3.93058 189:1.53759 190:2.8 191:3.8 192:-1.3 193:4.2 194:4.2 195:2.5 196:-0.8 197:3.8 198:1.8 
1.0 7:1.0 34:1.0 45:1.0 77:1.0 96:1.0 112:1.0 133:1.0 144:1.0 178:1.0 181:4.54871 182:5.01645 183:5.16158 184:2.61566 185:2.43143 186:3.7146 187:2.40919 188:4.98047 189:2.57082 190:-3.2 191:-3.5 192:2.8 193:-0.7 194:-0.8 195:-3.5 196:-1.6 197:-3.5 198:4.2 
0.9136698282210162 20:1.0 30:1.0 41:1.0 64:1.0 92:1.0 117:1.0 125:1.0 158:1.0 178:1.0 181:6.55683 182:3.9354 183:1.53458 184:4.98521 185:3.68337 186:2.6136 187:5.20146 188:2.57408 189:2.57193 190:-1.3 191:3.8 192:1.8 193:-3.5 194:-3.5 195:-0.7 196:2.8 197:4.2 198:4.2 
1.0 8:1.0 38:1.0 50:1.0 76:1.0 87:1.0 108:1.0 130:1.0 153:1.0 170:1.0 181:3.92427 182:2.57422 183:3.93378 184:2.4342 185:4.49142 186:3.92085 187:3.92662 188:2.41393 189:3.92363 190:4.5 191:4.2 192:3.8 193:-0.8 194:-3.2 195:4.5 196:3.8 197:-1.6 198:3.8 
1.0 1:1.0 31:1.0 41:1.0 66:1.0 96:1.0 108:1.0 123:1.0 150:1.0 170:1.0 181:1.54043 182:5.32905 183:1.53692 184:0.0 185:2.43954 186:3.91844 187:3.64389 188:3.93065 189:3.92381 190:1.8 191:1.9 192:1.8 193:-0.4 194:-0.8 195:4.5 196:-3.5 197:3.8 198:3.8 
1.0 12:1.0 31:1.0 58:1.0 73:1.0 85:1.0 105:1.0 133:1.0 153:1.0 178:1.0 181:3.74691 182:5.33408 183:2.62265 184:2.41853 185:5.1913 186:5.15615 187:2.41378 188:2.41419 189:2.57125 190:-3.5 191:1.9 192:4.2 193:-1.6 194:2.8 195:2.8 196:-1.6 197:-1.6 198:4.2 
1.0 5:1.0 37:1.0 51:1.0 75:1.0 90:1.0 110:1.0 136:1.0 153:1.0 178:1.0 181:5.2012 182:2.60847 183:5.33129 184:7.28657 185:3.93146 186:3.93422 187:2.43033 188:2.41186 189:2.56992 190:2.8 191:-0.7 192:1.9 193:-4.5 194:3.8 195:3.8 196:-0.8 197:-1.6 198:4.2 
1.0 6:1.0 31:1.0 56:1.0 70:1.0 90:1.0 104:1.0 140:1.0 146:1.0 178:1.0 181:0.0 182:5.33187 183:2.43207 184:3.93332 185:3.9333 186:4.97429 187:6.51738 188:0.0 189:2.57043 190:-0.4 191:1.9 192:-0.8 193:3.8 194:3.8 195:-3.5 196:-1.3 197:-0.4 198:4.2 
1.0 15:1.0 31:1.0 48:1.0 61:1.0 88:1.0 116:1.0 121:1.0 149:1.0 178:1.0 181:7.27258 182:5.32781 183:3.92099 184:1.53655 185:3.9198 186:2.43505 187:1.53777 188:6.37969 189:2.56852 190:-4.5 191:1.9 192:4.5 193:1.8 194:4.5 195:-0.8 196:1.8 197:-3.9 198:4.2 
1.0 20:1.0 30:1.0 55:1.0 66:1.0 87:1.0 117:1.0 124:1.0 156:1.0 168:1.0 181:6.55763 182:3.93552 183:7.24477 184:0.0 185:4.50215 186:2.60906 187:4.98447 188:2.43805 189:3.91645 190:-1.3 191:3.8 192:-4.5 193:-0.4 194:-3.2 195:-0.7 196:-3.5 197:-0.8 198:4.5 
1.0 18:1.0 30:1.0 57:1.0 67:1.0 86:1.0 110:1.0 121:1.0 156:1.0 178:1.0 181:2.5874 182:3.93082 183:2.60666 184:4.49603 185:0.0 186:3.93618 187:1.53569 188:2.43844 189:2.57214 190:4.2 191:3.8 192:-0.7 193:-3.2 194:-0.4 195:3.8 196:1.8 197:-0.8 198:4.2 
1.0 20:1.0 38:1.0 50:1.0 63:1.0 87:1.0 110:1.0 128:1.0 158:1.0 178:1.0 181:6.55232 182:2.57288 183:3.93291 184:3.66283 185:4.48758 186:3.93477 187:3.92002 188:2.57161 189:2.56932 190:-1.3 191:4.2 192:3.8 193:-3.5 194:-3.2 195:3.8 196:4.5 197:4.2 198:4.2 
1.0 5:1.0 30:1.0 47:1.0 80:1.0 82:1.0 112:1.0 136:1.0 160:1.0 161:1.0 181:5.19943 182:3.93451 183:4.50877 184:6.56064 185:2.77613 186:3.70491 187:2.43288 188:6.51414 189:1.53771 190:2.8 191:3.8 192:-3.2 193:-1.3 194:2.5 195:-3.5 196:-0.8 197:-1.3 198:1.8 
1.0 12:1.0 30:1.0 59:1.0 72:1.0 86:1.0 108:1.0 138:1.0 153:1.0 177:1.0 181:3.74588 182:3.93259 183:6.03392 184:3.72935 185:0.0 186:3.92622 187:2.62361 188:2.40938 189:2.60266 190:-3.5 191:3.8 192:-0.9 193:-3.5 194:-0.4 195:4.5 196:4.2 197:-1.6 198:-0.7 
1.0 6:1.0 21:1.0 50:1.0 63:1.0 98:1.0 116:1.0 121:1.0 156:1.0 178:1.0 181:0.0 182:1.53703 183:3.93264 184:3.63294 185:2.57552 186:2.43835 187:1.53729 188:2.4381 189:2.57278 190:-0.4 191:1.8 192:3.8 193:-3.5 194:4.2 195:-0.8 196:1.8 197:-0.8 198:4.2 
1.0 15:1.0 30:1.0 58:1.0 63:1.0 83:1.0 105:1.0 130:1.0 150:1.0 178:1.0 181:7.28329 182:3.93494 183:2.57319 184:3.63505 185:3.64666 186:5.20081 187:3.93471 188:3.92989 189:2.56927 190:-4.5 191:3.8 192:4.2 193:-3.5 194:-3.5 195:2.8 196:3.8 197:3.8 198:4.2 
1.0 11:1.0 28:1.0 48:1.0 71:1.0 90:1.0 108:1.0 133:1.0 157:1.0 178:1.0 181:5.33584 182:3.91953 183:3.92236 184:5.32259 185:3.92889 186:3.90494 187:2.41228 188:2.61392 189:2.57155 190:1.9 191:4.5 192:4.5 193:1.9 194:3.8 195:4.5 196:-1.6 197:-0.7 198:4.2 
1.0 20:1.0 30:1.0 45:1.0 77:1.0 85:1.0 117:1.0 128:1.0 160:1.0 177:1.0 181:6.54787 182:3.93463 183:5.17056 184:2.61322 185:5.1922 186:2.61229 187:3.92437 188:6.52033 189:2.60458 190:-1.3 191:3.8 192:2.8 193:-0.7 194:2.8 195:-0.7 196:4.5 197:-1.3 198:-0.7 
1.0 9:1.0 30:1.0 57:1.0 73:1.0 90:1.0 102:1.0 138:1.0 157:1.0 170:1.0 181:6.39494 182:3.93075 183:2.53434 184:2.41267 185:3.92984 186:2.7706 187:2.57743 188:2.61057 189:3.92403 190:-3.9 191:3.8 192:-0.7 193:-1.6 194:3.8 195:2.5 196:4.2 197:-0.7 198:3.8 
1.0 15:1.0 30:1.0 55:1.0 76:1.0 96:1.0 118:1.0 133:1.0 146:1.0 178:1.0 181:7.27902 182:3.93673 183:7.27595 184:2.43605 185:2.43444 186:2.62255 187:2.41049 188:0.0 189:2.57358 190:-4.5 191:3.8 192:-4.5 193:-0.8 194:-0.8 195:4.2 196:-1.6 197:-0.4 198:4.2 
1.0 5:1.0 31:1.0 41:1.0 80:1.0 97:1.0 117:1.0 136:1.0 147:1.0 168:1.0 181:5.17908 182:5.32917 183:1.53465 184:6.56743 185:2.6103 186:2.60487 187:2.43433 188:4.49053 189:3.91328 190:2.8 191:1.9 192:1.8 193:-1.3 194:-0.7 195:-0.7 196:-0.8 197:-3.2 198:4.5 
1.0 20:1.0 30:1.0 59:1.0 73:1.0 86:1.0 113:1.0 138:1.0 157:1.0 161:1.0 181:6.55957 182:3.93411 183:6.03447 184:2.41767 185:0.0 186:2.41472 187:2.57698 188:2.61006 189:1.53756 190:-1.3 191:3.8 192:-0.9 193:-1.6 194:-0.4 195:-1.6 196:4.2 197:-0.7 198:1.8 
1.0 5:1.0 38:1.0 43:1.0 77:1.0 91:1.0 116:1.0 128:1.0 160:1.0 168:1.0 181:5.19985 182:2.57448 183:3.62626 184:2.61107 185:5.33164 186:2.43205 187:3.92094 188:6.5204 189:3.91684 190:2.8 191:4.2 192:-3.5 193:-0.7 194:1.9 195:-0.8 196:4.5 197:-1.3 198:4.5 
1.0 10:1.0 30:1.0 58:1.0 74:1.0 95:1.0 118:1.0 137:1.0 156:1.0 178:1.0 181:3.93984 182:3.93505 183:2.57195 184:5.01581 185:7.25014 186:2.57351 187:2.61009 188:2.43772 189:2.57223 190:3.8 191:3.8 192:4.2 193:-3.5 194:-4.5 195:4.2 196:-0.7 197:-0.8 198:4.2 
1.0 5:1.0 30:1.0 49:1.0 63:1.0 98:1.0 111:1.0 138:1.0 144:1.0 168:1.0 181:5.20072 182:3.93515 183:6.38543 184:3.67279 185:2.57665 186:5.32813 187:2.57274 188:4.98239 189:3.91557 190:2.8 191:3.8 192:-3.9 193:-3.5 194:4.2 195:1.9 196:4.2 197:-3.5 198:4.5 
1.0 8:1.0 28:1.0 56:1.0 63:1.0 90:1.0 116:1.0 128:1.0 145:1.0 168:1.0 181:3.92133 182:3.92027 183:2.43567 184:3.63263 185:3.93288 186:2.4354 187:3.92158 188:5.18935 189:3.9164 190:4.5 191:4.5 192:-0.8 193:-3.5 194:3.8 195:-0.8 196:4.5 197:2.8 198:4.5 
1.0 6:1.0 30:1.0 57:1.0 72:1.0 86:1.0 116:1.0 127:1.0 160:1.0 178:1.0 181:0.0 182:3.93309 183:2.60318 184:3.75144 185:0.0 186:2.43922 187:4.48304 188:6.5154 189:2.57254 190:-0.4 191:3.8 192:-0.7 193:-3.5 194:-0.4 195:-0.8 196:-3.2 197:-1.3 198:4.2 
1.0 17:1.0 31:1.0 50:1.0 70:1.0 86:1.0 118:1.0 125:1.0 157:1.0 178:1.0 181:2.53546 182:5.33083 183:3.92774 184:3.93465 185:0.0 186:2.57576 187:5.18103 188:2.6088 189:2.57117 190:-0.7 191:1.9 192:3.8 193:3.8 194:-0.4 195:4.2 196:2.8 197:-0.7 198:4.2 
1.0 5:1.0 37:1.0 41:1.0 76:1.0 98:1.0 116:1.0 137:1.0 158:1.0 178:1.0 181:5.19386 182:2.61029 183:1.53616 184:2.43683 185:2.57652 186:2.43346 187:2.61081 188:2.57361 189:2.56965 190:2.8 191:-0.7 192:1.8 193:-0.8 194:4.2 195:-0.8 196:-0.7 197:4.2 198:4.2 
1.0 7:1.0 30:1.0 57:1.0 75:1.0 98:1.0 106:1.0 133:1.0 160:1.0 170:1.0 181:4.61 182:3.93447 183:2.60404 184:7.29789 185:2.57485 186:0.0 187:2.41269 188:6.51043 189:3.92368 190:-3.2 191:3.8 192:-0.7 193:-4.5 194:4.2 195:-0.4 196:-1.6 197:-1.3 198:3.8 
1.0 15:1.0 31:1.0 51:1.0 64:1.0 97:1.0 119:1.0 127:1.0 153:1.0 170:1.0 181:7.29065 182:5.32634 183:5.33283 184:4.97523 185:2.61319 186:5.98306 187:4.70188 188:2.39669 189:3.92375 190:-4.5 191:1.9 192:1.9 193:-3.5 194:-0.7 195:-0.9 196:-3.2 197:-1.6 198:3.8 
1.0 18:1.0 30:1.0 48:1.0 61:1.0 86:1.0 108:1.0 128:1.0 150:1.0 170:1.0 181:2.5872 182:3.93489 183:3.91774 184:1.53687 185:0.0 186:3.92178 187:3.91845 188:3.93106 189:3.92348 190:4.2 191:3.8 192:4.5 193:1.8 194:-0.4 195:4.5 196:4.5 197:3.8 198:3.8 
1.0 6:1.0 30:1.0 47:1.0 61:1.0 81:1.0 101:1.0 133:1.0 147:1.0 170:1.0 181:0.0 182:3.93589 183:4.50291 184:1.53658 185:1.53709 186:1.53818 187:2.40944 188:4.48817 189:3.92401 190:-0.4 191:3.8 192:-3.2 193:1.8 194:1.8 195:1.8 196:-1.6 197:-3.2 198:3.8 
1.0 10:1.0 30:1.0 41:1.0 73:1.0 88:1.0 117:1.0 121:1.0 160:1.0 161:1.0 181:3.93792 182:3.93275 183:1.53857 184:2.41597 185:3.91927 186:2.61418 187:1.53682 188:6.51143 189:1.53833 190:3.8 191:3.8 192:1.8 193:-1.6 194:4.5 195:-0.7 196:1.8 197:-1.3 198:1.8 
1.0 10:1.0 31:1.0 46:1.0 67:1.0 85:1.0 116:1.0 139:1.0 159:1.0 177:1.0 181:3.93671 182:5.33363 183:0.0 184:4.49646 185:5.17717 186:2.43416 187:6.03386 188:6.05633 189:2.51393 190:3.8 191:1.9 192:-0.4 193:-3.2 194:2.8 195:-0.8 196:-0.9 197:-0.9 198:-0.7 
1.0 1:1.0 31:1.0 60:1.0 78:1.0 81:1.0 108:1.0 134:1.0 141:1.0 178:1.0 181:1.54054 182:5.32983 183:6.53563 184:2.57295 185:1.53552 186:3.91965 187:5.01031 188:1.53628 189:2.56951 190:1.8 191:1.9 192:-1.3 193:4.2 194:1.8 195:4.5 196:-3.5 197:1.8 198:4.2 
0.20383068365232704 5:1.0 30:1.0 50:1.0 61:1.0 90:1.0 110:1.0 136:1.0 142:1.0 170:1.0 181:5.20585 182:3.9336 183:3.93388 184:1.53573 185:3.93449 186:3.93431 187:2.43455 188:2.77348 189:3.92404 190:2.8 191:3.8 192:3.8 193:1.8 194:3.8 195:3.8 196:-0.8 197:2.5 198:3.8 
1.0 9:1.0 31:1.0 52:1.0 72:1.0 83:1.0 118:1.0 125:1.0 145:1.0 171:1.0 181:6.3931 182:5.32851 183:3.71949 184:3.71984 185:3.64219 186:2.57891 187:5.19083 188:5.18403 189:5.32193 190:-3.9 191:1.9 192:-3.5 193:-3.5 194:-3.5 195:4.2 196:2.8 197:2.8 198:1.9 
1.0 1:1.0 30:1.0 59:1.0 63:1.0 98:1.0 113:1.0 136:1.0 153:1.0 161:1.0 181:1.54094 182:3.93152 183:6.06231 184:3.70159 185:2.62529 186:2.411 187:2.4333 188:2.40831 189:1.5375 190:1.8 191:3.8 192:-0.9 193:-3.5 194:4.2 195:-1.6 196:-0.8 197:-1.6 198:1.8 
1.0 17:1.0 30:1.0 46:1.0 78:1.0 100:1.0 103:1.0 140:1.0 150:1.0 178:1.0 181:2.53265 182:3.93641 183:0.0 184:2.57581 185:6.55113 186:3.62779 187:6.56476 188:3.93135 189:2.56888 190:-0.7 191:3.8 192:-0.4 193:4.2 194:-1.3 195:-3.5 196:-1.3 197:3.8 198:4.2 
1.0 1:1.0 30:1.0 59:1.0 66:1.0 85:1.0 105:1.0 133:1.0 158:1.0 170:1.0 181:1.53926 182:3.93237 183:6.03404 184:0.0 185:5.20033 186:5.21534 187:2.41203 188:2.57695 189:3.92622 190:1.8 191:3.8 192:-0.9 193:-0.4 194:2.8 195:2.8 196:-1.6 197:4.2 198:3.8 
1.0 8:1.0 30:1.0 59:1.0 64:1.0 92:1.0 112:1.0 128:1.0 149:1.0 170:1.0 181:3.92539 182:3.93298 183:6.02671 184:4.98145 185:3.7073 186:3.72645 187:3.92154 188:6.38248 189:3.92314 190:4.5 191:3.8 192:-0.9 193:-3.5 194:-3.5 195:-3.5 196:4.5 197:-3.9 198:3.8 
1.0 9:1.0 30:1.0 50:1.0 73:1.0 83:1.0 117:1.0 121:1.0 141:1.0 178:1.0 181:6.39275 182:3.93266 183:3.92647 184:2.41244 185:3.68014 186:2.61485 187:1.53715 188:1.53627 189:2.57145 190:-3.9 191:3.8 192:3.8 193:-1.6 194:-3.5 195:-0.7 196:1.8 197:1.8 198:4.2 
1.0 5:1.0 37:1.0 56:1.0 61:1.0 98:1.0 110:1.0 130:1.0 150:1.0 170:1.0 181:5.1956 182:2.61056 183:2.43743 184:1.53712 185:2.57456 186:3.93362 187:3.9306 188:3.93046 189:3.92231 190:2.8 191:-0.7 192:-0.8 193:1.8 194:4.2 195:3.8 196:3.8 197:3.8 198:3.8 
1.0 5:1.0 30:1.0 56:1.0 63:1.0 96:1.0 104:1.0 121:1.0 144:1.0 161:1.0 181:5.19627 182:3.93484 183:2.43779 184:3.69755 185:2.43887 186:4.98236 187:1.53612 188:4.98316 189:1.53785 190:2.8 191:3.8 192:-0.8 193:-3.5 194:-0.8 195:-3.5 196:1.8 197:-3.5 198:1.8 
0.4150471982774108 10:1.0 30:1.0 50:1.0 63:1.0 83:1.0 105:1.0 138:1.0 144:1.0 168:1.0 181:3.9389 182:3.93391 183:3.93212 184:3.63105 185:3.63731 186:5.18847 187:2.57254 188:4.98329 189:3.91619 190:3.8 191:3.8 192:3.8 193:-3.5 194:-3.5 195:2.8 196:4.2 197:-3.5 198:4.5 
1.0 1:1.0 30:1.0 50:1.0 66:1.0 81:1.0 119:1.0 133:1.0 141:1.0 178:1.0 181:1.53961 182:3.93219 183:3.93468 184:0.0 185:1.53739 186:6.0073 187:2.4137 188:1.53562 189:2.57252 190:1.8 191:3.8 192:3.8 193:-0.4 194:1.8 195:-0.9 196:-1.6 197:1.8 198:4.2 
1.0 5:1.0 30:1.0 55:1.0 80:1.0 90:1.0 110:1.0 125:1.0 146:1.0 168:1.0 181:5.20419 182:3.93527 183:7.2248 184:6.55317 185:3.93444 186:3.93325 187:5.17272 188:0.0 189:3.91899 190:2.8 191:3.8 192:-4.5 193:-1.3 194:3.8 195:3.8 196:2.8 197:-0.4 198:4.5 
1.0 1:1.0 31:1.0 45:1.0 77:1.0 81:1.0 101:1.0 130:1.0 152:1.0 168:1.0 181:1.5402 182:5.3377 183:5.17936 184:2.61376 185:1.5363 186:1.53694 187:3.93451 188:3.72444 189:3.91561 190:1.8 191:1.9 192:2.8 193:-0.7 194:1.8 195:1.8 196:3.8 197:-3.5 198:4.5 
1.0 18:1.0 30:1.0 41:1.0 63:1.0 83:1.0 118:1.0 140:1.0 153:1.0 170:1.0 181:2.58778 182:3.93493 183:1.53588 184:3.67121 185:3.64096 186:2.5789 187:6.53243 188:2.4116 189:3.92162 190:4.2 191:3.8 192:1.8 193:-3.5 194:-3.5 195:4.2 196:-1.3 197:-1.6 198:3.8 
1.0 1:1.0 30:1.0 51:1.0 63:1.0 90:1.0 110:1.0 131:1.0 145:1.0 176:1.0 181:1.54039 182:3.93684 183:5.32227 184:3.64104 185:3.9306 186:3.93354 187:5.32773 188:5.18978 189:2.41504 190:1.8 191:3.8 192:1.9 193:-3.5 194:3.8 195:3.8 196:1.9 197:2.8 198:-0.8 
1.0 20:1.0 28:1.0 50:1.0 80:1.0 88:1.0 118:1.0 125:1.0 142:1.0 168:1.0 181:6.56069 182:3.92343 183:3.93232 184:6.56033 185:3.92001 186:2.57551 187:5.19907 188:2.76948 189:3.91528 190:-1.3 191:4.5 192:3.8 193:-1.3 194:4.5 195:4.2 196:2.8 197:2.5 198:4.5 
1.0 9:1.0 30:1.0 50:1.0 77:1.0 89:1.0 113:1.0 139:1.0 143:1.0 178:1.0 181:6.39198 182:3.93264 183:3.92891 184:2.6098 185:6.37559 186:2.41514 187:5.99226 188:3.69378 189:2.57602 190:-3.9 191:3.8 192:3.8 193:-0.7 194:-3.9 195:-1.6 196:-0.9 197:-3.5 198:4.2 
1.0 10:1.0 30:1.0 51:1.0 66:1.0 82:1.0 103:1.0 128:1.0 158:1.0 170:1.0 181:3.93907 182:3.93253 183:5.33323 184:0.0 185:2.77846 186:3.66438 187:3.92101 188:2.57277 189:3.92331 190:3.8 191:3.8 192:1.9 193:-0.4 194:2.5 195:-3.5 196:4.5 197:4.2 198:3.8 
1.0 5:1.0 31:1.0 54:1.0 64:1.0 88:1.0 113:1.0 137:1.0 145:1.0 170:1.0 181:5.20391 182:5.33156 183:5.01532 184:4.97886 185:3.90854 186:2.41808 187:2.61566 188:5.18842 189:3.92282 190:2.8 191:1.9 192:-3.5 193:-3.5 194:4.5 195:-1.6 196:-0.7 197:2.8 198:3.8 
1.0 5:1.0 30:1.0 50:1.0 71:1.0 83:1.0 101:1.0 130:1.0 149:1.0 170:1.0 181:5.20632 182:3.93345 183:3.93394 184:5.32631 185:3.63836 186:1.53626 187:3.93612 188:6.37915 189:3.9241 190:2.8 191:3.8 192:3.8 193:1.9 194:-3.5 195:1.8 196:3.8 197:-3.9 198:3.8 
1.0 18:1.0 30:1.0 60:1.0 63:1.0 84:1.0 105:1.0 138:1.0 157:1.0 168:1.0 181:2.58753 182:3.93349 183:6.54742 184:3.61122 185:4.97977 186:5.22847 187:2.57453 188:2.60087 189:3.9127 190:4.2 191:3.8 192:-1.3 193:-3.5 194:-3.5 195:2.8 196:4.2 197:-0.7 198:4.5 
1.0 6:1.0 30:1.0 45:1.0 73:1.0 98:1.0 116:1.0 128:1.0 153:1.0 168:1.0 181:0.0 182:3.93488 183:5.1898 184:2.41444 185:2.57765 186:2.43704 187:3.90381 188:2.41098 189:3.90928 190:-0.4 191:3.8 192:2.8 193:-1.6 194:4.2 195:-0.8 196:4.5 197:-1.6 198:4.5 
1.0 8:1.0 31:1.0 45:1.0 77:1.0 82:1.0 111:1.0 123:1.0 153:1.0 170:1.0 181:3.92484 182:5.3315 183:5.18657 184:2.61104 185:2.77031 186:5.34929 187:3.6906 188:2.41283 189:3.92476 190:4.5 191:1.9 192:2.8 193:-0.7 194:2.5 195:1.9 196:-3.5 197:-1.6 198:3.8 
1.0 8:1.0 38:1.0 59:1.0 64:1.0 89:1.0 109:1.0 136:1.0 150:1.0 178:1.0 181:3.92368 182:2.57485 183:6.02571 184:4.97889 185:6.38893 186:6.38793 187:2.43269 188:3.93117 189:2.56971 190:4.5 191:4.2 192:-0.9 193:-3.5 194:-3.9 195:-3.9 196:-0.8 197:3.8 198:4.2 
1.0 18:1.0 31:1.0 58:1.0 69:1.0 88:1.0 112:1.0 133:1.0 157:1.0 170:1.0 181:2.58742 182:5.32946 183:2.57272 184:6.38234 185:3.92181 186:3.72094 187:2.41513 188:2.61538 189:3.92501 190:4.2 191:1.9 192:4.2 193:-3.9 194:4.5 195:-3.5 196:-1.6 197:-0.7 198:3.8 
1.0 11:1.0 30:1.0 59:1.0 71:1.0 81:1.0 104:1.0 128:1.0 153:1.0 170:1.0 181:5.33753 182:3.93497 183:6.02618 184:5.33183 185:1.53528 186:4.98297 187:3.90428 188:2.41735 189:3.9259 190:1.9 191:3.8 192:-0.9 193:1.9 194:1.8 195:-3.5 196:4.5 197:-1.6 198:3.8 
1.0 9:1.0 30:1.0 45:1.0 77:1.0 83:1.0 112:1.0 132:1.0 145:1.0 170:1.0 181:6.39232 182:3.93333 183:5.18281 184:2.60944 185:3.62502 186:3.708 187:3.70979 188:5.18862 189:3.92394 190:-3.9 191:3.8 192:2.8 193:-0.7 194:-3.5 195:-3.5 196:-3.5 197:2.8 198:3.8 
1.0 16:1.0 31:1.0 48:1.0 66:1.0 90:1.0 102:1.0 121:1.0 142:1.0 178:1.0 181:2.43488 182:5.32559 183:3.91971 184:0.0 185:3.93671 186:2.7714 187:1.53673 188:2.77322 189:2.57059 190:-0.8 191:1.9 192:4.5 193:-0.4 194:3.8 195:2.5 196:1.8 197:2.5 198:4.2 
1.0 5:1.0 30:1.0 41:1.0 61:1.0 83:1.0 101:1.0 130:1.0 158:1.0 170:1.0 181:5.18536 182:3.93289 183:1.53567 184:1.53664 185:3.64222 186:1.53692 187:3.93517 188:2.57255 189:3.92372 190:2.8 191:3.8 192:1.8 193:1.8 194:-3.5 195:1.8 196:3.8 197:4.2 198:3.8 
1.0 5:1.0 30:1.0 55:1.0 63:1.0 92:1.0 110:1.0 140:1.0 147:1.0 178:1.0 181:5.2033 182:3.93534 183:7.27528 184:3.66948 185:3.70451 186:3.93246 187:6.55018 188:4.49142 189:2.57263 190:2.8 191:3.8 192:-4.5 193:-3.5 194:-3.5 195:3.8 196:-1.3 197:-3.2 198:4.2 
1.0 16:1.0 30:1.0 41:1.0 75:1.0 86:1.0 105:1.0 133:1.0 145:1.0 178:1.0 181:2.43385 182:3.9352 183:1.53658 184:7.25399 185:0.0 186:5.20928 187:2.41215 188:5.18568 189:2.57382 190:-0.8 191:3.8 192:1.8 193:-4.5 194:-0.4 195:2.8 196:-1.6 197:2.8 198:4.2 
1.0 17:1.0 30:1.0 50:1.0 63:1.0 100:1.0 101:1.0 121:1.0 146:1.0 178:1.0 181:2.53296 182:3.93596 183:3.92882 184:3.644 185:6.54068 186:1.53609 187:1.53671 188:0.0 189:2.57038 190:-0.7 191:3.8 192:3.8 193:-3.5 194:-1.3 195:1.8 196:1.8 197:-0.4 198:4.2 
1.0 6:1.0 30:1.0 60:1.0 64:1.0 85:1.0 117:1.0 128:1.0 150:1.0 178:1.0 181:0.0 182:3.93328 183:6.547 184:4.98297 185:5.1958 186:2.60978 187:3.91934 188:3.93007 189:2.56881 190:-0.4 191:3.8 192:-1.3 193:-3.5 194:2.8 195:-0.7 196:4.5 197:3.8 198:4.2 
1.0 10:1.0 30:1.0 53:1.0 63:1.0 96:1.0 103:1.0 138:1.0 145:1.0 178:1.0 181:3.93801 182:3.92667 183:2.40997 184:3.64863 185:2.43695 186:3.63972 187:2.57964 188:5.19162 189:2.57269 190:3.8 191:3.8 192:-1.6 193:-3.5 194:-0.8 195:-3.5 196:4.2 197:2.8 198:4.2 
1.0 9:1.0 30:1.0 46:1.0 66:1.0 100:1.0 118:1.0 136:1.0 145:1.0 178:1.0 181:6.38924 182:3.93514 183:0.0 184:0.0 185:6.55777 186:2.57373 187:2.43714 188:5.19029 189:2.57179 190:-3.9 191:3.8 192:-0.4 193:-0.4 194:-1.3 195:4.2 196:-0.8 197:2.8 198:4.2 
1.0 6:1.0 31:1.0 56:1.0 75:1.0 88:1.0 106:1.0 131:1.0 144:1.0 178:1.0 181:0.0 182:5.33079 183:2.43385 184:7.30673 185:3.91983 186:0.0 187:5.33222 188:4.97755 189:2.57162 190:-0.4 191:1.9 192:-0.8 193:-4.5 194:4.5 195:-0.4 196:1.9 197:-3.5 198:4.2 
1.0 6:1.0 30:1.0 60:1.0 70:1.0 100:1.0 115:1.0 125:1.0 147:1.0 178:1.0 181:0.0 182:3.93306 183:6.54597 184:3.9325 185:6.55091 186:7.24672 187:5.20031 188:4.4865 189:2.5746 190:-0.4 191:3.8 192:-1.3 193:3.8 194:-1.3 195:-4.5 196:2.8 197:-3.2 198:4.2 
1.0 1:1.0 30:1.0 48:1.0 66:1.0 86:1.0 105:1.0 129:1.0 153:1.0 178:1.0 181:1.5403 182:3.93217 183:3.92041 184:0.0 185:0.0 186:5.19166 187:6.3743 188:2.41348 189:2.56928 190:1.8 191:3.8 192:4.5 193:-0.4 194:-0.4 195:2.8 196:-3.9 197:-1.6 198:4.2 
1.0 5:1.0 30:1.0 50:1.0 63:1.0 86:1.0 106:1.0 121:1.0 153:1.0 165:1.0 181:5.20651 182:3.93484 183:3.92907 184:3.69408 185:0.0 186:0.0 187:1.53949 188:2.41153 189:5.2028 190:2.8 191:3.8 192:3.8 193:-3.5 194:-0.4 195:-0.4 196:1.8 197:-1.6 198:2.8 
1.0 20:1.0 30:1.0 56:1.0 63:1.0 96:1.0 101:1.0 128:1.0 152:1.0 168:1.0 181:6.54666 182:3.93624 183:2.43902 184:3.67422 185:2.43759 186:1.53704 187:3.91986 188:3.7243 189:3.91492 190:-1.3 191:3.8 192:-0.8 193:-3.5 194:-0.8 195:1.8 196:4.5 197:-3.5 198:4.5 
1.0 9:1.0 30:1.0 48:1.0 68:1.0 87:1.0 112:1.0 133:1.0 144:1.0 170:1.0 181:6.39056 182:3.93586 183:3.92085 184:3.92265 185:4.62179 186:3.70378 187:2.4089 188:4.97543 189:3.92495 190:-3.9 191:3.8 192:4.5 193:4.5 194:-3.2 195:-3.5 196:-1.6 197:-3.5 198:3.8 
1.0 10:1.0 30:1.0 51:1.0 63:1.0 82:1.0 116:1.0 126:1.0 156:1.0 168:1.0 181:3.93843 182:3.93438 183:5.32644 184:3.66654 185:2.76769 186:2.44188 187:0.0 188:2.44081 189:3.91374 190:3.8 191:3.8 192:1.9 193:-3.5 194:2.5 195:-0.8 196:-0.4 197:-0.8 198:4.5 
1.0 18:1.0 31:1.0 59:1.0 61:1.0 86:1.0 113:1.0 139:1.0 156:1.0 176:1.0 181:2.58776 182:5.33131 183:6.0239 184:1.53749 185:0.0 186:2.40931 187:6.01574 188:2.43655 189:2.41294 190:4.2 191:1.9 192:-0.9 193:1.8 194:-0.4 195:-1.6 196:-0.9 197:-0.8 198:-0.8 
0.8126096048936721 1:1.0 31:1.0 50:1.0 72:1.0 86:1.0 110:1.0 128:1.0 160:1.0 178:1.0 181:1.5402 182:5.33031 183:3.93108 184:3.73944 185:0.0 186:3.93812 187:3.91914 188:6.51733 189:2.57228 190:1.8 191:1.9 192:3.8 193:-3.5 194:-0.4 195:3.8 196:4.5 197:-1.3 198:4.2 
1.0 16:1.0 30:1.0 56:1.0 61:1.0 100:1.0 108:1.0 128:1.0 155:1.0 178:1.0 181:2.43383 182:3.93617 183:2.43643 184:1.53604 185:6.56695 186:3.91985 187:3.92577 188:7.30874 189:2.56777 190:-0.8 191:3.8 192:-0.8 193:1.8 194:-1.3 195:4.5 196:4.5 197:-4.5 198:4.2 
1.0 17:1.0 38:1.0 50:1.0 76:1.0 85:1.0 102:1.0 121:1.0 145:1.0 161:1.0 181:2.5344 182:2.57464 183:3.93393 184:2.43396 185:5.17428 186:2.7711 187:1.53629 188:5.19256 189:1.53937 190:-0.7 191:4.2 192:3.8 193:-0.8 194:2.8 195:2.5 196:1.8 197:2.8 198:1.8 
1.0 7:1.0 30:1.0 48:1.0 69:1.0 88:1.0 113:1.0 130:1.0 150:1.0 168:1.0 181:4.54758 182:3.93218 183:3.92201 184:6.3873 185:3.90756 186:2.41353 187:3.92969 188:3.93097 189:3.91581 190:-3.2 191:3.8 192:4.5 193:-3.9 194:4.5 195:-1.6 196:3.8 197:3.8 198:4.5 
1.0 16:1.0 31:1.0 58:1.0 72:1.0 86:1.0 118:1.0 138:1.0 155:1.0 170:1.0 181:2.43378 182:5.32877 183:2.57205 184:3.74616 185:0.0 186:2.57467 187:2.57505 188:7.29557 189:3.92231 190:-0.8 191:1.9 192:4.2 193:-3.5 194:-0.4 195:4.2 196:4.2 197:-4.5 198:3.8 
1.0 20:1.0 28:1.0 43:1.0 61:1.0 100:1.0 118:1.0 136:1.0 155:1.0 170:1.0 181:6.57072 182:3.92404 183:3.62901 184:1.53658 185:6.55509 186:2.57253 187:2.43494 188:7.29144 189:3.92333 190:-1.3 191:4.5 192:-3.5 193:1.8 194:-1.3 195:4.2 196:-0.8 197:-4.5 198:3.8 
1.0 6:1.0 30:1.0 60:1.0 66:1.0 92:1.0 106:1.0 128:1.0 150:1.0 178:1.0 181:0.0 182:3.93223 183:6.53137 184:0.0 185:3.73743 186:0.0 187:3.92081 188:3.92869 189:2.56962 190:-0.4 191:3.8 192:-1.3 193:-0.4 194:-3.5 195:-0.4 196:4.5 197:3.8 198:4.2 
1.0 15:1.0 31:1.0 48:1.0 70:1.0 100:1.0 110:1.0 124:1.0 156:1.0 178:1.0 181:7.26955 182:5.3294 183:3.91835 184:3.93219 185:6.55434 186:3.93146 187:4.9882 188:2.43945 189:2.57207 190:-4.5 191:1.9 192:4.5 193:3.8 194:-1.3 195:3.8 196:-3.5 197:-0.8 198:4.2 
1.0 5:1.0 31:1.0 58:1.0 61:1.0 99:1.0 106:1.0 129:1.0 144:1.0 161:1.0 181:5.203 182:5.32972 183:2.5762 184:1.53643 185:6.02774 186:0.0 187:6.38937 188:4.98105 189:1.53882 190:2.8 191:1.9 192:4.2 193:1.8 194:-0.9 195:-0.4 196:-3.9 197:-3.5 198:1.8 
1.0 8:1.0 30:1.0 56:1.0 62:1.0 88:1.0 105:1.0 121:1.0 145:1.0 168:1.0 181:3.9219 182:3.93431 183:2.43483 184:2.77195 185:3.92014 186:5.18118 187:1.53622 188:5.19031 189:3.9155 190:4.5 191:3.8 192:-0.8 193:2.5 194:4.5 195:2.8 196:1.8 197:2.8 198:4.5 
1.0 1:1.0 30:1.0 51:1.0 75:1.0 95:1.0 108:1.0 121:1.0 158:1.0 178:1.0 181:1.53956 182:3.9353 183:5.32767 184:7.27241 185:7.29074 186:3.92092 187:1.53645 188:2.57406 189:2.56954 190:1.8 191:3.8 192:1.9 193:-4.5 194:-4.5 195:4.5 196:1.8 197:4.2 198:4.2 
1.0 9:1.0 30:1.0 52:1.0 63:1.0 99:1.0 103:1.0 125:1.0 158:1.0 178:1.0 181:6.39112 182:3.93604 183:3.7059 184:3.63798 185:6.04122 186:3.68093 187:5.19225 188:2.57179 189:2.57046 190:-3.9 191:3.8 192:-3.5 193:-3.5 194:-0.9 195:-3.5 196:2.8 197:4.2 198:4.2 
1.0 16:1.0 30:1.0 57:1.0 63:1.0 95:1.0 104:1.0 130:1.0 150:1.0 170:1.0 181:2.43351 182:3.93103 183:2.60363 184:3.68695 185:7.28469 186:4.98146 187:3.93159 188:3.93156 189:3.92328 190:-0.8 191:3.8 192:-0.7 193:-3.5 194:-4.5 195:-3.5 196:3.8 197:3.8 198:3.8 
1.0 16:1.0 38:1.0 51:1.0 72:1.0 85:1.0 108:1.0 133:1.0 148:1.0 168:1.0 181:2.43415 182:2.57623 183:5.3299 184:3.71407 185:5.18096 186:3.91732 187:2.41344 188:3.91097 189:3.91219 190:-0.8 191:4.2 192:1.9 193:-3.5 194:2.8 195:4.5 196:-1.6 197:4.5 198:4.5 
1.0 5:1.0 30:1.0 41:1.0 76:1.0 90:1.0 118:1.0 138:1.0 150:1.0 161:1.0 181:5.19197 182:3.93462 183:1.5362 184:2.43867 185:3.93355 186:2.57219 187:2.5744 188:3.93091 189:1.5379 190:2.8 191:3.8 192:1.8 193:-0.8 194:3.8 195:4.2 196:4.2 197:3.8 198:1.8 
1.0 10:1.0 30:1.0 58:1.0 64:1.0 98:1.0 110:1.0 135:1.0 144:1.0 168:1.0 181:3.93962 182:3.93481 183:2.57196 184:4.9843 185:2.57462 186:3.93586 187:7.291 188:4.98004 189:3.9157 190:3.8 191:3.8 192:4.2 193:-3.5 194:4.2 195:3.8 196:-4.5 197:-3.5 198:4.5 
1.0 10:1.0 30:1.0 51:1.0 73:1.0 88:1.0 110:1.0 137:1.0 150:1.0 177:1.0 181:3.93766 182:3.93393 183:5.31895 184:2.41709 185:3.91673 186:3.92962 187:2.6077 188:3.93059 189:2.59821 190:3.8 191:3.8 192:1.9 193:-1.6 194:4.5 195:3.8 196:-0.7 197:3.8 198:-0.7 
1.0 18:1.0 30:1.0 52:1.0 73:1.0 100:1.0 111:1.0 133:1.0 157:1.0 178:1.0 181:2.58898 182:3.93366 183:3.72939 184:2.42138 185:6.53341 186:5.32633 187:2.40062 188:2.61072 189:2.57295 190:4.2 191:3.8 192:-3.5 193:-1.6 194:-1.3 195:1.9 196:-1.6 197:-0.7 198:4.2 
1.0 9:1.0 30:1.0 56:1.0 80:1.0 86:1.0 108:1.0 121:1.0 157:1.0 178:1.0 181:6.39158 182:3.93567 183:2.43256 184:6.53697 185:0.0 186:3.92648 187:1.53606 188:2.60993 189:2.57088 190:-3.9 191:3.8 192:-0.8 193:-1.3 194:-0.4 195:4.5 196:1.8 197:-0.7 198:4.2 
1.0 5:1.0 37:1.0 56:1.0 63:1.0 100:1.0 113:1.0 125:1.0 160:1.0 178:1.0 181:5.19445 182:2.6095 183:2.43642 184:3.67537 185:6.51247 186:2.4151 187:5.16568 188:6.52206 189:2.57319 190:2.8 191:-0.7 192:-0.8 193:-3.5 194:-1.3 195:-1.6 196:2.8 197:-1.3 198:4.2 
1.0 6:1.0 30:1.0 48:1.0 76:1.0 85:1.0 120:1.0 132:1.0 145:1.0 170:1.0 181:0.0 182:3.9347 183:3.92315 184:2.4325 185:5.18686 186:6.56519 187:3.69431 188:5.19685 189:3.92187 190:-0.4 191:3.8 192:4.5 193:-0.8 194:2.8 195:-1.3 196:-3.5 197:2.8 198:3.8 
1.0 16:1.0 30:1.0 45:1.0 70:1.0 87:1.0 110:1.0 138:1.0 146:1.0 168:1.0 181:2.43486 182:3.93344 183:5.19209 184:3.93199 185:4.50215 186:3.93127 187:2.57134 188:0.0 189:3.91485 190:-0.8 191:3.8 192:2.8 193:3.8 194:-3.2 195:3.8 196:4.2 197:-0.4 198:4.5 
1.0 14:1.0 30:1.0 59:1.0 77:1.0 81:1.0 110:1.0 128:1.0 156:1.0 170:1.0 181:5.0183 182:3.93338 183:6.04387 184:2.61171 185:1.53609 186:3.93593 187:3.91891 188:2.43787 189:3.92356 190:-3.5 191:3.8 192:-0.9 193:-0.7 194:1.8 195:3.8 196:4.5 197:-0.8 198:3.8 
1.0 18:1.0 30:1.0 59:1.0 76:1.0 90:1.0 110:1.0 139:1.0 150:1.0 166:1.0 181:2.58831 182:3.93306 183:6.03679 184:2.43312 185:3.93059 186:3.93261 187:6.02051 188:3.92526 189:0.0 190:4.2 191:3.8 192:-0.9 193:-0.8 194:3.8 195:3.8 196:-0.9 197:3.8 198:-0.4 
1.0 11:1.0 30:1.0 52:1.0 73:1.0 85:1.0 108:1.0 140:1.0 156:1.0 170:1.0 181:5.3374 182:3.93199 183:3.72144 184:2.4184 185:5.16625 186:3.92309 187:6.52441 188:2.43915 189:3.92426 190:1.9 191:3.8 192:-3.5 193:-1.6 194:2.8 195:4.5 196:-1.3 197:-0.8 198:3.8 
1.0 9:1.0 30:1.0 57:1.0 63:1.0 99:1.0 103:1.0 125:1.0 158:1.0 178:1.0 181:6.39244 182:3.93084 183:2.60398 184:3.63838 185:6.02759 186:3.67446 187:5.19194 188:2.57202 189:2.56986 190:-3.9 191:3.8 192:-0.7 193:-3.5 194:-0.9 195:-3.5 196:2.8 197:4.2 198:4.2 
1.0 10:1.0 38:1.0 48:1.0 66:1.0 85:1.0 110:1.0 125:1.0 150:1.0 161:1.0 181:3.94076 182:2.57214 183:3.92112 184:0.0 185:5.20082 186:3.93067 187:5.18885 188:3.92918 189:1.53741 190:3.8 191:4.2 192:4.5 193:-0.4 194:2.8 195:3.8 196:2.8 197:3.8 198:1.8 
